34 128
34 -0.022965 0.003065 -0.045382 -0.013419 -0.077482 -0.065611 0.020851 -0.059099 -0.081120 -0.090833 -0.132005 -0.015511 0.149806 0.053298 -0.158244 0.057928 -0.055163 0.120957 0.002920 -0.061932 0.023282 0.022020 0.060960 -0.041388 -0.034421 -0.112727 0.050456 0.000728 -0.058454 0.016631 -0.023429 0.162665 0.144258 0.002010 -0.057160 0.070664 0.155856 0.056665 -0.015129 -0.021983 -0.114482 0.046698 -0.060453 -0.023534 -0.153970 0.120980 0.170772 -0.030722 0.025297 0.037510 -0.003997 -0.199469 -0.096612 -0.056305 0.109704 -0.197341 -0.005055 -0.002207 0.015957 0.027283 0.049741 0.109047 0.069684 -0.074045 0.060204 -0.022511 0.040880 -0.140563 0.252908 -0.005289 -0.014617 -0.098620 0.112944 -0.147712 0.009736 -0.007249 -0.082777 -0.068022 -0.051829 0.048756 -0.080243 -0.043392 0.128748 -0.021349 0.016214 -0.104672 -0.062306 0.114321 0.113780 -0.072467 0.120457 -0.007150 -0.025728 0.131856 -0.113419 -0.170968 0.194345 0.072926 -0.130965 0.122461 0.139305 0.124964 -0.006042 0.149165 0.177414 0.055974 -0.147733 0.044322 0.087369 0.109030 -0.143187 0.128464 -0.008185 -0.036362 0.228737 0.129029 0.063943 -0.065494 0.061394 0.102160 -0.065799 0.116404 0.036441 0.015833 -0.147167 -0.158629 -0.149210 0.077361
1 -0.023337 0.041400 0.038872 -0.097279 -0.040996 -0.045847 -0.023687 -0.064190 -0.093833 -0.165589 -0.089217 0.084296 0.078535 -0.027447 -0.060111 0.014863 -0.000141 0.049399 -0.003814 -0.083682 0.042426 0.033354 -0.002054 -0.099334 -0.038601 0.010270 -0.066602 0.001286 -0.123266 0.145587 0.010640 0.025170 0.114344 0.046146 -0.050995 0.032339 0.100585 -0.015688 -0.081894 0.050526 -0.179286 0.090960 -0.031985 -0.055220 -0.140742 0.082947 0.214720 -0.014613 -0.046796 0.044918 -0.016935 -0.156064 -0.163761 -0.085138 0.032843 -0.310171 0.071022 0.030437 0.057565 -0.076663 0.187816 0.105434 0.039737 -0.052027 0.056087 -0.098602 -0.067152 -0.202987 0.308169 -0.018030 0.004729 -0.062810 -0.059353 -0.158133 0.107002 0.026629 -0.181360 -0.183335 -0.021722 0.035185 0.033568 -0.125352 0.077363 0.059724 0.009833 -0.022549 0.014103 0.018952 0.223831 -0.162899 0.038870 -0.040706 -0.075275 0.113032 -0.078397 -0.145435 0.066411 -0.052867 -0.058847 0.078669 0.026330 0.050089 0.072607 0.167507 0.131338 0.045668 -0.094291 0.049643 0.003786 0.101889 -0.198288 0.111851 -0.029585 -0.058551 0.180887 0.192545 -0.051559 0.070291 0.044805 0.002701 -0.167775 0.174548 0.168317 -0.103076 -0.138298 -0.121799 -0.181686 0.046148
33 -0.022577 -0.023270 -0.086655 0.030366 -0.094554 -0.049085 0.035967 -0.061336 -0.060013 -0.047849 -0.135859 -0.066082 0.150976 0.108743 -0.135369 0.030783 -0.087073 0.132795 -0.019337 -0.057112 0.035543 0.006993 0.083683 -0.031891 -0.006655 -0.133507 0.097388 -0.022121 -0.034726 -0.049701 -0.027484 0.182699 0.195277 -0.008733 -0.056019 0.098546 0.170629 0.095676 -0.010941 -0.047770 -0.124544 0.042508 -0.104472 -0.037081 -0.182321 0.168801 0.186528 -0.035306 0.072389 0.041880 0.001176 -0.267951 -0.103065 -0.051630 0.157948 -0.202078 -0.005657 -0.002579 -0.005117 0.052200 -0.001275 0.116001 0.087366 -0.098716 0.088056 -0.011689 0.068205 -0.162068 0.287874 0.000659 -0.021212 -0.116575 0.185168 -0.176803 -0.020835 0.006593 -0.078048 -0.059934 -0.060124 0.047041 -0.113299 -0.004312 0.158848 -0.040583 0.029295 -0.147644 -0.100011 0.152078 0.093665 -0.069713 0.141714 -0.003970 -0.021246 0.147713 -0.120517 -0.169232 0.182961 0.088546 -0.117284 0.100234 0.150090 0.119370 -0.029290 0.134194 0.150983 0.030828 -0.136935 0.013256 0.081184 0.082368 -0.088637 0.115310 -0.005369 -0.019664 0.191763 0.079985 0.100504 -0.095893 0.048454 0.107531 -0.043998 0.078993 0.007268 0.026310 -0.150046 -0.141430 -0.126498 0.060817
3 -0.004448 -0.005371 -0.009935 -0.042426 -0.017454 -0.090153 -0.023441 -0.023229 -0.040243 -0.134274 -0.102253 0.047361 0.053159 0.009615 -0.089398 0.030808 -0.031613 0.093537 -0.025574 -0.058826 0.033174 0.035622 0.074337 -0.092917 -0.036255 -0.023270 0.002141 -0.035404 -0.093467 0.093912 -0.009987 0.108921 0.182251 0.006546 -0.101992 0.045701 0.085878 0.012666 -0.050333 0.033417 -0.137147 0.065558 -0.068434 -0.048724 -0.097855 0.110200 0.189095 0.017292 0.014184 0.063293 0.031328 -0.162375 -0.124062 -0.027662 0.048591 -0.227468 0.088437 -0.007346 0.033543 -0.048996 0.093935 0.042031 0.080294 -0.051886 0.064059 -0.037708 -0.011386 -0.212364 0.257760 -0.040851 0.014355 -0.065218 0.042700 -0.149888 0.060935 0.023979 -0.152284 -0.135511 -0.000445 0.011987 -0.001684 -0.076329 0.054279 0.070337 0.023501 -0.073073 -0.054372 0.067985 0.186663 -0.165743 0.079173 -0.039079 -0.080810 0.083567 -0.070586 -0.139994 0.105526 -0.061999 -0.101611 0.102803 0.111549 0.067266 0.034102 0.182813 0.171464 0.081746 -0.156271 0.023990 0.058883 0.138793 -0.182040 0.122602 -0.036982 -0.046128 0.192494 0.187769 0.070531 0.017527 0.046022 0.084736 -0.093470 0.180106 0.124465 -0.033431 -0.104501 -0.175754 -0.103665 0.062773
2 -0.027286 0.010232 0.029041 -0.097566 -0.040595 -0.081303 -0.080021 -0.050405 -0.115552 -0.172427 -0.166418 0.080554 0.071611 -0.047337 -0.031432 0.035362 -0.021069 0.036638 -0.029330 -0.071740 0.085719 0.045113 0.021789 -0.111380 0.003205 0.014402 -0.035642 -0.057204 -0.138761 0.141355 0.046920 0.035284 0.171189 -0.023077 -0.090565 0.037410 0.095377 -0.007952 -0.077376 0.045534 -0.187153 0.050680 -0.028660 -0.061548 -0.126921 0.067311 0.174037 0.027521 0.010787 0.063811 0.027329 -0.169972 -0.145663 -0.091298 -0.003655 -0.299171 0.119887 0.005600 0.033362 -0.069441 0.175206 0.032625 0.081418 -0.051784 0.051057 -0.077470 -0.088172 -0.240492 0.293261 -0.052867 0.001338 -0.056576 -0.040309 -0.189155 0.083633 0.010191 -0.165731 -0.194080 0.018123 0.019811 0.043521 -0.159559 0.014991 0.076776 0.016797 -0.063938 -0.006938 -0.000432 0.267389 -0.181287 0.054328 -0.042194 -0.087706 0.092693 -0.056488 -0.129450 0.025996 -0.128859 -0.023300 0.070031 0.017530 0.075847 0.034442 0.183865 0.159463 0.046492 -0.132718 0.027175 -0.013066 0.128827 -0.174604 0.139666 -0.063152 -0.042483 0.169265 0.201121 -0.034341 0.065402 0.068444 0.022011 -0.135175 0.190006 0.200896 -0.084209 -0.154646 -0.123025 -0.100995 0.059581
32 0.020554 -0.005864 -0.044797 -0.003018 -0.008234 -0.087670 0.032058 -0.014631 0.032837 -0.081637 -0.040852 0.002581 0.031170 0.071392 -0.151990 0.023015 -0.040390 0.161653 -0.022473 -0.044745 -0.029079 0.013473 0.113724 -0.064826 -0.072862 -0.056057 0.042042 0.002077 -0.064329 0.048116 -0.050922 0.187324 0.195677 0.082512 -0.091692 0.050410 0.115215 0.042571 -0.035095 -0.000594 -0.117911 0.112642 -0.128798 -0.058550 -0.084111 0.196992 0.232415 -0.021502 -0.016430 0.048803 -0.019413 -0.193314 -0.131998 0.008719 0.137492 -0.197260 0.025869 0.005396 0.054080 -0.021671 0.011346 0.115447 0.056307 -0.079401 0.061537 -0.015590 0.068994 -0.165104 0.263441 -0.009331 0.010996 -0.079666 0.165350 -0.108282 0.042750 0.036468 -0.163369 -0.079489 -0.067316 -0.000800 -0.065722 0.041433 0.130443 0.053051 0.035719 -0.086924 -0.104888 0.150140 0.105621 -0.127540 0.101021 -0.019287 -0.071158 0.094455 -0.085450 -0.141024 0.187480 0.047721 -0.183560 0.120809 0.187426 0.051602 0.038281 0.169319 0.160703 0.087483 -0.167987 0.014629 0.130937 0.106873 -0.150178 0.084931 -0.001704 -0.055310 0.185529 0.156279 0.158987 -0.055166 0.022075 0.094687 -0.067706 0.132671 0.005139 0.008475 -0.060541 -0.183324 -0.090758 0.051032
24 0.026576 -0.016703 -0.114123 0.065084 -0.018839 -0.075316 0.073359 -0.027006 0.061857 -0.031033 -0.062512 -0.073110 0.059380 0.139640 -0.190015 0.001951 -0.089259 0.202267 -0.036017 -0.021963 -0.051551 0.000362 0.155243 -0.032865 -0.058017 -0.099100 0.082755 0.010099 -0.022121 -0.028401 -0.080027 0.275404 0.228854 0.101570 -0.098249 0.068312 0.134016 0.094353 -0.005745 -0.044637 -0.112044 0.131074 -0.196835 -0.041420 -0.086108 0.267766 0.241815 -0.051446 0.018923 0.050210 -0.052101 -0.249116 -0.140015 0.009062 0.231155 -0.157498 -0.015851 0.012824 0.037897 0.035927 -0.088311 0.158283 0.058211 -0.097707 0.111194 0.010135 0.116794 -0.142051 0.291574 0.006094 -0.018566 -0.112290 0.283617 -0.124177 0.009984 0.025161 -0.152611 -0.035962 -0.113055 -0.003848 -0.153624 0.146896 0.187648 0.016613 0.036787 -0.130724 -0.151763 0.222529 0.021265 -0.082375 0.130990 0.000320 -0.044113 0.116524 -0.099302 -0.140050 0.214223 0.121795 -0.201653 0.110998 0.224540 0.034970 0.003297 0.145186 0.128561 0.053066 -0.179145 -0.012103 0.168348 0.094428 -0.101619 0.068055 0.011995 -0.040139 0.144325 0.095333 0.228487 -0.136908 0.008007 0.107292 -0.023956 0.067196 -0.089737 0.067507 -0.057870 -0.180074 -0.052774 0.052831
4 -0.030983 0.028597 0.026450 -0.086714 -0.018804 -0.084990 -0.038289 -0.030379 -0.060573 -0.176794 -0.115486 0.111182 0.032240 -0.051763 -0.053217 0.022873 0.002624 0.060790 -0.013500 -0.073547 0.046837 0.038285 0.031692 -0.113244 -0.037294 0.012741 -0.054762 -0.010988 -0.138250 0.165554 0.003232 0.041481 0.149765 0.028262 -0.089171 0.034878 0.055800 -0.026904 -0.069523 0.061458 -0.163293 0.081076 -0.028714 -0.040672 -0.097408 0.068507 0.192261 0.021648 -0.011798 0.060570 0.017332 -0.125760 -0.148971 -0.054820 0.000319 -0.267140 0.112034 0.009840 0.044011 -0.089871 0.166482 0.049172 0.075498 -0.029282 0.057289 -0.090895 -0.053944 -0.224626 0.274679 -0.030691 0.015792 -0.067263 -0.046873 -0.149138 0.100521 0.024221 -0.171022 -0.174821 0.010670 0.015251 0.061307 -0.123621 0.038602 0.090221 0.009462 -0.040549 -0.011054 0.023217 0.242511 -0.204278 0.055692 -0.042917 -0.102343 0.077028 -0.064787 -0.144655 0.074275 -0.113312 -0.069724 0.096012 0.076262 0.066615 0.052090 0.180065 0.153799 0.073019 -0.131506 0.023759 0.018908 0.135329 -0.199485 0.128512 -0.040188 -0.053611 0.188281 0.211842 0.011270 0.075832 0.063304 0.052793 -0.129725 0.199056 0.168386 -0.075843 -0.122498 -0.151987 -0.117012 0.042890
14 -0.008005 0.002890 0.008906 -0.060805 -0.036807 -0.070784 -0.041459 -0.032146 -0.073950 -0.147629 -0.118957 0.063406 0.070556 -0.006275 -0.058555 0.021840 -0.024274 0.060984 -0.025717 -0.065742 0.066844 0.036276 0.054988 -0.091839 -0.013796 0.002075 -0.019294 -0.030151 -0.112673 0.115238 0.008118 0.067153 0.168118 -0.008796 -0.084000 0.049817 0.088841 0.003862 -0.059386 0.028044 -0.168258 0.052806 -0.067372 -0.053273 -0.128187 0.097092 0.183243 0.010210 0.013244 0.061188 0.026787 -0.166885 -0.132714 -0.052106 0.042049 -0.251209 0.099869 -0.001429 0.028331 -0.067134 0.130506 0.039423 0.082031 -0.059402 0.060925 -0.054533 -0.035393 -0.227432 0.290231 -0.043822 0.013887 -0.072680 0.006195 -0.180783 0.078327 0.017026 -0.157559 -0.159564 0.005362 0.029374 0.007565 -0.108799 0.047089 0.061438 0.025079 -0.082360 -0.038830 0.045627 0.222798 -0.180812 0.067973 -0.029678 -0.092785 0.092129 -0.075843 -0.144885 0.068086 -0.076418 -0.055151 0.080883 0.061049 0.075203 0.024518 0.167653 0.148682 0.066265 -0.116038 0.007552 0.015717 0.113365 -0.160772 0.111441 -0.041225 -0.027759 0.166832 0.163705 0.021044 0.028804 0.047775 0.055112 -0.098011 0.156058 0.140550 -0.048949 -0.110477 -0.144542 -0.100301 0.049517
30 -0.003389 -0.007896 -0.067167 0.041429 -0.089948 -0.057713 0.038981 -0.061965 -0.077301 -0.047761 -0.163978 -0.073600 0.168178 0.100903 -0.175975 0.029907 -0.085281 0.122178 -0.020251 -0.025635 0.030406 0.010618 0.095225 -0.005515 -0.012256 -0.127030 0.091284 0.000819 -0.034125 -0.036553 -0.026139 0.211664 0.185861 -0.003382 -0.078261 0.086190 0.191403 0.096073 -0.013785 -0.072468 -0.144355 0.072222 -0.125057 -0.028890 -0.180370 0.186477 0.188487 -0.054080 0.065282 0.035176 -0.017961 -0.277283 -0.110629 -0.074139 0.190352 -0.204946 -0.019797 -0.001676 0.021224 0.057444 -0.005529 0.142207 0.072609 -0.103719 0.087462 -0.006896 0.066898 -0.155373 0.300833 0.003787 -0.047707 -0.116158 0.212050 -0.174001 -0.019148 -0.017061 -0.093867 -0.065890 -0.089005 0.066501 -0.139853 0.007677 0.164626 -0.051345 0.023558 -0.159712 -0.097922 0.167825 0.063492 -0.055820 0.148902 0.001178 -0.011032 0.139959 -0.110477 -0.175620 0.194007 0.108668 -0.106885 0.110421 0.126160 0.125721 -0.034815 0.116634 0.153470 0.031270 -0.142240 0.007827 0.082110 0.070203 -0.089688 0.089099 -0.009397 -0.020220 0.176762 0.091020 0.091021 -0.111056 0.064625 0.089906 -0.027434 0.058285 -0.017711 0.059474 -0.138009 -0.119074 -0.106078 0.068519
28 0.015499 -0.029835 -0.113936 0.034654 0.009596 -0.090135 0.032458 0.010346 0.099970 -0.038613 -0.033533 -0.019432 -0.017090 0.083012 -0.133265 0.021397 -0.077300 0.173275 -0.036440 -0.030803 -0.072398 0.005406 0.151180 -0.070835 -0.076122 -0.059395 0.058518 -0.025840 -0.042846 0.004281 -0.081467 0.239498 0.258709 0.109472 -0.125559 0.045345 0.098088 0.067852 -0.020489 0.003584 -0.097502 0.114829 -0.170658 -0.025462 -0.053605 0.228728 0.236386 0.005848 0.016864 0.082310 -0.013401 -0.211197 -0.135977 0.042606 0.159682 -0.163777 0.039897 -0.003759 0.041236 0.010079 -0.067271 0.105783 0.107891 -0.071926 0.086974 0.012294 0.096929 -0.177328 0.232414 -0.015309 0.023205 -0.100235 0.215363 -0.097163 0.026146 0.034148 -0.144097 -0.056842 -0.051744 -0.049556 -0.085395 0.102505 0.122814 0.078069 0.033363 -0.114149 -0.144457 0.182519 0.092973 -0.122949 0.113529 -0.027853 -0.060535 0.078843 -0.085588 -0.122269 0.197299 0.032128 -0.215891 0.128197 0.264284 0.047588 0.043674 0.196340 0.172433 0.095305 -0.221420 -0.001515 0.195663 0.152918 -0.153475 0.120539 -0.006070 -0.054226 0.165638 0.162301 0.263648 -0.093476 0.017890 0.136999 -0.048107 0.171927 -0.028556 0.024178 -0.077345 -0.238690 -0.046719 0.050603
9 -0.005843 -0.005492 -0.017519 -0.011113 -0.076517 -0.059119 0.000573 -0.054787 -0.090699 -0.100863 -0.151146 -0.010846 0.138861 0.059290 -0.114953 0.020224 -0.055776 0.100057 -0.017253 -0.051373 0.064555 0.026764 0.064442 -0.047254 -0.002424 -0.071288 0.051582 -0.012548 -0.067421 0.030992 0.004366 0.127014 0.175260 -0.019107 -0.072210 0.081163 0.157086 0.060159 -0.041874 -0.028428 -0.165291 0.064330 -0.098738 -0.053492 -0.181569 0.143758 0.195256 -0.021893 0.039571 0.033504 0.002394 -0.239765 -0.118408 -0.076385 0.126091 -0.246902 0.035787 0.005766 0.025260 -0.002912 0.078475 0.099802 0.061569 -0.086136 0.071927 -0.035954 0.004274 -0.193979 0.308680 -0.016476 -0.027644 -0.086677 0.115412 -0.191535 0.023289 -0.002286 -0.128712 -0.122561 -0.052646 0.061803 -0.066372 -0.060886 0.121761 -0.012186 0.025151 -0.120471 -0.061624 0.102239 0.142592 -0.123214 0.117831 -0.005987 -0.053608 0.129727 -0.099258 -0.175641 0.135572 0.028390 -0.074761 0.082457 0.080400 0.101423 -0.018316 0.128618 0.143031 0.040162 -0.109923 0.011128 0.026450 0.073094 -0.111638 0.089381 -0.021024 -0.026433 0.168080 0.106082 0.025025 -0.035620 0.054519 0.061961 -0.061529 0.083006 0.061171 0.002188 -0.119903 -0.103911 -0.114533 0.059948
6 -0.007029 0.158332 0.153612 -0.159233 -0.026095 -0.035824 0.051794 -0.079838 -0.083687 -0.213148 -0.010403 0.202059 0.106482 -0.088524 -0.208513 0.080751 0.071047 0.104090 0.072004 -0.113309 -0.037702 0.083126 -0.067836 -0.032331 -0.122832 -0.019463 -0.135507 0.162813 -0.152437 0.239298 -0.069643 0.013912 -0.072455 0.188595 0.025935 0.015924 0.160743 -0.083365 -0.068926 0.053909 -0.194750 0.172448 0.065023 -0.064454 -0.138790 0.059438 0.272998 -0.071366 -0.235235 0.024139 -0.117835 -0.026145 -0.176991 -0.084306 0.046576 -0.374643 -0.048333 0.117970 0.135928 -0.115919 0.308867 0.228094 -0.067980 -0.051012 -0.004508 -0.154303 0.013468 -0.077736 0.312982 0.049944 0.037808 -0.081883 -0.115111 -0.056487 0.145201 0.025350 -0.232567 -0.158684 -0.130252 0.075248 0.048943 -0.111650 0.168256 0.016285 0.009499 0.101764 0.071419 0.044939 0.200296 -0.086867 0.008891 0.032942 -0.107129 0.122503 -0.118159 -0.212338 0.153955 0.084636 -0.156928 0.132612 0.019444 0.056005 0.149303 0.115083 0.109530 0.064745 -0.009845 0.143350 -0.000058 0.041277 -0.238538 0.030595 0.065116 -0.105776 0.282538 0.207470 -0.193241 0.156153 0.046521 -0.068621 -0.231509 0.146093 0.054354 -0.113275 -0.034567 -0.140778 -0.288306 0.044394
7 -0.011658 0.166619 0.165377 -0.170392 -0.049767 -0.018802 0.043989 -0.095220 -0.126351 -0.224134 -0.023565 0.189739 0.151839 -0.093060 -0.191155 0.067031 0.069341 0.086735 0.064963 -0.117366 -0.019706 0.077728 -0.094443 -0.042527 -0.124460 -0.018051 -0.133100 0.155772 -0.151411 0.246844 -0.046064 -0.020985 -0.091773 0.155775 0.046292 0.007025 0.156307 -0.072400 -0.068774 0.046739 -0.189025 0.147885 0.081761 -0.064742 -0.162142 0.029431 0.240300 -0.081608 -0.221811 -0.006397 -0.113169 -0.018879 -0.156891 -0.113976 0.028671 -0.359908 -0.039401 0.113816 0.130564 -0.115576 0.315967 0.220908 -0.073760 -0.037381 -0.018430 -0.159252 -0.019211 -0.095719 0.313349 0.042532 0.030698 -0.074958 -0.136555 -0.068941 0.138103 0.012947 -0.216998 -0.167566 -0.124340 0.102668 0.055400 -0.148493 0.164830 0.002606 0.003070 0.103507 0.096952 0.017745 0.204567 -0.083501 0.017701 0.016181 -0.079066 0.141070 -0.111861 -0.221377 0.167907 0.087158 -0.141929 0.139961 0.003188 0.099630 0.147347 0.132043 0.137409 0.066255 -0.020067 0.149759 0.003728 0.059331 -0.264602 0.059131 0.047536 -0.122566 0.308092 0.225986 -0.206992 0.148338 0.060770 -0.060337 -0.247242 0.161033 0.108300 -0.126308 -0.079829 -0.126479 -0.323672 0.046555
8 -0.030666 0.027688 0.039244 -0.113356 -0.029147 -0.084513 -0.048018 -0.039111 -0.088646 -0.183395 -0.120221 0.117246 0.061032 -0.065047 -0.054650 0.043751 0.000918 0.059800 -0.012021 -0.079385 0.052582 0.049836 0.029157 -0.107405 -0.029176 0.011581 -0.049721 -0.019659 -0.147863 0.170040 0.015933 0.036939 0.131251 0.003859 -0.072710 0.035162 0.072935 -0.026465 -0.066838 0.055994 -0.163848 0.060132 -0.007971 -0.046893 -0.104368 0.044617 0.180979 0.026665 -0.019001 0.052417 0.024714 -0.114519 -0.139843 -0.066439 -0.016176 -0.277982 0.110513 0.005559 0.034236 -0.089258 0.188190 0.047896 0.078360 -0.037084 0.042850 -0.094680 -0.059732 -0.215355 0.265469 -0.038705 0.026698 -0.069978 -0.075116 -0.147688 0.090520 0.021096 -0.158344 -0.168264 0.015879 0.017501 0.061803 -0.149292 0.025053 0.090973 0.008560 -0.036539 -0.000614 0.004916 0.253603 -0.187410 0.050873 -0.034324 -0.105618 0.080647 -0.070275 -0.152613 0.070776 -0.108642 -0.063306 0.102947 0.061284 0.078852 0.059377 0.189614 0.169166 0.075101 -0.130417 0.040695 0.010116 0.141471 -0.213493 0.142806 -0.043828 -0.048813 0.217309 0.219217 -0.020533 0.078957 0.064587 0.056270 -0.151215 0.214533 0.185617 -0.089332 -0.144091 -0.157798 -0.133655 0.060266
26 0.025199 0.014211 -0.094941 0.025819 0.048976 -0.064816 0.083904 0.004685 0.167711 -0.035863 0.056426 0.015741 -0.043880 0.084345 -0.191174 0.034428 -0.054327 0.230849 -0.019292 -0.052507 -0.152605 -0.001146 0.143320 -0.076065 -0.133708 -0.063156 0.028334 0.033463 -0.048777 0.023432 -0.127846 0.264572 0.212173 0.226372 -0.088733 0.026254 0.104536 0.057320 -0.017648 0.002072 -0.060137 0.169161 -0.170430 -0.040601 0.000270 0.259491 0.272463 -0.024643 -0.066675 0.076908 -0.074782 -0.151660 -0.144845 0.089375 0.187693 -0.148236 -0.023269 0.028546 0.075371 -0.001897 -0.080951 0.177480 0.061058 -0.074754 0.072519 0.009087 0.150347 -0.109799 0.233615 0.014483 0.050001 -0.111072 0.234907 -0.019243 0.042928 0.051851 -0.185866 -0.024854 -0.115323 -0.071547 -0.093560 0.185629 0.165769 0.094024 0.041690 -0.048093 -0.149118 0.208148 0.044450 -0.078669 0.092366 -0.004326 -0.071348 0.091615 -0.091565 -0.119823 0.260177 0.108943 -0.308154 0.159240 0.317740 0.011482 0.107082 0.207125 0.167177 0.108875 -0.230478 0.031949 0.240291 0.151323 -0.188291 0.103133 0.046304 -0.090237 0.215910 0.191057 0.288311 -0.088164 -0.008340 0.117244 -0.099134 0.174422 -0.096759 0.005991 -0.036567 -0.286110 -0.083542 0.047047
25 0.010023 0.004583 -0.102206 0.017793 0.050172 -0.096249 0.061899 0.002060 0.150981 -0.064653 0.014377 0.015201 -0.050096 0.072804 -0.170226 0.029175 -0.051030 0.215645 -0.025738 -0.050759 -0.117702 0.002551 0.148940 -0.091796 -0.103275 -0.055235 0.021928 0.012468 -0.059993 0.037820 -0.110915 0.248017 0.224555 0.188309 -0.110229 0.030581 0.070555 0.039697 -0.012185 0.019262 -0.064736 0.151472 -0.156843 -0.026639 0.014186 0.232617 0.245590 -0.013220 -0.038655 0.081516 -0.054906 -0.145909 -0.149255 0.084258 0.155241 -0.133988 0.006537 0.018103 0.045781 -0.010547 -0.076831 0.124881 0.070250 -0.050637 0.093312 0.002438 0.116899 -0.137261 0.249923 0.003652 0.040730 -0.108983 0.210306 -0.061352 0.058929 0.052055 -0.184900 -0.044382 -0.077172 -0.070005 -0.080754 0.164855 0.139860 0.100769 0.039959 -0.057698 -0.145159 0.185367 0.077652 -0.118040 0.082212 -0.023385 -0.077053 0.073443 -0.091215 -0.112488 0.233600 0.058332 -0.283279 0.151798 0.306979 0.007511 0.080829 0.223133 0.163596 0.101025 -0.242201 0.021419 0.219350 0.167984 -0.198518 0.124532 0.029514 -0.072473 0.213596 0.189890 0.293314 -0.084963 0.004316 0.135318 -0.081857 0.185556 -0.059827 0.014352 -0.046072 -0.285144 -0.065013 0.052422
31 -0.000740 -0.031320 -0.024499 -0.009983 -0.071593 -0.073771 -0.045642 -0.036068 -0.098999 -0.107124 -0.192502 -0.011994 0.124695 0.046396 -0.072143 0.021092 -0.067925 0.063878 -0.041440 -0.044097 0.107330 0.030527 0.083937 -0.065118 0.027084 -0.034373 0.043397 -0.059729 -0.083136 0.037129 0.017962 0.108340 0.217474 -0.068948 -0.107058 0.079775 0.147708 0.053590 -0.045338 -0.013544 -0.196429 0.035844 -0.106493 -0.061748 -0.179536 0.135563 0.191269 0.012005 0.082237 0.062605 0.042348 -0.256397 -0.129794 -0.080695 0.099426 -0.274277 0.091860 -0.015611 0.015599 -0.017200 0.089344 0.042627 0.103547 -0.097864 0.080967 -0.022609 -0.023756 -0.255272 0.323497 -0.048621 -0.022202 -0.086836 0.096424 -0.237913 0.031411 -0.000784 -0.135159 -0.158724 -0.004020 0.056004 -0.044238 -0.105002 0.067052 0.013458 0.031507 -0.152790 -0.076428 0.080641 0.199364 -0.169070 0.113592 -0.018168 -0.069989 0.117837 -0.084280 -0.169131 0.047603 -0.051339 -0.009546 0.052921 0.031440 0.089844 -0.036354 0.119158 0.134755 0.035375 -0.101357 -0.007348 -0.013822 0.076571 -0.088078 0.090190 -0.051096 0.003953 0.123731 0.094863 0.012351 -0.011637 0.056887 0.053114 -0.040114 0.094883 0.111995 -0.004555 -0.118567 -0.096497 -0.062469 0.064061
20 -0.021264 0.025389 0.037291 -0.091239 -0.044444 -0.080929 -0.033927 -0.041552 -0.081283 -0.160126 -0.128873 0.089596 0.071410 -0.034029 -0.076978 0.038974 -0.008254 0.070773 -0.012290 -0.072798 0.057609 0.045730 0.027618 -0.081232 -0.018999 -0.002437 -0.025431 -0.013401 -0.130916 0.129306 0.006852 0.046748 0.141527 0.014268 -0.069004 0.049463 0.113048 -0.008350 -0.061168 0.033376 -0.181790 0.073797 -0.029013 -0.056678 -0.127517 0.080769 0.198754 0.012183 -0.013884 0.055880 0.008908 -0.153081 -0.144900 -0.064126 0.030191 -0.293739 0.080246 0.019674 0.044340 -0.072182 0.168406 0.070634 0.065095 -0.057237 0.047667 -0.078132 -0.034694 -0.209196 0.289656 -0.025481 0.012266 -0.075963 -0.011079 -0.161184 0.074317 0.017118 -0.163984 -0.165867 -0.008493 0.031651 0.032291 -0.125058 0.059321 0.055706 0.020399 -0.049069 -0.017781 0.034348 0.234015 -0.171221 0.060443 -0.021811 -0.091009 0.089652 -0.073532 -0.162277 0.064578 -0.073824 -0.055178 0.082811 0.043481 0.078879 0.039391 0.150345 0.139997 0.054730 -0.102400 0.037308 -0.006672 0.095963 -0.160253 0.107155 -0.028079 -0.043188 0.184534 0.171768 -0.034914 0.066251 0.062066 0.029732 -0.123879 0.162281 0.140546 -0.068386 -0.111218 -0.126322 -0.117678 0.051492
29 -0.000038 -0.008444 -0.057084 -0.017820 -0.011744 -0.080812 0.027289 -0.034051 0.033328 -0.092708 -0.061944 0.009600 0.031372 0.068689 -0.101627 0.008588 -0.060193 0.149791 -0.032549 -0.062892 -0.010140 0.019527 0.105399 -0.092758 -0.040171 -0.043674 0.028170 -0.017131 -0.077370 0.039216 -0.041987 0.156449 0.222209 0.078334 -0.095934 0.065835 0.100948 0.043116 -0.039392 0.012903 -0.133994 0.102386 -0.135796 -0.051683 -0.096452 0.186721 0.241057 -0.001386 0.000251 0.063451 -0.005209 -0.204054 -0.151013 0.012302 0.126686 -0.218730 0.053352 0.009226 0.025556 -0.029670 0.020077 0.097594 0.076292 -0.068694 0.094680 -0.018895 0.041905 -0.193493 0.291153 -0.014282 0.015339 -0.090839 0.138644 -0.150179 0.050383 0.045404 -0.171080 -0.110576 -0.045968 -0.012624 -0.051216 0.036331 0.120393 0.070512 0.041208 -0.084663 -0.108177 0.130296 0.139288 -0.153536 0.091463 -0.023661 -0.082224 0.105531 -0.101018 -0.140039 0.131171 0.005350 -0.149108 0.080238 0.174968 0.030821 0.030373 0.173167 0.128471 0.064012 -0.156185 -0.000021 0.096829 0.108516 -0.137104 0.099027 -0.005671 -0.032807 0.154571 0.125297 0.156235 -0.036195 0.010144 0.091749 -0.071357 0.128816 0.033860 -0.014976 -0.075089 -0.180021 -0.071028 0.043067
5 -0.010759 0.120368 0.134715 -0.161855 -0.041705 -0.042998 0.023126 -0.077696 -0.111617 -0.210588 -0.043131 0.173846 0.116758 -0.077595 -0.165720 0.075022 0.057803 0.084687 0.057285 -0.103235 -0.004388 0.074828 -0.045897 -0.051541 -0.095151 -0.015848 -0.111520 0.114181 -0.149025 0.218766 -0.029343 0.017755 -0.024135 0.122359 0.006958 0.025730 0.147813 -0.067831 -0.075275 0.053394 -0.185874 0.132906 0.046338 -0.058241 -0.152802 0.045442 0.247961 -0.056602 -0.175589 0.026564 -0.072291 -0.061225 -0.162127 -0.091207 0.026547 -0.346277 -0.009849 0.081076 0.107555 -0.105569 0.293451 0.182844 -0.033008 -0.048038 0.002504 -0.134971 -0.020798 -0.107618 0.293269 0.025533 0.026397 -0.064488 -0.121066 -0.088544 0.133598 0.015175 -0.200390 -0.157624 -0.090568 0.071990 0.047146 -0.144313 0.133193 0.020763 0.005704 0.063331 0.064805 0.025479 0.211400 -0.105735 0.018782 0.013895 -0.098108 0.115045 -0.114109 -0.195120 0.141453 0.038186 -0.120748 0.118288 0.023604 0.069350 0.109551 0.137762 0.129053 0.069005 -0.040426 0.116231 0.000539 0.062842 -0.227098 0.066059 0.033866 -0.084629 0.265179 0.202502 -0.162283 0.130084 0.046436 -0.029322 -0.203840 0.153451 0.098481 -0.103541 -0.072336 -0.133056 -0.263878 0.050731
11 -0.025280 0.130373 0.108411 -0.131125 -0.056824 -0.028422 0.047316 -0.092293 -0.108099 -0.202304 -0.048454 0.145512 0.143772 -0.057057 -0.181510 0.052533 0.047118 0.090460 0.051815 -0.104200 -0.003179 0.053245 -0.058284 -0.048036 -0.100957 -0.032695 -0.096080 0.120980 -0.132101 0.196763 -0.039553 0.015347 -0.036755 0.128980 0.020187 0.026155 0.142483 -0.045225 -0.060389 0.036235 -0.170959 0.134093 0.045386 -0.047156 -0.153138 0.049946 0.224100 -0.075866 -0.160528 0.001219 -0.094041 -0.057332 -0.148677 -0.101873 0.044987 -0.320645 -0.030918 0.086744 0.099198 -0.093771 0.256117 0.195285 -0.048042 -0.039045 0.011896 -0.135195 -0.008895 -0.108696 0.307883 0.036921 0.019546 -0.082279 -0.088112 -0.082711 0.112331 0.016044 -0.193163 -0.145923 -0.109029 0.088252 0.030083 -0.113651 0.162926 -0.000278 0.005799 0.064864 0.062339 0.034605 0.173572 -0.091133 0.037854 0.003993 -0.062761 0.133060 -0.108029 -0.202751 0.159130 0.071572 -0.123718 0.123283 0.018317 0.085228 0.110319 0.124388 0.120626 0.049529 -0.028544 0.120588 0.004150 0.058198 -0.227082 0.062150 0.040866 -0.097909 0.266084 0.192643 -0.151408 0.110135 0.059493 -0.031886 -0.206369 0.140111 0.095676 -0.097842 -0.086440 -0.114657 -0.278925 0.043385
21 0.000454 -0.013767 -0.037231 0.019027 -0.102073 -0.051993 0.021183 -0.066583 -0.100216 -0.082516 -0.158607 -0.052669 0.176840 0.112105 -0.140932 -0.000836 -0.067196 0.124134 -0.018895 -0.050207 0.076202 0.020369 0.079307 -0.034083 -0.000589 -0.096519 0.078790 -0.007909 -0.043591 0.003127 0.002794 0.159316 0.178721 -0.029959 -0.059261 0.100458 0.174856 0.079027 -0.036552 -0.050936 -0.169679 0.061281 -0.131063 -0.067626 -0.216803 0.182170 0.213525 -0.054228 0.051244 0.025902 -0.008081 -0.280685 -0.119285 -0.082654 0.178953 -0.239539 0.008579 0.003103 0.020085 0.016353 0.053724 0.116946 0.048858 -0.109274 0.089204 -0.020226 0.027715 -0.190645 0.334474 -0.012857 -0.046953 -0.083406 0.175707 -0.213838 0.010245 -0.003432 -0.120837 -0.108887 -0.081573 0.080288 -0.110125 -0.032783 0.161465 -0.048989 0.034179 -0.150738 -0.076780 0.137762 0.105269 -0.112965 0.140590 0.007387 -0.038892 0.154858 -0.114229 -0.186707 0.152238 0.079767 -0.072529 0.070597 0.079029 0.098149 -0.048535 0.100634 0.126031 0.023041 -0.088821 -0.012339 0.031312 0.044434 -0.069070 0.060241 -0.017751 -0.006834 0.144419 0.061083 0.038560 -0.073171 0.038886 0.064740 -0.030897 0.023538 0.029588 0.027897 -0.110066 -0.082964 -0.120603 0.059411
23 0.019997 -0.047296 -0.064647 0.047193 -0.082155 -0.060953 0.016190 -0.044959 -0.056462 -0.050654 -0.158008 -0.087459 0.129891 0.137724 -0.107359 -0.018025 -0.093969 0.120989 -0.051264 -0.025003 0.074363 0.011371 0.120250 -0.040791 0.019473 -0.080791 0.112721 -0.042120 -0.032389 -0.038243 0.002404 0.179452 0.263724 -0.037000 -0.102756 0.105257 0.169083 0.106183 -0.034535 -0.062878 -0.167102 0.068114 -0.187578 -0.070947 -0.193754 0.222174 0.217610 -0.024890 0.105674 0.047250 0.025945 -0.331752 -0.119458 -0.049860 0.197592 -0.228128 0.042654 -0.008368 0.010173 0.029775 -0.016921 0.092204 0.081669 -0.119660 0.108268 0.004115 0.035643 -0.222456 0.324039 -0.022280 -0.048532 -0.080901 0.238471 -0.221889 -0.009472 0.016043 -0.125751 -0.113533 -0.057291 0.056443 -0.121551 -0.000143 0.137315 -0.019507 0.038147 -0.184436 -0.123516 0.161514 0.097436 -0.137866 0.151998 -0.011971 -0.040186 0.123681 -0.091927 -0.169112 0.131705 0.041600 -0.069501 0.057767 0.112175 0.085403 -0.053731 0.120973 0.127050 0.027838 -0.125180 -0.041126 0.046154 0.046727 -0.045195 0.063981 -0.033415 -0.002916 0.100694 0.057683 0.118449 -0.102697 0.036046 0.083347 0.001334 0.035689 0.025174 0.045023 -0.102101 -0.084014 -0.051310 0.049901
16 -0.006039 -0.031557 -0.088764 0.045269 -0.094605 -0.049645 0.037921 -0.064172 -0.074186 -0.039871 -0.152353 -0.095990 0.169674 0.131817 -0.146662 0.014835 -0.103236 0.131617 -0.029889 -0.040947 0.043817 0.012967 0.097225 -0.021299 0.000570 -0.131454 0.109088 -0.028263 -0.019841 -0.062988 -0.021223 0.203156 0.220778 -0.023343 -0.076671 0.102583 0.195237 0.110394 -0.019768 -0.062944 -0.149026 0.057361 -0.143443 -0.046251 -0.204647 0.204620 0.212717 -0.042225 0.088574 0.040256 0.004576 -0.318211 -0.114849 -0.070056 0.197553 -0.226672 -0.003717 0.001560 0.005935 0.061505 -0.010180 0.134777 0.076436 -0.116864 0.103373 -0.005119 0.062159 -0.174011 0.307659 -0.000987 -0.045715 -0.107843 0.222394 -0.195603 -0.029949 0.000666 -0.092714 -0.075446 -0.075267 0.058947 -0.139214 0.001600 0.169068 -0.049212 0.029413 -0.168102 -0.105754 0.166876 0.073512 -0.071567 0.158720 -0.001425 -0.010957 0.154881 -0.112887 -0.179790 0.170128 0.094728 -0.090659 0.083260 0.123060 0.107528 -0.042615 0.115345 0.141341 0.022358 -0.129553 -0.000261 0.067887 0.064677 -0.065464 0.085140 -0.019328 -0.013206 0.151955 0.061245 0.094480 -0.109116 0.042038 0.092974 -0.022462 0.049023 0.004717 0.045826 -0.138896 -0.102592 -0.105274 0.064994
19 0.002132 -0.004514 -0.064542 0.049525 -0.099883 -0.034758 0.061170 -0.063608 -0.064070 -0.036391 -0.133123 -0.087316 0.183825 0.132498 -0.177548 0.012959 -0.084974 0.146692 -0.012518 -0.038110 0.027893 0.012175 0.087516 -0.003727 -0.012053 -0.131986 0.103393 0.021123 -0.011363 -0.055448 -0.032082 0.196781 0.159811 0.004541 -0.045532 0.095090 0.200005 0.102665 -0.008065 -0.079230 -0.133832 0.072520 -0.133982 -0.042085 -0.201530 0.193961 0.200308 -0.069346 0.051659 0.014715 -0.027624 -0.278317 -0.099042 -0.059528 0.213855 -0.200993 -0.043309 0.012505 0.018248 0.060151 -0.009202 0.154342 0.046505 -0.106801 0.089455 -0.004753 0.076843 -0.139100 0.304678 0.011293 -0.043055 -0.104327 0.232031 -0.171454 -0.021247 -0.005171 -0.093097 -0.055845 -0.109665 0.079482 -0.155951 0.027495 0.196223 -0.073582 0.026449 -0.148606 -0.092847 0.176780 0.040611 -0.058337 0.156429 0.014521 -0.008820 0.151073 -0.123358 -0.192492 0.219961 0.153311 -0.122719 0.098190 0.134547 0.117323 -0.036092 0.105236 0.139528 0.032890 -0.114716 0.020788 0.079621 0.046341 -0.083274 0.071304 0.010126 -0.026424 0.190088 0.059972 0.078395 -0.113824 0.043389 0.086153 -0.026064 0.026645 -0.033926 0.051055 -0.116295 -0.102362 -0.136836 0.067432
15 -0.004300 0.003025 -0.053149 0.021107 -0.073575 -0.039399 0.053714 -0.062306 -0.050034 -0.048113 -0.112586 -0.057424 0.143885 0.098834 -0.151854 0.010566 -0.072609 0.133186 -0.018850 -0.044184 0.010893 0.016403 0.074485 -0.025257 -0.024259 -0.106611 0.076584 0.011290 -0.026869 -0.022607 -0.033202 0.169397 0.164391 0.032600 -0.055559 0.080838 0.175468 0.087323 -0.022210 -0.056085 -0.132229 0.086704 -0.124954 -0.042096 -0.173484 0.178834 0.205125 -0.052336 0.037471 0.021761 -0.026513 -0.255437 -0.110739 -0.055305 0.182009 -0.212393 -0.018803 0.020263 0.028740 0.038699 0.006987 0.151260 0.043319 -0.090458 0.086351 -0.016430 0.059037 -0.143258 0.289339 0.012386 -0.033338 -0.099154 0.193084 -0.153663 -0.007971 0.003438 -0.114087 -0.074655 -0.092851 0.056409 -0.111615 0.024739 0.169082 -0.033769 0.023305 -0.113304 -0.079425 0.153899 0.059364 -0.068188 0.135354 -0.002401 -0.013896 0.135201 -0.104699 -0.173676 0.187220 0.108817 -0.117489 0.093489 0.128159 0.097800 -0.005052 0.115667 0.128694 0.033121 -0.116201 0.024126 0.078064 0.057921 -0.099351 0.077182 -0.000154 -0.039531 0.165690 0.087511 0.082619 -0.080028 0.038692 0.071900 -0.051397 0.062752 -0.004956 0.024058 -0.116607 -0.107883 -0.128508 0.053386
18 -0.022570 0.014624 0.050263 -0.106393 -0.044813 -0.095160 -0.063914 -0.032287 -0.102641 -0.181829 -0.150363 0.102347 0.074177 -0.053185 -0.048956 0.042936 -0.006900 0.041053 -0.020531 -0.074075 0.090741 0.058637 0.024959 -0.097210 -0.002840 0.014175 -0.036502 -0.034382 -0.143420 0.150525 0.026827 0.016822 0.145584 -0.032121 -0.082389 0.044314 0.096405 -0.025663 -0.066076 0.052407 -0.189958 0.044686 -0.013328 -0.056441 -0.129674 0.043364 0.176316 0.037417 0.004364 0.063773 0.040947 -0.142093 -0.132372 -0.068810 -0.006557 -0.298886 0.121999 0.006637 0.030767 -0.090306 0.201913 0.021749 0.082861 -0.047202 0.047444 -0.081126 -0.069759 -0.241790 0.287442 -0.046814 0.017875 -0.063048 -0.059285 -0.187513 0.087278 0.019388 -0.159450 -0.195225 0.030653 0.039281 0.058264 -0.178113 0.020844 0.071032 0.012556 -0.055955 -0.007648 0.001260 0.279102 -0.204227 0.058596 -0.030238 -0.107688 0.079159 -0.073604 -0.170732 0.033698 -0.121324 -0.027098 0.078889 0.028943 0.086662 0.032379 0.169585 0.161484 0.066411 -0.108733 0.039006 -0.029217 0.115833 -0.181256 0.123159 -0.044259 -0.035042 0.197552 0.182389 -0.054189 0.088985 0.070256 0.043038 -0.120868 0.192202 0.194149 -0.083796 -0.130152 -0.130238 -0.117970 0.059770
27 -0.005591 -0.027498 -0.108547 0.059160 -0.089757 -0.048832 0.037323 -0.051781 -0.044728 -0.011883 -0.162565 -0.095975 0.154279 0.121370 -0.150394 0.024405 -0.107527 0.133805 -0.032806 -0.027825 0.025831 0.000040 0.116300 -0.007631 0.006735 -0.124743 0.115186 -0.027173 -0.015723 -0.079788 -0.030460 0.226313 0.216362 -0.006033 -0.071208 0.094360 0.196766 0.122593 -0.001526 -0.084382 -0.148170 0.063223 -0.154208 -0.030953 -0.180698 0.207561 0.201323 -0.043538 0.096605 0.039463 -0.014795 -0.308257 -0.110550 -0.066727 0.216857 -0.202094 -0.012392 -0.007931 -0.001422 0.076285 -0.043359 0.145439 0.095986 -0.120958 0.105364 -0.004679 0.087225 -0.172329 0.322761 -0.001932 -0.035420 -0.137848 0.251385 -0.189139 -0.037408 -0.010898 -0.093446 -0.058408 -0.089382 0.051501 -0.154406 0.033837 0.174614 -0.043562 0.033768 -0.183925 -0.121788 0.193155 0.068724 -0.057084 0.165863 0.010261 -0.011772 0.152991 -0.118586 -0.180636 0.180030 0.113123 -0.113283 0.107731 0.142397 0.120197 -0.039967 0.114248 0.144083 0.024228 -0.149046 -0.003479 0.088668 0.076642 -0.070323 0.096034 -0.017256 -0.014397 0.161297 0.070169 0.121028 -0.126168 0.054786 0.098250 -0.024974 0.056947 -0.030525 0.051956 -0.153200 -0.127021 -0.089905 0.070824
10 -0.018808 0.013926 -0.013222 -0.038726 -0.053430 -0.058717 -0.002246 -0.046709 -0.052698 -0.114312 -0.103727 0.034010 0.092391 0.021974 -0.104488 0.025537 -0.041096 0.089505 -0.011927 -0.065487 0.028395 0.029890 0.048397 -0.069053 -0.040414 -0.047338 0.005548 0.001033 -0.089666 0.072451 -0.019340 0.108662 0.160619 0.038087 -0.070076 0.057970 0.124279 0.029177 -0.049924 0.012258 -0.160880 0.081170 -0.080098 -0.041276 -0.151413 0.126748 0.212843 -0.010742 0.002336 0.050252 -0.007391 -0.192964 -0.139240 -0.055786 0.094151 -0.257198 0.043459 0.018886 0.037956 -0.024945 0.096283 0.107200 0.066940 -0.062867 0.066697 -0.048985 0.003536 -0.184841 0.278258 -0.007356 -0.000688 -0.082556 0.063943 -0.152146 0.053826 0.009414 -0.139771 -0.130237 -0.043007 0.032664 -0.025976 -0.056387 0.107935 0.028021 0.016081 -0.081028 -0.043023 0.088611 0.165226 -0.128595 0.090231 -0.020275 -0.063219 0.110642 -0.093236 -0.153558 0.115121 -0.004341 -0.085558 0.084129 0.093698 0.075166 0.028355 0.139788 0.133500 0.047748 -0.113721 0.018266 0.049735 0.097149 -0.134870 0.101401 -0.018545 -0.040852 0.163003 0.139152 0.038854 0.005431 0.044719 0.053454 -0.090729 0.135994 0.076228 -0.029850 -0.110752 -0.131668 -0.120364 0.043747
17 -0.014788 0.210093 0.213758 -0.212696 -0.046040 0.005613 0.065247 -0.098862 -0.146366 -0.253469 0.002658 0.243324 0.170395 -0.136990 -0.225879 0.080304 0.106588 0.080387 0.095938 -0.123642 -0.038045 0.089505 -0.130393 -0.018242 -0.146374 0.000913 -0.183634 0.216267 -0.164939 0.290343 -0.060250 -0.056649 -0.168072 0.208784 0.076653 -0.008972 0.187273 -0.107020 -0.081990 0.061892 -0.226551 0.185351 0.116382 -0.063791 -0.194354 0.004084 0.287648 -0.110484 -0.297761 -0.017034 -0.152958 0.013444 -0.184319 -0.132658 0.033787 -0.430863 -0.068034 0.150755 0.158713 -0.143442 0.402497 0.284472 -0.112126 -0.027692 -0.028508 -0.197172 -0.026755 -0.066904 0.342020 0.071955 0.036109 -0.084955 -0.196607 -0.050980 0.170722 0.002267 -0.241097 -0.187532 -0.161814 0.127905 0.072145 -0.168183 0.200473 -0.008846 -0.015905 0.154890 0.139068 0.003673 0.210836 -0.075282 -0.001989 0.033846 -0.094297 0.145345 -0.138835 -0.252630 0.177226 0.118050 -0.132497 0.135689 -0.034966 0.089548 0.178040 0.112394 0.118270 0.064456 0.034036 0.189710 -0.025691 0.036095 -0.294635 0.039852 0.076831 -0.137328 0.338583 0.227193 -0.311214 0.212598 0.063419 -0.105246 -0.300508 0.168113 0.099436 -0.156387 -0.064004 -0.113517 -0.390309 0.047282
22 -0.015401 0.013486 0.030622 -0.093220 -0.018727 -0.096601 -0.053510 -0.023886 -0.051863 -0.175336 -0.123566 0.103030 0.036434 -0.039120 -0.054156 0.039470 -0.005852 0.068456 -0.025948 -0.075513 0.061461 0.047376 0.044921 -0.116517 -0.018129 0.013578 -0.038099 -0.032317 -0.138236 0.148125 0.012684 0.049126 0.168714 0.011247 -0.099637 0.037937 0.075786 -0.021705 -0.067383 0.058772 -0.165663 0.069153 -0.039317 -0.056526 -0.093740 0.076368 0.191333 0.035156 -0.007107 0.072795 0.034025 -0.132697 -0.141776 -0.032202 0.002849 -0.270301 0.116478 0.008762 0.031507 -0.092048 0.158292 0.023503 0.085841 -0.045394 0.054448 -0.064452 -0.051619 -0.232035 0.283739 -0.045204 0.019950 -0.062488 -0.020231 -0.164706 0.089678 0.031541 -0.179566 -0.179891 0.016985 0.011942 0.052776 -0.119720 0.024345 0.090563 0.021413 -0.050142 -0.032842 0.019273 0.256749 -0.206343 0.053238 -0.034484 -0.118470 0.073293 -0.067238 -0.149568 0.046607 -0.115987 -0.062365 0.079226 0.074055 0.055671 0.037953 0.176423 0.143411 0.066823 -0.128640 0.023263 0.005668 0.124774 -0.173370 0.123209 -0.034258 -0.037290 0.177693 0.176989 0.018460 0.070276 0.050633 0.050182 -0.109389 0.183320 0.158584 -0.069894 -0.100831 -0.151575 -0.081049 0.054304
13 -0.017549 0.045955 0.045332 -0.104157 -0.029322 -0.062398 -0.009370 -0.053326 -0.061789 -0.165276 -0.069210 0.106685 0.056148 -0.040802 -0.072262 0.021457 0.009733 0.071883 -0.003471 -0.075757 0.030375 0.040409 0.022241 -0.086496 -0.040984 0.003443 -0.049089 0.012735 -0.131765 0.151260 -0.002141 0.039539 0.108772 0.047253 -0.045869 0.042299 0.077973 -0.018497 -0.067851 0.038417 -0.164716 0.092277 -0.029470 -0.059083 -0.109597 0.081727 0.201329 -0.005483 -0.048547 0.050039 -0.012519 -0.119517 -0.152313 -0.060045 0.031976 -0.276798 0.069735 0.026083 0.048780 -0.087756 0.178386 0.090112 0.038781 -0.045159 0.046419 -0.101297 -0.028165 -0.189797 0.291166 -0.022590 0.027280 -0.077706 -0.049722 -0.130103 0.098086 0.028987 -0.183814 -0.158587 -0.027798 0.023706 0.036700 -0.108463 0.074136 0.071210 0.022318 -0.015617 -0.005445 0.034817 0.215356 -0.162163 0.046404 -0.016249 -0.098493 0.087464 -0.078397 -0.146933 0.083161 -0.061598 -0.081424 0.102770 0.054207 0.054251 0.070002 0.169549 0.131298 0.061402 -0.101931 0.034099 0.008303 0.107038 -0.190096 0.102542 -0.021755 -0.053144 0.196803 0.196640 -0.022797 0.072382 0.045968 0.034352 -0.157300 0.168622 0.140740 -0.087024 -0.107056 -0.147072 -0.150090 0.042825
12 -0.014775 0.047852 0.070777 -0.107881 -0.042354 -0.076915 -0.025917 -0.049972 -0.104031 -0.173409 -0.120629 0.110233 0.087526 -0.051492 -0.100098 0.057465 0.008419 0.058683 0.003597 -0.077214 0.054940 0.054789 0.003392 -0.062132 -0.036066 -0.012559 -0.047952 0.020911 -0.140145 0.156808 0.007814 0.030431 0.084569 0.020557 -0.049152 0.044240 0.116216 -0.029981 -0.060795 0.034787 -0.182100 0.078368 0.010868 -0.054829 -0.133702 0.050662 0.188691 -0.001897 -0.050066 0.040701 -0.002952 -0.118798 -0.141560 -0.084739 0.013914 -0.303043 0.062890 0.030962 0.052969 -0.076846 0.211450 0.084037 0.043558 -0.053950 0.027732 -0.099952 -0.036962 -0.180837 0.292718 -0.014657 0.014910 -0.076523 -0.051313 -0.146884 0.084860 0.016236 -0.170321 -0.167029 -0.024170 0.050841 0.038596 -0.150277 0.067722 0.043875 0.012465 -0.027375 0.009226 0.024933 0.240652 -0.154304 0.055377 -0.010483 -0.098216 0.093559 -0.083419 -0.178351 0.086130 -0.046092 -0.070531 0.106096 0.035373 0.093776 0.053015 0.154511 0.156152 0.060349 -0.093687 0.059838 -0.010125 0.092298 -0.189309 0.101297 -0.022057 -0.055385 0.223760 0.187681 -0.079305 0.082620 0.070619 0.018467 -0.145004 0.171043 0.138752 -0.074726 -0.119363 -0.130446 -0.160583 0.058010
