2381 128
2255 0.291776 0.168197 -0.296881 -0.012496 -0.120684 0.006160 0.202998 0.113532 0.115717 -0.031179 -0.139530 -0.239284 0.004464 0.159458 -0.086265 -0.008155 -0.033870 0.569591 0.112910 -0.419211 0.046834 0.148023 -0.101443 0.178214 0.450923 -0.253275 0.215688 -0.260753 -0.256992 0.140293 0.056463 0.016511 0.421748 -0.095711 0.149294 0.171531 0.164098 -0.415298 0.218137 0.142270 -0.324332 0.315519 0.060538 -0.053455 0.139828 0.996475 -0.049943 -0.811209 0.046807 -0.153335 0.016552 -0.313410 -0.493029 -0.245204 0.157155 0.163224 0.387943 -0.091238 -0.067348 0.407818 -0.208744 -0.426981 0.060174 -0.018383 -0.142445 0.096802 -0.556084 0.275609 -0.248870 0.018825 0.250094 -0.401569 -0.424166 -0.207214 0.285514 0.396337 -0.160061 0.070862 0.146616 0.054660 0.199501 0.093703 -0.035320 0.058678 0.266516 0.194939 0.260379 -0.375912 0.244864 -0.051177 0.024021 -0.319780 0.097373 0.038394 -0.050646 0.641179 0.322618 -0.233855 -0.219395 0.258211 -0.043703 0.094129 0.327574 0.310631 -0.055372 -0.087160 0.051942 0.111865 -0.380163 0.363892 0.023071 0.387099 -0.308322 -0.019756 -0.110395 -0.001506 0.365960 0.300389 -0.149868 -0.111913 -0.415761 0.051309 -0.185161 -0.075505 -0.095860 -0.180003 -0.028723 0.059753
3487 -0.202939 0.403581 -0.354242 -0.376019 0.163951 -0.136250 -0.149871 -0.174838 0.252527 -0.412665 -0.156755 -0.062714 0.122506 0.009377 0.289684 0.329299 -0.282585 -0.150778 -0.155965 -0.257020 -0.195909 0.045045 0.352846 0.126798 -0.248073 0.246832 0.154859 0.070872 -0.213947 0.263559 0.060833 0.196279 -0.163204 -0.007788 -0.032759 -0.340622 -0.040722 -0.197345 0.236787 -0.202268 -0.087200 -0.033724 0.274060 0.043040 0.329273 -0.453597 0.081536 0.258195 0.058876 -0.013099 -0.162243 0.233556 0.104213 -0.054978 0.005629 0.309316 -0.074043 -0.126397 0.234500 -0.037457 0.005087 -0.127855 -0.007148 -0.120339 0.342860 -0.039150 -0.453939 -0.195188 0.310855 -0.203283 -0.093021 -0.035788 -0.270325 -0.133322 0.238522 0.290467 0.051341 0.079322 -0.092547 -0.049243 0.025479 -0.200468 -0.048704 0.061614 0.107641 0.372830 0.458748 0.227964 -0.193684 -0.014159 0.054840 -0.036020 -0.047289 0.133696 0.116837 -0.074495 -0.034945 -0.356998 -0.041750 -0.188544 0.222562 0.295191 -0.136106 0.093263 0.222354 -0.070329 0.306304 0.134656 -0.073323 -0.337051 -0.255555 -0.024769 0.201626 -0.260080 0.033616 -0.212867 -0.160160 0.323541 -0.043221 -0.188050 0.005256 0.175928 -0.303515 0.293395 0.330298 0.102665 0.356215 -0.015857
3488 -0.283521 0.011381 0.035835 0.129475 0.342770 -0.038815 -0.151888 0.056519 -0.187401 -0.013455 -0.134965 -0.119976 0.069550 -0.293157 0.100854 0.156739 -0.055254 0.055401 -0.050826 -0.090631 -0.163704 -0.049729 0.203025 0.702517 -0.167798 -0.039989 -0.015325 -0.209774 -0.448782 0.021459 0.008866 0.206845 -0.237137 -0.034860 0.154669 0.123015 -0.284882 0.021198 -0.011923 0.189760 -0.007783 0.062443 -0.009318 0.082010 -0.155653 -0.013314 0.374484 0.133850 0.027079 -0.020754 0.141529 0.221824 0.445432 0.006817 -0.100996 -0.312154 -0.321531 0.125276 -0.191283 0.124490 0.047038 -0.258905 -0.352818 -0.099758 -0.158034 0.175680 0.111101 0.138471 0.049476 0.003806 0.111778 -0.085670 0.015263 -0.338854 0.169449 0.496158 0.071502 0.185307 0.343341 0.044320 0.029358 -0.086264 0.102844 -0.138044 0.071298 0.034383 0.217445 -0.323750 0.133027 -0.029824 -0.007086 -0.258826 0.036935 0.110821 0.143222 -0.009510 -0.308361 0.145197 -0.003639 0.206752 -0.079999 0.456768 0.128707 0.067348 0.104923 -0.088236 -0.043383 -0.215110 0.360032 0.220127 -0.214073 0.177210 0.019110 0.248580 -0.035386 -0.024253 -0.215799 0.262427 -0.026964 0.230264 0.296826 0.019142 0.117200 -0.107157 0.105910 -0.070651 -0.343341 0.135882
1481 -0.155244 -0.197456 0.277217 -0.086545 -0.072819 0.355763 -0.025451 0.100702 0.252796 -0.133437 -0.081833 -0.093561 -0.085758 -0.102011 0.227882 -0.130769 0.054663 -0.169856 0.258842 -0.110179 -0.415021 -0.381390 -0.348502 0.345733 -0.270622 0.093739 0.279082 -0.065975 0.268288 0.364648 0.016650 0.248065 -0.198350 0.095527 0.082237 -0.251093 -0.065701 0.194557 0.048581 0.169104 0.244558 -0.129071 0.433802 -0.176157 -0.388169 -0.114329 0.446470 -0.291191 -0.225854 0.508005 0.411236 0.106503 -0.115723 -0.213019 0.227727 0.055593 -0.033491 0.200242 0.289562 -0.402201 0.151570 0.221269 -0.404118 -0.549877 -0.197914 -0.025449 0.157781 -0.266172 0.049144 -0.021901 -0.110636 0.254502 -0.231970 0.460133 -0.216593 0.199300 0.125565 0.000596 -0.114554 -0.667100 0.553783 0.022997 -0.024091 0.088637 -0.219978 0.260190 -0.067421 -0.302732 0.592062 0.140673 -0.040155 -0.327392 -0.091437 -0.197806 -0.175919 0.026707 -0.021324 0.066255 -0.472484 0.238863 -0.289432 -0.289550 -0.122158 -0.250242 0.077112 0.348021 0.054279 -0.178063 -0.063739 -0.080584 0.049594 -0.104211 0.209159 0.126967 -0.142338 0.062737 -0.139630 0.023433 0.116963 -0.162764 -0.000867 0.156929 0.343127 0.235324 -0.094458 -0.110184 -0.044253 0.000596
2816 -0.004930 -0.364436 0.290653 -0.013667 -0.514833 -0.081788 -0.389128 -0.346170 0.207384 0.146641 -0.360181 -0.447865 -0.315649 0.083808 0.270228 0.165979 0.272042 -0.212780 0.492921 -0.239216 -0.230840 -0.601911 -0.266260 -0.168027 0.272250 -0.111570 0.549125 -0.079969 0.329384 0.331202 0.067503 0.291841 0.058079 0.085124 0.466733 -0.269225 0.295899 0.108968 -0.288808 0.252547 0.051488 0.045522 0.218891 -0.476766 0.092968 0.351732 -0.025664 0.228218 -0.027214 -0.147963 0.441074 -0.539851 0.028547 -0.348687 -0.134034 -0.427586 0.001133 0.126410 -0.065276 -0.313073 0.500409 -0.055727 -0.009665 -0.085819 0.290788 0.132954 -0.343795 0.053199 0.208695 -0.243942 0.103141 -0.047854 0.330106 0.670215 0.033589 -0.289491 -0.103409 0.374746 0.224914 0.159754 -0.253813 -0.261037 -0.240081 -0.783674 0.005247 0.137356 -0.120867 -0.326634 -0.217958 0.010375 0.100432 -0.362228 0.168045 0.231650 -0.622125 -0.083087 -0.090701 -0.099878 -0.247671 -0.515284 -0.035270 0.075645 -0.174803 0.298134 -0.075239 -0.383178 -0.370729 -0.478278 -0.205961 -0.617155 0.310869 0.192366 0.089789 -0.279339 -0.546802 0.178592 0.163800 0.085652 -0.079638 0.481398 0.251968 -0.022986 0.239171 -0.066567 0.220688 0.174158 0.472611 -0.368411
3304 0.216729 -0.270554 -0.253404 -0.198500 -0.129580 -0.108642 0.166631 0.156529 0.287009 0.263477 0.241119 -0.005373 0.133838 -0.247342 0.615199 0.184299 -0.058374 0.358218 -0.271823 0.101381 -0.156053 0.204404 0.101441 0.083422 0.069825 -0.204059 0.083355 0.207010 -0.087581 0.101840 -0.443591 -0.159827 -0.481335 0.156126 -0.036995 -0.115869 0.143737 0.147815 -0.012859 0.114833 0.044555 0.456853 -0.133813 0.073912 -0.104861 -0.069147 0.078664 0.377543 -0.706911 0.217508 -0.011913 0.238470 -0.377338 -0.219556 -0.048305 -0.128997 -0.226266 0.074237 -0.006071 0.525805 -0.174110 0.218771 -0.018322 0.180876 0.104500 0.498731 0.042324 0.258181 -0.048106 0.038625 0.424421 0.097057 0.042202 -0.508446 -0.178412 0.012254 -0.016306 0.281956 0.081483 0.067194 0.128348 0.238757 -0.229394 -0.110419 -0.257131 -0.178320 -0.126312 -0.029399 0.177377 0.240498 0.054717 -0.031358 -0.216410 0.081700 0.163300 -0.328293 -0.403774 0.162873 0.202589 0.190239 -0.505273 0.005809 -0.333826 0.040532 -0.182554 0.267730 0.302153 -0.326837 -0.029520 -0.079432 -0.075293 0.227960 0.115519 -0.260641 -0.207776 -0.211946 0.175454 0.250923 0.167682 0.700333 -0.020369 0.091785 0.008008 -0.083227 0.407426 0.258737 0.280393 0.167914
2903 -0.064175 -0.368220 0.394105 0.208385 0.566564 0.330983 0.248022 -0.364832 0.373605 -0.126567 -0.484617 0.130892 0.274419 -0.194968 -0.266307 -0.072564 0.187652 -0.023421 0.022588 -0.138612 0.163154 0.286339 0.248330 0.300923 0.214255 -0.263857 0.283619 0.228288 -0.260336 0.061419 0.464364 0.059379 0.154599 0.203558 -0.116567 -0.038051 -0.186693 -0.084155 -0.110707 -0.460337 0.129953 -0.003478 -0.046089 -0.134107 0.028495 0.093397 -0.093014 0.276824 -0.180834 -0.030363 -0.278541 0.404610 0.136165 0.113530 -0.546885 0.171643 -0.294296 -0.136106 0.181473 0.242248 -0.198965 0.020602 -0.080844 0.174123 0.087536 -0.565324 -0.018853 -0.150447 -0.011539 -0.083236 -0.123687 -0.422111 0.068639 -0.122889 0.695236 0.335172 0.022299 0.033232 0.339815 0.021674 -0.156998 0.046776 0.153944 -0.080576 0.126556 0.372826 -0.429229 0.357427 0.348758 0.114861 -0.114338 -0.320438 -0.076315 -0.044531 -0.787483 0.002694 -0.363256 0.043051 0.370523 0.061798 0.180892 0.177450 0.531608 -0.214383 -0.474671 0.017149 -0.355394 -0.121597 0.357983 -0.081737 -0.344677 0.626233 0.449281 0.134617 0.013480 -0.294668 -0.107397 0.031135 0.473428 0.061083 -0.017180 0.019347 0.052071 0.244741 0.391234 0.083633 -0.168015 0.279031
1970 0.145935 0.463552 -0.201990 -0.069984 0.147488 -0.238601 0.475898 0.261550 -0.112914 0.158038 -0.200128 -0.070421 -0.171508 0.562356 -0.004543 0.807829 0.371591 0.672698 0.710269 0.087002 -0.254948 0.164815 -0.461947 0.036805 0.347610 -0.248383 0.438782 -0.578142 -0.294183 0.177114 0.295284 -0.191160 0.179103 -0.779159 -1.005440 0.150066 0.187765 0.009459 0.093909 -0.293202 -0.579145 0.236695 -0.078337 -0.395007 0.377100 0.767241 -0.250715 -0.227675 -0.159143 0.269726 -0.068736 -0.369930 -0.451862 -0.433424 0.675678 0.292850 0.496689 0.213129 0.380083 -0.110093 0.012563 -0.440705 0.152721 -0.278343 -0.117842 0.065215 -0.449353 0.641739 0.329401 0.485630 -0.043347 -0.451528 -0.497586 -0.566542 0.374528 0.366408 0.297433 -0.163051 0.535582 -0.278747 -0.053401 0.304223 0.001028 -0.273998 0.321997 0.168225 0.035210 -0.280848 0.089999 -0.219273 -0.363645 -0.335130 0.218578 -0.143654 0.387365 0.381618 0.246886 -0.098683 -0.269517 -0.228744 -0.374831 -0.180668 0.168956 -0.076762 0.130048 -0.207584 -0.044076 0.100513 -0.035112 0.327227 -0.197488 0.344143 -0.181578 0.097282 0.025554 -0.088189 -0.137427 0.126742 -0.221958 -0.290090 -0.337904 0.464190 -0.210445 -0.114369 0.132702 0.053657 0.175856 -0.642193
3466 0.142364 0.080618 -0.009107 -0.364548 -0.930153 0.567647 0.002343 -0.325542 -0.156963 0.301154 -0.040196 -0.524942 -0.368524 -0.253518 -0.048100 0.166490 0.003197 -0.065093 0.376012 0.057091 0.253857 -0.545712 -0.278519 -0.159809 -0.368683 0.049876 0.324789 -0.246997 0.298438 0.156432 -0.004629 0.164734 0.230148 -0.099304 0.617618 0.012137 -0.186893 0.175619 -0.037601 -0.417787 0.259631 -0.169376 0.156036 -0.048100 0.229747 0.594879 0.234186 0.041102 -0.181741 0.671967 0.254167 0.380180 -0.195650 -0.417960 0.158690 -0.016423 0.119719 0.482495 -0.185824 -0.000745 0.141902 0.536693 -0.355818 0.088320 -0.055362 0.054323 0.542651 0.161852 0.206166 -0.093317 0.431891 -0.287640 0.082061 0.578973 0.158335 -0.049456 -0.056648 -0.080289 0.709299 -0.163709 0.224189 -0.205145 0.052424 -0.429434 0.137463 0.099541 -0.076834 -0.314333 0.078976 0.281929 0.118661 -0.428403 -0.469218 0.102108 -0.749651 -0.225324 -0.130342 -0.133594 -0.160603 -0.005580 -0.056758 0.008949 -0.153801 0.043194 0.342419 0.097337 -0.279024 -0.389630 -0.296426 -0.512286 0.328336 -0.253830 -0.479773 -0.522485 -0.595853 0.244381 -0.225644 0.103115 0.002766 -0.084985 0.120990 -0.264299 -0.134920 -0.036061 0.293401 0.208275 0.393862 -0.478938
2399 0.165424 -0.312317 0.039360 -0.297802 0.160703 -0.250482 0.171956 0.112465 -0.003470 -0.230974 0.387987 -0.422262 0.328277 -0.006897 0.056594 -0.082300 0.181822 0.666883 0.086415 -0.050964 -0.244249 -0.182063 -0.058837 -0.481415 -0.342399 -0.117103 0.656543 0.030034 0.180072 0.391892 -0.224079 -0.287031 0.140608 -0.052052 0.239522 -0.020484 -0.025632 0.274072 -0.154572 0.035415 0.097284 0.021875 -0.047884 0.058854 0.326293 -0.157760 -0.329037 -0.127935 -0.148951 0.553158 0.164167 0.000230 -0.059680 0.195643 -0.063266 -0.216227 -0.041755 0.063111 -0.126068 0.148910 0.003706 0.054101 -0.020082 0.413897 0.116574 0.051191 0.383240 -0.269791 -0.188088 -0.175135 0.262365 0.230180 0.054455 -0.270677 0.114350 -0.107750 -0.310841 -0.107453 0.134065 0.066521 -0.065160 0.660926 -0.092359 0.371845 -0.140164 -0.360517 -0.020925 -0.297169 0.100103 0.129818 -0.109582 0.219241 0.403227 0.130121 0.001227 0.132224 0.140675 -0.270257 0.051554 -0.082858 -0.111899 0.167493 0.073158 -0.025883 0.126578 0.035525 0.081330 -0.231074 0.135214 -0.582995 -0.070815 0.475226 0.091666 -0.033833 0.284302 -0.320769 -0.089219 0.301673 0.121100 -0.081056 -0.276984 -0.309464 -0.002451 -0.110514 0.043849 -0.076759 -0.256807 0.276411
1373 0.222676 0.023775 0.356777 -0.521866 0.068359 0.080465 0.283516 -0.516436 -0.203507 0.466504 0.198176 -0.013074 -0.229066 0.205984 0.052213 -0.264772 0.046998 0.049387 -0.268024 -0.153114 -0.220980 0.046351 -0.432816 0.132097 -0.575103 -0.449985 -0.276512 -0.374563 0.317320 0.141945 -0.086767 -0.148556 -0.076780 0.060573 0.138639 -0.039886 0.009370 0.293771 0.141734 0.021289 -0.062214 0.012563 0.354989 0.190843 0.102807 -0.143061 0.316791 -0.143994 -0.266321 0.561748 -0.001009 0.112498 0.143892 -0.340324 0.144631 -0.214155 -0.326453 -0.027656 0.175614 0.050744 0.271595 -0.125401 -0.424565 -0.207371 -0.114540 -0.231551 0.610725 -0.000410 -0.242250 -0.080894 0.267098 -0.308343 -0.373456 0.151067 -0.216991 0.183829 -0.285960 -0.315169 -0.600701 -0.493716 0.350785 0.013429 -0.253209 -0.015358 0.106654 0.279325 0.039330 -0.130438 0.150633 0.461520 0.096860 -0.155957 0.212206 0.335708 -0.299625 0.174095 0.137278 -0.105859 -0.453991 0.053110 -0.194081 -0.213815 0.121347 -0.233479 0.372822 0.163709 0.221535 -0.298123 -0.568686 -0.219160 -0.398125 -0.184522 -0.246440 -0.453346 -0.508331 0.530751 -0.176950 -0.302877 0.300301 -0.083030 0.030925 0.036519 0.668541 0.129550 0.184068 0.036915 0.608127 0.024443
3442 0.237782 -0.078171 0.021660 0.030632 0.042594 0.070885 -0.027463 -0.126538 0.296115 0.326108 -0.219253 0.036705 -0.096226 -0.105552 -0.186326 0.097417 0.258780 0.019791 0.141146 -0.034957 0.285537 0.208400 0.445325 0.365889 0.015318 0.126705 0.196885 0.241302 -0.399479 -0.030377 -0.315283 -0.083076 -0.273414 0.209023 0.019822 -0.203741 -0.220937 0.276352 -0.497398 0.110149 -0.077382 -0.348515 0.515783 0.155751 0.120329 0.120397 0.096529 -0.023671 0.128625 0.175525 0.002752 0.162932 0.222148 0.271034 -0.457219 0.150976 -0.315793 0.004704 0.126334 -0.055820 0.335836 0.159286 -0.170656 0.053670 0.222932 -0.531971 -0.267483 0.000847 -0.211669 -0.336211 -0.505702 -0.120439 -0.101401 -0.213903 0.075284 0.295997 0.039586 0.143953 0.144487 0.222803 0.191827 0.042809 -0.001690 -0.026530 0.203626 0.293413 0.150202 -0.098684 0.001348 -0.014227 0.032158 -0.415446 0.166252 0.115103 -0.236735 0.113950 0.043660 0.010832 -0.148018 0.254368 -0.377524 0.401576 -0.070366 0.091002 0.338193 0.083204 -0.153372 -0.136960 0.134918 0.082114 -0.064647 -0.020052 0.353141 0.089743 -0.259830 -0.123797 0.006195 -0.108755 0.222918 -0.098684 -0.046992 0.072136 -0.296202 0.284460 -0.230098 0.331288 -0.258408 0.398015
2146 0.213359 -0.312131 -0.462174 -0.067411 -0.200828 -0.177257 -0.080901 -0.107046 -0.175208 0.063678 0.019528 -0.396194 -0.260504 0.291062 0.139576 -0.167806 0.136528 0.187385 0.119750 0.109408 -0.456223 -0.046713 -0.576753 -0.139713 0.713045 -0.089514 0.492882 -0.088529 0.254676 0.408399 0.031016 0.392490 0.048229 0.168582 0.596174 -0.381349 -0.246983 0.498449 -0.044558 -0.052985 -0.113093 -0.099334 0.455891 -0.453149 0.168363 0.022119 -0.277257 -0.387871 -0.509541 0.047940 0.565116 -0.001158 -0.098165 -0.440242 -0.062126 0.058593 -0.033723 0.235978 -0.073167 0.212937 -0.121921 -0.133404 0.495770 -0.080869 -0.430471 -0.295786 -0.102404 -0.199755 -0.227953 0.011779 -0.280067 -0.012185 0.074882 0.390392 0.139159 0.377761 -0.197989 -0.123185 0.299272 0.449391 -0.362349 -0.231794 -0.126774 0.033847 -0.218439 -0.086218 0.028075 -0.145173 -0.247067 0.216335 -0.334653 -0.158751 0.178859 -0.365017 0.034403 -0.055176 0.054409 -0.016588 0.309863 -0.024822 -0.140707 0.263643 0.210372 0.628893 -0.272673 -0.211647 0.087753 -0.003455 -0.273024 -0.127636 -0.111392 0.318740 -0.445944 -0.202218 0.093547 0.237647 0.050756 -0.443773 -0.277637 0.309797 -0.151678 -0.442439 -0.174195 0.088688 0.289881 -0.737282 -0.229026 0.311801
2414 0.237033 0.061425 0.067994 -0.301329 0.380930 0.216932 -0.447122 0.293745 0.107432 -0.001202 -0.095332 0.105013 -0.501864 -0.362408 0.119417 -0.392129 0.503553 -0.106067 -0.045313 -0.053770 -0.191132 -0.395106 -0.367432 0.428169 -0.062733 0.020522 0.339626 -0.189709 0.057236 0.416396 -0.222621 -0.111212 0.104269 0.367338 0.214531 -0.196006 -0.069663 0.210705 0.154711 0.020443 -0.061309 0.066951 -0.368716 -0.203490 -0.040547 0.203029 0.193696 0.184505 -0.403266 0.157081 0.449885 -0.080884 -0.152615 0.025097 0.018180 0.135147 -0.140562 -0.343238 -0.046482 0.030272 -0.028737 0.055405 0.029975 -0.004521 -0.472761 0.017958 -0.124681 0.188641 0.278236 -0.087836 -0.061853 0.408932 0.277596 0.170495 -0.328982 0.487715 0.059704 0.243091 -0.286150 -0.077349 0.133983 0.238061 0.117259 0.356251 -0.103431 0.038917 0.118879 0.510955 0.268327 0.215172 0.067068 -0.141362 -0.034084 0.215518 0.049174 0.016351 -0.000882 -0.177362 -0.219478 0.200650 -0.570923 -0.169239 -0.113705 0.046949 -0.183323 0.004815 0.096194 -0.043052 -0.154341 0.299448 -0.379150 0.128113 0.126141 -0.081799 -0.039243 0.330462 -0.321897 -0.361430 -0.027255 0.223677 0.186754 -0.213767 0.077361 -0.047752 0.385533 0.454834 -0.239254 -0.081236
3250 -0.029379 0.066103 -0.206215 -0.192083 -0.426675 -0.237593 0.542601 0.265755 0.153237 0.274953 -0.271911 0.157757 -0.096835 -0.113848 0.031649 -0.157243 0.212813 0.212930 0.056905 0.301042 -0.560583 0.165730 0.324648 -0.278169 -0.049824 0.161827 0.032761 -0.237542 -0.360037 0.031076 -0.252944 -0.029221 0.252512 -0.066238 -0.187608 -0.119442 -0.269587 -0.070417 0.078526 0.037183 0.224052 0.023388 0.119936 -0.011499 -0.129342 -0.261322 0.146887 -0.069058 -0.529744 0.046371 -0.088565 -0.101974 0.043301 -0.366224 -0.376294 -0.060763 -0.542598 -0.141913 -0.293302 0.314949 0.162481 -0.092388 0.118319 0.411791 -0.141618 0.241195 -0.031855 0.177632 0.360192 0.179688 0.414534 0.473192 0.296163 0.478416 -0.406494 0.014399 -0.423398 -0.335870 0.103397 -0.040660 0.411511 -0.076864 0.080134 -0.041994 -0.038018 0.080213 -0.294445 -0.114669 -0.369954 -0.204849 -0.365290 0.261274 0.362309 0.023188 -0.156192 0.014718 -0.069733 -0.000697 0.069283 0.282154 -0.076690 0.293271 -0.141824 0.175037 -0.071672 0.055996 -0.180027 -0.467832 0.394942 0.033638 -0.207531 0.326899 0.141811 0.046801 -0.133593 -0.042128 0.105310 0.175298 -0.162327 0.157942 -0.407328 0.272222 -0.090201 -0.399254 0.367447 -0.090917 0.057216 0.428956
1256 -0.252983 0.292833 -0.090786 0.260871 -0.008871 0.244399 -0.355913 -0.339547 0.318021 -0.082927 0.111029 -0.066622 0.079208 -0.230627 0.113563 -0.056237 -0.077215 0.303650 -0.109335 0.034982 -0.204313 -0.233603 -0.189009 -0.355617 0.091830 -0.138643 0.012420 -0.099531 -0.059325 0.252631 -0.032100 0.262875 -0.060324 0.102052 -0.256388 0.202751 -0.065675 -0.521170 0.133559 0.105705 -0.468770 -0.355207 0.069189 -0.188784 0.130452 -0.523390 0.562649 0.141182 0.043458 -0.049462 0.183821 -0.101146 -0.018762 -0.045212 -0.106690 -0.017053 -0.284298 -0.020713 0.123354 0.051311 0.093941 -0.069254 0.053225 -0.218353 0.055526 -0.498372 0.169338 0.369894 -0.071517 -0.135458 0.113682 0.014226 -0.228960 -0.052529 0.352200 0.503058 0.109702 0.514414 -0.163417 0.029803 -0.176526 -0.116226 -0.405171 -0.208510 0.273341 0.484332 -0.114391 -0.015765 -0.406327 0.255497 -0.312351 -0.027398 0.189275 0.213280 0.322886 -0.335713 0.080012 0.070148 -0.106576 0.435354 -0.177829 -0.167177 -0.039866 -0.026083 0.029753 0.170042 0.039796 -0.241913 0.263161 -0.033681 0.339779 -0.036506 0.395193 -0.324881 -0.239974 0.130219 -0.478925 0.407712 0.134448 -0.649895 0.141607 -0.101955 0.039059 -0.038647 -0.245779 0.410732 0.153870 0.263766
3045 -0.164123 -0.314109 -0.177662 -0.157222 0.135343 0.264873 -0.119455 -0.043414 -0.171334 0.017488 -0.134764 0.328905 -0.139444 -0.278841 -0.162520 -0.031068 -0.112707 0.073804 -0.036120 0.272458 -0.280394 0.177642 -0.196216 0.321383 -0.065835 -0.036547 0.096905 -0.296443 -0.170339 -0.013578 -0.167898 0.034387 0.132608 0.355325 0.212924 -0.087482 -0.091870 -0.041374 -0.134593 -0.048615 0.024786 0.039236 -0.211897 0.162134 0.016365 -0.026655 -0.183486 -0.094419 -0.299433 -0.015699 0.189707 0.214271 0.176805 -0.279311 -0.479041 -0.081124 -0.169163 0.181574 0.135007 0.277652 0.199509 -0.088607 -0.051311 -0.337347 0.024866 0.114488 0.014482 -0.069341 0.314372 0.138249 0.193984 0.046201 0.165245 -0.313107 -0.024309 0.219589 -0.316788 0.480733 -0.231828 0.193155 0.212948 0.272517 0.045040 0.065917 0.263717 0.044591 0.070062 -0.323353 -0.396742 0.334011 0.030796 -0.141288 0.007728 -0.286328 0.206621 -0.059953 0.102577 -0.039803 -0.107644 0.127927 -0.129599 0.219105 -0.015966 0.075344 -0.019634 0.174195 -0.478442 -0.029684 0.158472 -0.072415 0.038542 -0.097310 0.310367 -0.048282 0.005820 0.000487 0.064829 0.131586 -0.081412 0.199429 0.131090 -0.015235 -0.314386 -0.294049 0.021893 0.100160 -0.166934 0.159008
2684 0.299049 -0.367210 -0.040909 -0.536300 -0.145055 0.121061 -0.549368 0.524605 -0.078232 0.392886 0.019148 -0.016207 -0.238862 -0.136630 0.030202 0.153627 -0.417044 0.069804 -0.053070 -0.138618 -0.176878 -0.121715 0.119988 -0.060382 -0.364903 -0.036888 -0.164021 -0.265354 -0.353841 -0.119819 -0.020266 0.178305 -0.090919 0.134255 0.016694 0.345292 -0.297752 0.145875 -0.133849 0.250852 -0.345566 0.195989 -0.139726 -0.165387 0.006250 0.417606 0.284056 0.335381 0.031194 -0.221425 -0.020630 0.132002 -0.396773 -0.624724 0.050504 0.317653 -0.127697 0.296584 0.315222 -0.038218 -0.310268 -0.417650 -0.222743 0.041870 -0.283314 0.157747 -0.171161 -0.078295 0.104337 -0.314171 0.219161 0.164211 0.437510 0.074874 0.107217 -0.242692 -0.273132 -0.120125 -0.139644 0.436651 0.447944 -0.113368 0.056117 -0.243260 0.311198 0.261155 -0.249054 -0.571993 0.312268 0.157731 0.056695 0.057188 0.363342 0.056778 -0.220425 -0.185804 -0.482868 -0.091594 0.389080 0.054526 0.070449 0.215061 -0.200052 0.298643 0.003641 0.081186 0.028171 -0.024563 -0.005434 -0.190873 -0.047111 0.098079 0.042001 -0.071907 -0.507498 0.028734 0.575809 -0.060807 -0.297010 -0.138998 -0.165567 -0.408606 0.197152 -0.322085 0.490638 0.531725 -0.057334 -0.141080
1099 0.341127 -0.053044 0.113163 -0.312177 -0.424523 -0.041075 0.386310 -0.216044 0.091317 0.079732 0.353608 -0.177456 -0.012473 -0.178136 0.125751 -0.051484 0.134836 0.187801 0.114305 -0.330999 0.043991 -0.180005 0.026671 -0.112729 -0.310046 0.288041 0.162301 -0.093165 -0.148513 0.217105 -0.205377 -0.457846 -0.322148 0.098398 0.105967 0.014997 0.039684 0.078921 0.151926 -0.061308 0.183444 -0.117823 0.029126 0.061103 -0.309238 -0.161468 -0.000263 0.189832 -0.190074 0.328106 -0.216454 0.263054 -0.044735 -0.305292 0.379560 -0.241183 -0.335091 -0.066270 -0.011523 -0.033082 0.052966 0.357014 0.323617 0.449475 -0.239854 0.242100 0.659435 -0.240138 -0.263278 -0.086968 0.432965 -0.075518 -0.344804 -0.247261 0.245835 -0.406531 -0.109862 -0.114828 0.115568 -0.116834 0.391620 -0.098030 -0.097991 0.209083 -0.041245 0.029178 -0.231786 -0.247882 0.141678 0.599936 0.213905 -0.276776 0.339734 -0.014758 -0.321390 0.033576 0.003424 0.170118 -0.200736 -0.302202 -0.061267 -0.026085 -0.156026 -0.120008 -0.245033 0.284800 0.162511 -0.243581 -0.276632 0.045593 -0.061440 0.261360 0.017379 0.105602 0.313198 0.314653 -0.096345 0.397425 0.389075 -0.070111 0.149446 -0.230418 -0.383679 0.020136 0.322006 0.162208 -0.004908 -0.107202
1606 0.376849 0.034098 -0.222579 0.250956 0.157742 0.430093 0.028999 -0.057732 -0.298567 -0.326328 0.209798 -0.549653 -0.014520 0.433046 -0.116908 -0.041750 0.175263 0.578926 0.319681 -0.089309 -0.410888 -0.095898 0.090329 0.114143 -0.012883 -0.016630 0.020799 0.000833 -0.108369 -0.011063 -0.281240 -0.187466 0.262416 0.030153 0.152314 0.044281 -0.362167 0.126430 -0.274211 0.009626 -0.259911 0.320550 -0.095212 -0.216252 -0.244505 0.090471 0.160849 -0.765725 -0.246524 -0.383646 -0.055639 0.124368 0.122008 -0.265421 0.337876 -0.230275 0.062055 0.069198 0.236078 0.721912 -0.075155 -0.161572 0.559596 0.477039 0.062328 -0.150167 -0.145578 -0.015050 -0.100476 -0.364358 0.079468 -0.221683 -0.614000 -0.068315 -0.216490 -0.264011 -0.012835 0.045699 0.539283 -0.102901 0.304641 0.160774 -0.014675 0.201727 -0.250524 -0.071663 0.205805 0.518847 0.015883 -0.094674 0.074453 0.033097 0.358576 -0.201068 -0.127046 0.021753 0.729708 -0.076958 0.297667 0.274056 -0.091387 0.531189 0.050383 -0.066893 -0.033753 -0.651558 0.101877 -0.166528 0.052954 0.007912 -0.227529 0.182750 -0.083105 -0.241225 -0.031289 -0.039845 -0.038955 0.037483 0.389966 0.077960 -0.743520 -0.212103 0.152111 -0.448553 -0.101985 -0.426344 0.054766 -0.177256
1945 -0.123298 0.338854 0.125108 0.000078 -0.013333 0.019498 0.172103 -0.305621 -0.042585 0.312167 0.024289 -0.527536 0.009005 0.196483 -0.091918 0.332748 -0.273976 -0.114828 0.481055 -0.127234 -0.348168 0.240001 -0.090678 -0.120038 -0.127808 -0.025407 0.051457 -0.480032 -0.095647 0.340847 0.399857 -0.090835 -0.104576 -0.013345 -0.361517 0.552855 0.443562 -0.007513 -0.867015 -0.002874 -0.157308 0.040831 -0.069386 0.323598 0.008371 -0.158867 -0.009480 -0.104987 -0.214015 0.158795 -0.318912 -0.332292 -0.184051 -0.142054 -0.432270 0.145392 0.101224 -0.100552 -0.029301 0.221023 0.377819 -0.137551 0.101970 0.468167 0.205847 -0.144282 -0.100352 0.216700 0.090204 -0.287263 0.269583 0.026240 -0.033774 -0.249958 0.193884 -0.015732 0.052675 0.535661 0.540038 -0.266311 -0.458303 -0.238115 0.197692 0.331185 -0.222278 -0.036275 -0.105654 0.315571 0.138825 -0.097090 0.323126 -0.239900 0.642244 -0.406203 -0.114876 -0.170874 0.094891 0.091331 0.147999 -0.025881 -0.380967 -0.182369 -0.152609 -0.021026 -0.044160 0.352291 -0.059230 -0.297727 -0.228610 0.064520 0.346531 -0.365684 -0.041045 -0.123448 0.346956 -0.225688 -0.207746 0.174711 0.046512 0.085484 -0.426218 -0.213846 0.056680 0.244775 0.417198 -0.537208 -0.266040 -0.781632
2651 0.104716 -0.176086 0.139472 0.033145 0.321863 0.083358 -0.034539 0.025415 0.148214 0.253714 0.154928 0.444724 -0.067672 -0.219173 -0.113944 0.126267 0.246936 0.303614 -0.050389 0.010524 -0.112329 -0.046468 -0.172653 0.306244 -0.041762 0.044712 -0.100359 0.051342 0.095498 0.085737 0.028326 0.173642 -0.350050 0.218632 -0.074628 -0.351797 -0.231392 -0.324849 -0.367757 0.061990 -0.206812 0.080441 0.188379 0.147250 0.038322 -0.074692 0.067629 -0.097524 -0.230381 -0.039001 -0.100139 0.384004 -0.029724 0.074517 -0.073799 0.190621 -0.041785 -0.056846 -0.293346 -0.129984 -0.260058 0.383315 0.087175 0.355443 0.073370 0.292606 -0.212512 0.106159 0.031388 -0.146871 0.151776 -0.175624 0.052045 0.058773 0.329702 0.296549 -0.070174 0.223277 0.034065 0.292012 0.156170 -0.318896 0.083082 0.007523 0.519695 0.183603 -0.198972 -0.269123 -0.168233 -0.031855 -0.074356 -0.044097 -0.021661 -0.026301 0.446376 -0.180623 -0.076064 0.024810 -0.224405 0.047039 -0.055199 0.529472 -0.140126 0.173347 0.019761 0.159679 -0.084147 -0.319796 0.300407 0.002500 -0.036427 -0.255624 0.055933 -0.079731 0.001560 -0.159269 0.063133 0.267170 -0.175771 -0.008775 -0.066457 0.025551 0.036428 -0.042314 0.287289 0.234442 0.184768 0.456735
1647 -0.224553 0.098273 -0.129451 0.478919 0.078323 0.414850 -0.216983 -0.164092 0.395189 -0.396764 -0.707243 0.310430 -0.074338 0.312144 0.164489 -0.006531 0.008750 -0.095949 -0.383092 0.196695 -0.061348 -0.205527 0.584105 -0.067640 0.258491 -0.222835 0.112367 0.427389 -0.350971 -0.244613 0.253071 -0.365196 0.136259 0.281402 -0.771776 0.005288 -0.296948 -0.361134 -0.319319 0.096340 -0.109086 -0.412266 -0.052799 0.023745 0.178765 0.210353 0.137300 0.258057 -0.132214 0.297785 -0.003408 0.010662 -0.131741 -0.086098 -0.359493 0.117288 -0.234483 0.262544 0.457888 -0.111844 -0.137983 0.313136 0.385478 0.225655 -0.023875 -0.237608 -0.306476 -0.083319 -0.152482 -0.634140 0.226533 -0.391213 -0.122686 -0.226816 0.221750 0.255955 -0.336026 -0.199253 -0.029893 -0.201058 -0.198997 0.043750 -0.071427 -0.045178 0.143180 -0.024583 -0.042017 0.005477 0.676572 -0.426801 0.271713 -0.463735 -0.092027 0.144188 -0.337384 0.173063 -0.020285 -0.278700 0.089086 0.079058 0.237511 0.132028 0.029820 0.068968 -0.148895 0.460708 0.031724 0.144962 0.166434 0.003643 -0.385410 0.223155 0.247094 0.261271 -0.126739 -0.112513 -0.309153 -0.135613 0.211118 0.494730 0.414993 -0.127854 0.043276 0.167676 0.005617 -0.271093 -0.323261 0.451592
2409 0.216771 -0.237623 0.257031 0.061820 0.190673 0.443908 -0.022296 -0.568314 0.393951 -0.645420 -0.303937 -0.030148 -0.122839 0.263200 0.267032 -0.132351 -0.522551 0.052224 -0.320203 -0.038109 0.058364 -0.022425 0.299532 0.055006 0.107199 -0.191730 -0.058834 -0.068343 0.275458 0.156458 0.183391 -0.397398 -0.012203 -0.096774 -0.744819 0.055352 -0.363084 -0.229150 -0.185697 -0.416797 0.012216 -0.465200 -0.095550 0.129019 0.444825 0.256353 0.270550 0.187088 -0.128182 0.389642 0.006913 0.296362 0.038007 -0.256000 -0.343165 -0.217268 0.047679 0.176447 0.383098 -0.255882 -0.253924 0.053445 0.272711 0.304511 0.351197 -0.059580 -0.202856 -0.162384 -0.274932 -0.398314 0.261114 -0.194082 0.106329 0.135501 0.105216 0.128205 -0.507762 0.206414 -0.349205 0.367788 -0.183058 -0.208092 0.109299 -0.033768 0.355078 0.034474 -0.072737 -0.162361 0.443521 -0.573775 0.051666 -0.110563 0.036559 0.037887 -0.327807 0.485854 0.016707 0.009148 0.092548 0.164363 0.008571 -0.236877 -0.387064 0.088510 -0.487884 0.016109 -0.157987 0.085418 0.680408 0.242191 -0.134955 -0.164170 -0.080332 0.203443 0.025033 -0.272606 -0.063307 -0.023871 -0.002587 0.466843 0.090191 0.072297 0.090209 0.403616 0.463082 0.030622 -0.603721 -0.009225
2053 -0.139819 -0.332426 -0.043440 -0.357306 -0.420112 -0.713573 -0.745761 -0.334649 -0.195945 -0.097362 -0.259714 -0.109031 -0.289985 -0.085783 0.040397 0.404685 0.427214 -0.013877 -0.149979 -0.505894 -0.014035 -0.033127 -0.137151 -0.207355 0.426187 -0.490633 0.481212 0.225416 0.318913 -0.014514 0.338458 0.392524 0.076980 -0.480696 -0.020181 -0.356517 0.189715 -0.364959 -0.463194 0.004497 -0.224676 0.255986 0.289044 -0.384717 -0.059048 0.088676 -0.591314 0.017602 -0.175526 -0.081898 0.370319 -0.263850 0.109752 -0.401977 0.599873 -0.511920 -0.080893 0.333565 -0.524255 -0.262092 0.628975 -0.062236 0.459219 -0.437195 0.098365 -0.048351 -0.097268 -0.068236 -0.149013 -0.119047 0.010446 0.061151 -0.338040 0.583122 0.306799 -0.339581 -0.286139 0.073410 -0.131715 0.539970 -0.341005 -0.168442 -0.308259 0.235646 -0.179107 0.234332 0.080659 0.118440 -0.066233 0.035177 0.196916 -0.156667 0.491700 0.189007 -0.290900 -0.303426 0.068971 -0.081562 0.304615 -0.062242 -0.459415 0.304281 -0.043055 0.406276 0.182900 0.077920 0.056269 -0.374478 0.447902 -0.361479 0.216592 0.132979 0.166457 -0.382082 0.023729 0.070273 0.243827 -0.453120 0.509818 0.773724 0.279355 -0.188927 0.070884 0.212667 0.296346 -0.022228 0.555834 0.050705
3292 -0.078242 -0.083106 -0.180036 0.064220 -0.022849 -0.250912 -0.528625 0.045599 0.179920 0.105186 -0.207393 -0.574074 0.017984 -0.079407 0.270165 -0.275413 -0.030322 -0.003080 -0.043432 0.403793 -0.284882 -0.131787 0.493217 0.076212 -0.013233 0.001316 -0.323184 0.003037 -0.227742 0.087808 0.151092 -0.147752 -0.060916 0.133794 -0.395592 -0.044504 0.104620 -0.164798 0.140314 -0.388568 -0.548918 -0.061090 0.489095 0.200439 0.131681 -0.437116 0.083756 -0.108170 -0.298223 -0.414813 -0.073542 0.225214 0.211577 0.322922 -0.125536 -0.341110 0.293593 -0.249384 0.030538 0.168162 -0.199991 0.026110 -0.085094 -0.059894 -0.012583 -0.091946 -0.330824 -0.004782 0.424075 -0.114634 -0.206503 -0.389896 -0.196517 0.192082 0.412952 0.040577 0.297567 -0.001707 -0.092451 0.187325 0.219370 0.221999 -0.202019 0.210211 0.027694 0.146290 0.117602 -0.170194 0.323289 -0.169497 -0.008328 0.095213 -0.221237 -0.093657 0.123538 -0.172639 -0.010962 0.291126 -0.453167 0.099171 -0.073622 -0.257681 -0.171418 -0.023176 -0.285113 0.444301 -0.095850 0.562390 -0.030944 -0.384640 0.154555 -0.175418 -0.016799 -0.384081 0.230240 0.190755 -0.279321 -0.106674 0.271475 0.280344 0.205868 0.142729 -0.204261 -0.329313 -0.217703 0.288764 -0.095480 0.194516
2790 0.083800 0.060276 0.137728 0.065894 -0.052184 0.310406 0.364471 -0.313130 -0.305506 -0.362624 0.234464 -0.244057 0.151032 -0.307086 0.107635 0.379860 0.187559 0.339539 0.265154 -0.314537 -0.177102 0.496136 0.146619 0.394563 -0.383993 -0.353844 0.250846 0.233508 0.047632 0.309775 -0.073255 0.280437 -0.153294 -0.113564 -0.124085 -0.154637 -0.355036 0.362159 -0.050664 -0.063601 -0.373264 0.262793 0.107454 0.267588 -0.484499 0.205520 -0.239777 0.085562 -0.227948 0.244695 -0.175351 0.201339 -0.119282 0.289574 -0.319976 -0.365723 -0.323231 0.235965 0.079329 0.547267 -0.266166 0.445949 0.339855 0.204384 0.304997 0.060753 -0.261668 0.108795 -0.514300 -0.412300 -0.029377 0.034916 -0.187273 0.057613 0.180655 -0.427179 0.440020 0.156383 -0.385852 0.123301 0.295691 0.238553 -0.212269 -0.159737 -0.341469 -0.143463 -0.586803 0.345307 -0.132219 0.342543 0.323936 -0.304891 0.209734 0.165914 -0.507886 0.206027 -0.127649 -0.397186 -0.146444 0.033560 -0.255660 0.442529 0.233047 -0.067044 -0.024448 -0.264280 -0.185719 0.089234 0.145323 -0.355587 -0.159412 0.311649 -0.092153 -0.033430 0.654239 -0.019520 -0.299968 0.319406 0.571709 -0.585613 -0.093778 -0.285499 -0.021213 -0.480715 0.083783 -0.257549 -0.388206 0.021931
2548 -0.083790 0.753837 -0.750956 -0.313736 -0.615479 -0.472508 -0.166092 -0.659192 -0.153536 -0.398360 -0.169818 0.529224 -0.005559 0.321733 0.508352 0.420011 -0.552071 -0.275405 0.257577 -0.426513 0.066099 -0.127071 0.306663 0.050148 -0.365411 0.138880 0.212234 -0.088131 0.113891 0.078259 0.247557 -0.209843 -0.506874 0.399142 -0.106102 -0.553617 -0.371357 -0.520609 0.624556 -0.099994 0.071731 -0.297456 0.304789 0.105067 -0.191687 -0.128813 0.068311 -0.150112 -0.320352 0.115011 -0.297905 0.105243 0.200826 0.157170 -0.448065 -0.270570 0.270018 -0.262934 0.021872 -0.149092 -0.397852 0.116268 -0.278798 -0.393191 0.336669 -0.241283 -0.402668 -0.405178 0.733151 0.046732 0.189847 -0.229925 0.221902 -0.074020 -0.182656 -0.209844 -0.059106 -0.324497 -0.323880 -0.187790 0.028913 -0.380502 0.062860 0.549419 0.473472 0.599954 0.405434 0.411425 -0.107357 0.014028 0.109884 -0.040378 -0.116838 -0.191587 0.394603 -0.145849 -0.141778 -1.045814 0.302732 0.347448 0.063702 -0.010889 0.224934 0.009570 0.434762 -0.210429 0.578052 -0.237368 -0.347792 -0.038875 -0.699874 0.702655 0.418871 -0.244409 0.397909 -0.482996 -0.411253 0.241289 -0.164763 -0.298111 -0.129756 -0.098771 -0.108086 0.130531 -0.211957 0.037629 0.205737 -0.348566
2676 -0.148155 0.107336 -0.445263 -0.595130 -0.004952 -0.393873 -0.232258 -0.418100 0.226772 -0.004746 0.242321 0.186805 -0.201861 0.335508 0.277359 0.333041 -0.282760 -0.500360 -0.022740 -0.731843 -0.058895 0.084183 -0.070698 0.117871 -0.135447 0.069391 0.412796 0.169836 -0.202881 0.092170 0.470047 0.253349 -0.336289 0.313277 -0.303661 -0.329084 -0.530154 -0.125506 0.214169 -0.158443 -0.487102 -0.488244 -0.223951 -0.181096 0.025652 -0.297934 -0.022965 0.056914 -0.062372 -0.263991 -0.180052 0.071435 0.204582 -0.128060 0.041802 -0.009542 -0.041497 -0.425175 -0.276791 0.115684 -0.085250 0.103705 -0.542912 -0.470623 0.854034 -0.415175 -0.256143 -0.129748 0.806679 0.060834 -0.021716 -0.415875 0.093414 -0.144398 -0.029513 -0.176144 -0.325758 -0.408032 -0.684413 -0.176204 0.070421 -0.545490 -0.072604 0.734006 0.256029 -0.005715 0.125925 0.551730 -0.318114 0.202539 -0.172817 0.186169 -0.140540 0.228789 0.241420 -0.096912 -0.114017 -0.545964 -0.035163 -0.223659 0.714944 0.227064 -0.233724 0.177853 0.173621 0.005741 0.805016 -0.369065 -0.370596 -0.084452 0.250796 0.407611 0.147457 -0.086961 0.139746 -0.208084 -0.194161 0.651043 -0.033190 0.067245 -0.398900 0.341496 -0.267174 0.208614 0.199352 -0.392917 0.074590 0.047063
569 0.277795 -0.234364 -0.038164 0.810799 -0.234224 0.355127 0.049266 0.126610 -0.069808 -0.208725 0.240361 -0.471773 -0.308097 0.151723 -0.420609 0.095954 0.141774 0.293823 0.226703 0.086011 -0.660697 0.545771 -0.159529 -0.708234 0.790387 -0.283312 0.297945 -0.294279 0.553184 0.141836 0.087870 0.545636 -0.010480 -0.163096 0.490574 -0.416508 -0.473651 0.321934 0.171199 -0.215669 -0.480667 0.147188 0.402557 -0.263831 0.080288 0.394498 0.362982 -0.451830 -0.591560 0.162176 0.459871 0.167327 0.037706 -0.845703 -0.147350 -0.145297 0.478303 -0.076060 0.224761 0.562288 -0.434726 -0.255697 0.881535 0.145886 -0.479807 -0.350957 -0.028669 -0.199008 -0.152293 0.644893 -0.142678 -0.348519 -0.103142 -0.034343 0.197142 -0.054615 0.009674 -0.198922 0.426758 0.261803 0.133226 -0.767868 -0.014874 0.443107 0.033233 -0.136795 1.379184 0.096797 -0.167252 0.182472 -0.220928 -0.459143 0.555618 0.129054 0.193724 0.190481 -0.129416 -0.248231 0.017075 -0.114992 -0.590832 0.165289 -0.060312 0.354513 -0.493990 -0.309097 0.414745 0.134042 -0.505783 0.135793 -0.204516 0.572046 0.015024 0.026185 -0.103867 0.109278 -0.002993 -0.431404 0.071688 0.017491 -0.535039 -0.476598 0.007915 -0.071569 0.084762 -0.660924 0.360336 -0.049884
3686 -0.313500 0.122705 -0.216426 0.091826 0.059796 0.364245 0.746207 -0.050961 0.060604 -0.226346 0.275290 -0.264977 -0.077874 0.118853 -0.008611 -0.085369 -0.110051 -0.456126 0.348958 -0.681439 -0.296723 0.032080 -0.554167 0.172992 -0.437682 0.095017 0.201478 0.273905 0.026178 0.224940 0.320182 0.206269 -0.110928 0.043011 -0.109685 -0.010865 -0.122078 0.195762 -0.350224 0.287405 -0.046326 -0.083078 0.009525 -0.063364 -0.184493 -0.179970 0.296872 -0.057181 0.029963 0.520582 0.459280 0.034930 0.313659 -0.812544 -0.085718 -0.011846 0.128679 -0.008373 0.448732 0.042312 0.181359 -0.073608 -0.747620 -0.296934 -0.441687 0.392173 0.462339 -0.263062 -0.578412 -0.031789 0.027951 -0.046294 -0.318720 0.163727 -0.667254 -0.221931 -0.085786 -0.083045 0.045114 -0.615548 0.158451 -0.101034 -0.122518 0.155858 0.030930 0.372902 -0.595434 -0.716235 0.343691 0.295431 -0.023085 0.051900 0.299170 -0.092564 -0.064663 -0.282226 -0.236538 0.328912 -0.487066 0.417548 -0.293155 -0.110663 0.558666 -0.248992 -0.030534 0.370917 0.696356 -0.265546 -0.444182 -0.652161 -0.289272 -0.241056 -0.047760 -0.295602 -0.251976 -0.062940 -0.701241 0.004788 0.408476 -0.125937 -0.112470 0.055289 0.222646 0.183784 -0.025108 -0.109382 0.228072 0.081290
3480 0.221140 0.215760 0.263516 -0.233647 -0.201751 0.640840 0.202103 -0.029939 0.109943 0.029469 0.417693 0.001901 0.032096 -0.096160 0.185028 -0.057694 -0.345274 -0.493184 0.165912 -0.299872 0.006279 -0.125019 -0.917097 0.011964 -0.507506 -0.363056 0.251508 0.105585 -0.058363 0.076991 0.096575 0.432071 -0.068388 -0.097924 0.083266 -0.144685 -0.306238 0.008021 0.019560 -0.006807 -0.002399 -0.148666 0.230612 0.174684 0.071786 0.209004 0.417167 0.192281 -0.101588 0.487751 0.235480 0.239148 0.014817 -0.212272 0.278473 -0.175210 -0.317910 -0.166581 0.195320 -0.026043 0.077900 0.105266 -0.562011 -0.265094 -0.546993 -0.277251 0.517095 -0.160853 -0.311096 -0.201636 0.059353 -0.130757 -0.488442 0.361559 -0.552605 -0.039797 0.183739 0.061485 -0.121794 -0.673421 0.156137 -0.021563 0.082705 0.017135 0.162086 -0.176279 -0.176096 -0.285208 0.406681 0.589135 -0.252594 -0.227681 0.443275 -0.662380 -0.181608 0.405174 -0.070995 0.300422 -0.850050 0.111712 -0.177707 -0.182533 -0.178204 -0.353800 0.234268 0.639079 0.224106 -0.821750 -0.259575 -0.840941 -0.167640 0.116936 -0.259507 -0.201622 -0.476965 0.303573 -0.449066 -0.135931 0.424054 -0.104316 0.060936 0.283053 0.473561 0.072516 -0.105262 -0.555279 0.380409 0.091819
3102 0.008745 -0.662395 -0.399471 -0.040880 -0.114146 0.182724 0.356885 0.071014 0.478569 -0.536832 -0.025232 -0.367005 0.273204 0.653769 0.122097 -0.306640 0.088054 0.502755 -0.237880 0.053605 0.049902 0.074888 -0.017159 -0.417682 -0.547711 0.188914 -0.129068 -0.138103 -0.089012 -0.125430 -0.528974 -0.219098 -0.329840 -0.040706 -0.134168 -0.155826 -0.218425 -0.392200 -0.890906 0.342732 0.383261 0.334627 -0.479665 0.235506 0.004486 0.321286 -0.134246 -1.103972 0.029531 0.343428 -0.232859 0.020707 0.099841 0.082334 0.492469 -0.194342 -0.146516 0.161349 -0.286693 0.478106 0.047258 -0.028497 -0.005294 -0.290582 -0.039331 0.097968 -0.510803 -0.073545 0.217291 -0.491091 -0.263518 -0.324570 0.112069 -0.061432 -0.037170 0.048335 -0.095453 -0.351880 0.357482 0.937838 0.502262 0.290067 0.384101 0.137946 0.019079 -0.190453 0.509222 0.136543 -0.257629 0.491347 -0.101442 0.004543 0.584842 -0.177297 -0.373765 -0.069090 -0.007049 0.443693 -0.250421 0.812758 0.285835 -0.549459 0.216288 0.138227 -0.227037 -0.580430 0.069467 0.031453 -0.078819 -0.090192 -0.142360 0.402582 -0.328057 -0.019511 -0.163180 0.363859 -0.295019 -0.115474 0.176967 -0.235479 -0.739670 -0.120253 0.292557 -0.404606 -0.593204 -0.285726 0.318332 -0.437051
1358 0.058045 -0.376391 -0.015296 0.312434 0.023251 -0.005559 0.022331 0.419502 -0.272724 -0.054365 -0.152783 0.082292 -0.070344 -0.162471 -0.041901 0.192422 0.071377 -0.111865 -0.344165 -0.126452 -0.542766 0.029339 -0.228473 0.478014 -0.297166 0.019210 0.235526 -0.377688 -0.110191 0.134496 -0.273581 0.088784 0.192642 -0.109902 -0.211588 -0.341587 -0.131392 0.171347 0.003785 0.022628 0.336813 0.392281 0.177984 -0.275236 0.364007 -0.273006 0.262758 0.320740 -0.270255 -0.043159 0.279814 0.391111 -0.102278 -0.119086 0.221452 -0.080208 0.066279 0.106641 -0.377090 -0.094816 0.344352 0.142804 0.122272 0.258198 -0.215556 -0.070801 0.065991 -0.468355 0.390483 -0.281075 0.302608 0.192887 -0.070234 -0.340495 -0.271022 0.376498 0.310330 -0.092036 -0.268720 0.023078 0.108283 -0.056958 0.191233 0.194975 0.084420 -0.353206 -0.256854 0.131405 0.390567 0.276396 0.048490 -0.233604 0.125831 0.166928 0.014461 -0.081967 -0.135624 0.117857 -0.203000 0.372532 -0.207051 -0.090027 0.253365 0.344426 -0.340754 0.208340 -0.165983 -0.121196 -0.462634 -0.049267 0.060286 0.240604 0.300167 0.234679 0.055943 -0.241251 0.183517 -0.133483 -0.611076 0.128039 0.084431 0.263551 -0.018974 0.020853 0.052370 0.579315 0.180214 0.124292
1804 0.069991 -0.203731 -0.572216 -0.007166 -0.464871 -0.230146 -0.021467 -0.094175 0.270574 -0.231045 0.278094 0.043254 -0.109948 0.129303 -0.323219 0.172761 0.021808 0.317326 0.436978 -0.333419 -0.574222 0.250480 0.152832 -0.062651 -0.156106 0.043017 0.650608 -0.436484 0.032453 -0.093742 -0.189162 0.162154 0.377257 -0.614536 -0.016195 0.135049 -0.318991 0.155662 -0.083981 0.305507 -0.286418 0.289773 -0.314423 -0.115010 0.629895 0.254763 -0.448081 0.053433 -0.145018 -0.193443 -0.166816 -0.376339 -0.376686 -0.493692 0.478535 -0.248955 0.363382 -0.086951 0.389385 -0.062133 -0.059184 -0.424971 0.377288 -0.310662 -0.358207 0.334514 -0.379011 0.723940 0.027547 0.202565 -0.474079 -0.288934 0.222038 0.212591 0.562074 0.098305 -0.402314 0.055051 -0.239955 0.217684 0.296713 -0.197885 -0.018072 0.147035 0.047952 -0.095097 0.289034 0.059445 -0.132679 -0.167073 -0.646664 -0.432182 0.338826 -0.062282 0.112887 -0.062904 -0.002783 0.419095 0.422896 0.079936 -0.304391 0.088594 0.166533 -0.156757 0.178728 0.362091 -0.052704 -0.086581 -0.181421 0.109142 -0.081203 0.149933 -0.402974 0.158944 -0.029343 -0.610180 0.093534 -0.372771 0.419244 -0.261166 0.178526 0.153889 -0.007800 0.078599 0.184376 0.230343 0.338466 -0.154507
3502 0.388691 -0.226931 -0.612339 0.056300 -0.082113 0.331876 0.026207 0.095076 -0.349349 -0.245214 -0.323398 -0.157147 -0.282692 -0.498773 -0.056410 -0.076272 0.252721 -0.353295 0.534487 -0.001899 0.086825 -0.662404 -0.130954 -0.199475 0.110402 0.218883 -0.033930 0.165872 0.233119 -0.063848 0.251589 0.324194 -0.363933 0.372565 0.299115 -0.071435 -0.118179 0.434555 -0.104104 0.461039 0.255460 0.017503 -0.067905 -0.060574 0.208243 0.270524 -0.125023 0.124110 0.091317 -0.002216 -0.116296 -0.139145 -0.307265 -0.203601 -0.124632 -0.056377 -0.589693 0.405438 0.053793 -0.092042 0.377083 0.234749 -0.025148 0.333625 0.155929 0.038328 -0.213432 0.165871 0.300775 0.329470 0.398728 -0.246417 0.383609 0.222947 -0.023618 -0.364832 0.502491 0.264551 -0.263225 0.096309 0.045654 0.095131 -0.231407 -0.500915 0.891748 0.659535 0.179450 -0.367444 0.222780 -0.188391 -0.792514 -0.302927 0.094911 0.584481 -0.937182 -0.337976 -0.472931 -0.064789 -0.089563 0.037585 0.360792 0.117255 -0.144864 0.359542 -0.433693 0.272528 -0.262801 -0.163583 -0.016872 -0.682539 0.146257 -0.001107 -0.151804 -0.491397 -0.342192 -0.050508 0.178177 0.001976 -0.171384 0.142529 -0.462306 0.057112 -0.068439 0.418323 0.216015 -0.032518 -0.479557 -0.111646
644 0.347157 -0.022528 -0.328224 0.229378 -0.057907 -0.318328 0.486051 -0.133023 0.295138 0.013880 0.239382 -0.612147 0.194222 -0.054507 0.026499 -0.407631 -0.109258 0.325463 0.286629 0.241740 -0.067159 -0.050255 -0.324756 -0.001078 -0.247337 -0.186577 0.023648 -0.042399 0.051754 0.351773 -0.045626 -0.325601 -0.297585 -0.157245 0.108458 0.266983 -0.423695 0.415013 0.142314 0.138926 -0.299710 0.340667 0.160742 0.130993 -0.136064 0.099469 0.290721 -0.487146 0.474767 0.323100 -0.611810 -0.429877 -0.608742 -0.332722 0.145087 -0.139205 0.187830 -0.129291 0.056755 0.168105 0.035570 -0.025696 0.355628 0.230210 -0.103773 0.061626 0.228799 -0.293361 0.059276 -0.597435 0.129651 0.431079 -0.160837 0.049186 0.173029 -0.304471 -0.401979 0.151066 -0.142002 -0.204897 0.208623 -0.114704 -0.074168 0.333759 0.196959 0.066618 -0.062178 0.100652 0.327272 0.289952 0.022655 -0.055727 0.150325 -0.014679 -0.023344 0.046673 0.100933 0.092920 0.414769 -0.282096 -0.439195 0.237253 0.321509 0.132809 0.315734 -0.213629 -0.179597 -0.082534 0.038150 -0.053818 0.015916 0.133631 -0.027918 -0.113733 -0.184147 0.307261 0.188349 0.310142 0.517737 0.025698 0.131457 -0.036117 -0.184026 0.066758 0.240038 -0.059325 -0.148755 -0.161884
3642 0.094927 -0.479620 -0.135870 0.295598 0.205957 0.132698 0.016887 0.146832 -0.165372 -0.146759 -0.309424 -0.242914 -0.090689 -0.294101 0.365012 0.493990 -0.197750 -0.022889 -0.087060 0.179215 0.034856 0.012845 -0.224071 0.329457 -0.284250 0.451307 0.599733 0.047887 0.009801 0.529932 0.424687 -0.038170 -0.355405 0.151886 0.262910 -0.219750 -0.281660 0.369429 -0.044850 -0.278366 -0.317419 0.408538 -0.214870 -0.276843 -0.160576 0.038292 0.548521 -0.036600 -0.314698 -0.490032 0.820846 0.052595 0.215163 0.354755 0.062728 -0.304212 -0.093509 0.017639 -0.320610 0.118925 0.431562 -0.132921 -0.070311 0.194489 -0.243384 0.038023 0.013980 0.094623 -0.273133 -0.185688 -0.050267 0.480645 0.215209 0.156251 -0.137677 0.754942 -0.167673 -0.076319 -0.232647 -0.818793 0.395271 -0.013203 0.251180 -0.182016 0.193353 0.356061 0.198701 0.067567 0.479812 -0.044115 0.292292 -0.250976 -0.022520 0.115451 0.261140 0.257302 -0.204883 0.200649 -0.077262 0.642275 -0.291171 -0.093722 0.358279 -0.062432 0.375268 -0.074561 -0.077718 0.220102 0.148101 0.098250 0.405648 0.111704 0.229036 0.963195 0.344014 0.382358 -0.250063 -0.293244 -0.001725 0.181151 0.027791 0.036252 0.325767 0.576804 0.561122 0.201672 -0.037470 0.100479
3240 -0.223948 0.067402 -0.700883 -0.974625 0.324623 -0.323321 0.142328 -0.641503 0.374718 -0.253212 0.384593 0.158923 0.149794 0.294956 0.325216 0.712415 -0.385820 -0.410596 0.032050 -0.312108 -0.517426 -0.199660 0.197902 0.314391 -0.028313 0.436504 0.099869 0.098030 0.127949 -0.004094 -0.137760 0.187310 -0.438899 0.205539 -0.467355 -0.387638 -0.406944 -0.311120 0.655670 -0.513649 -0.428530 -0.214549 -0.183487 -0.466545 0.420215 -0.693261 0.236576 -0.201845 0.117792 -0.263047 -0.076346 -0.190172 -0.075385 -0.567913 -0.100979 -0.062308 -0.073755 -0.619101 0.074262 -0.204280 0.080901 -0.010879 -0.355413 -0.580295 0.501983 -0.303317 -0.309200 -0.070606 0.697660 -0.171664 0.204343 -0.399086 -0.120340 0.332528 0.037367 -0.229390 -0.061841 -0.147028 -0.386305 -0.168131 0.123861 -0.270804 -0.450459 0.604440 0.042650 0.099931 0.619694 0.927517 -0.231630 0.299041 0.022282 -0.028407 -0.041869 0.084302 -0.070851 -0.002054 -0.147381 -0.410623 0.030953 -0.178776 0.622914 0.457954 -0.214911 0.209617 0.038407 -0.041292 0.155556 0.144394 -0.158211 -0.391582 -0.257778 0.182135 0.303429 -0.204873 0.467838 -0.583003 -0.138102 0.276401 -0.417589 0.570581 0.312898 0.095610 -0.186933 -0.012625 0.076942 -0.118476 -0.283211 0.230495
257 0.120195 0.091269 -0.223673 -0.349380 -0.065553 -0.115846 -0.056569 0.385657 0.196706 0.148327 0.102403 0.252716 0.134236 -0.016040 -0.197624 -0.037641 0.022149 0.631138 -0.147682 0.194598 -0.386079 -0.349083 -0.129630 0.087591 -0.263571 -0.082102 0.166985 -0.180862 -0.046695 0.068501 -0.324555 0.005605 0.380808 -0.170000 -0.125777 -0.232661 -0.248295 0.439920 0.221142 -0.003952 0.065111 0.233837 -0.035676 0.108723 -0.175149 0.040504 0.181284 0.136151 -0.208514 0.078381 -0.140825 0.201769 0.231822 0.127579 -0.259642 -0.055656 0.014819 -0.770365 0.310620 -0.055912 0.029962 -0.027202 -0.119286 0.005824 -0.063571 0.539723 -0.126937 0.254097 -0.091959 -0.026129 0.383036 -0.115328 0.150351 0.020262 0.297494 -0.085312 -0.213087 0.327398 -0.061151 0.271540 0.076199 -0.039474 0.300231 -0.031902 -0.303806 -0.074523 -0.077587 0.078594 0.080082 0.063976 -0.480309 -0.172173 0.135565 0.371014 0.167128 -0.176395 0.094182 -0.301948 0.214841 0.237460 -0.058491 -0.246485 0.195403 0.035963 -0.299281 -0.020547 0.285312 -0.281157 0.326683 0.073107 -0.016421 -0.307647 0.005464 0.037964 0.291494 -0.197153 -0.103193 -0.229793 0.139346 0.151352 0.154661 -0.009966 -0.016902 0.420503 0.183484 0.363512 0.007239 0.076404
1763 -0.266614 -0.330696 -0.149298 -0.147519 -0.156891 0.403240 0.429877 0.411139 0.469940 -0.464756 0.009205 -0.593015 0.052860 1.159405 0.128824 -0.180835 -0.175794 0.379788 -0.014630 -0.040546 -0.307874 -0.059607 -0.080855 0.400887 0.304218 0.048468 0.064995 0.138609 -0.120247 -0.327997 -0.524550 -0.206909 0.249987 -0.256284 0.164296 0.268458 0.095154 -0.694671 0.062709 0.217491 0.276422 0.367747 -0.106708 -0.249126 -0.183074 0.791372 -0.048708 -0.964601 0.375660 -0.600278 -0.517196 0.122441 0.041423 0.151604 0.104907 0.074315 0.124867 -0.159618 -0.440152 0.642726 0.128233 -0.070051 0.501754 0.251436 -0.350816 -0.177834 -0.281705 0.073392 -0.020360 -0.446316 0.124853 -0.637451 -0.406810 -0.154761 0.079707 0.049547 0.140121 0.115451 -0.232889 0.254794 0.416374 0.323684 0.073643 0.078676 0.050944 -0.366353 0.555580 -0.403873 -0.028915 0.137849 0.066193 -0.277844 0.256262 -0.204347 -0.368001 0.162126 0.326712 -0.212692 0.002945 0.662402 0.038511 -0.545755 -0.079324 0.462992 0.192519 -0.010277 0.029017 0.053899 0.031304 0.167755 -0.018372 0.625019 -0.955064 0.127911 -0.331634 0.316057 -0.037527 0.772311 -0.092771 0.290246 -1.047977 -0.081272 0.439468 -0.165003 -0.361828 0.029727 0.244517 -0.275700
835 -0.032664 -0.063284 0.168407 0.455513 0.182765 0.260808 -0.254757 0.399507 0.074141 0.013997 -0.254277 0.207702 -0.257542 -0.043685 -0.240002 0.027774 0.214742 -0.199677 -0.461980 -0.111846 -0.555642 0.056407 -0.291372 0.475810 -0.480010 0.300117 0.512252 -0.300682 -0.032377 0.377765 -0.039549 -0.176437 -0.046083 -0.240141 0.146300 -0.360730 -0.273840 0.154935 0.286062 -0.280603 0.142428 0.424321 -0.086477 -0.553419 0.205949 -0.245109 0.520985 0.271189 -0.346215 0.056997 0.932637 -0.251251 0.006229 0.367267 0.453337 0.313100 0.127770 -0.045775 -0.418957 -0.140856 0.255247 0.415915 0.008062 0.075342 -0.172246 -0.307039 -0.238604 -0.116781 0.292806 -0.420329 0.244018 0.380759 0.199183 -0.425831 -0.166375 0.323543 0.540211 -0.030613 -0.447161 -0.103600 0.155017 0.320882 0.114918 0.330625 0.172776 -0.036629 -0.226717 0.068408 0.821652 0.191135 -0.100420 -0.481218 0.199702 -0.005328 0.001378 0.059819 -0.186190 0.120086 -0.368530 -0.028928 -0.542692 -0.335736 0.164581 0.088476 -0.059436 -0.187236 0.065020 -0.012023 -0.695083 0.178938 0.244842 0.209004 0.032577 0.167434 0.251253 0.030551 -0.199239 -0.438164 -0.161125 0.147624 0.057706 0.042196 0.058294 -0.058175 0.332977 0.476766 -0.178941 0.372386
332 -0.210684 -0.247530 -0.091767 -0.087873 -0.135409 -0.059261 -0.312446 -0.358477 -0.104913 0.014983 0.064431 0.333815 -0.025643 0.037215 0.024444 0.175147 0.702629 -0.115405 -0.328511 -0.451255 0.286234 -0.188245 0.049042 0.309424 0.259774 -0.355771 0.363367 0.090809 -0.602485 0.220735 0.021237 0.102614 0.114351 0.092306 -0.057272 0.098323 0.057861 -0.066514 0.095601 0.051885 -0.950503 -0.293633 0.212676 -0.148463 0.071185 -0.365573 -0.069069 0.001911 -0.421555 0.125452 0.116013 -0.128368 0.289447 -0.200366 0.231173 0.079242 0.214280 0.263290 -0.150745 -0.168234 0.623617 0.228705 -0.126062 -0.337546 0.360079 -0.179337 -0.244775 -0.120439 0.264294 -0.064935 0.319963 0.047130 0.083186 0.144526 0.454595 -0.065211 -0.159846 0.076087 -0.249707 0.024812 -0.431616 -0.316037 0.403518 -0.003328 0.434444 0.415715 0.049637 -0.025205 -0.692550 0.035093 0.255333 0.279702 0.283801 0.041902 0.152188 0.018402 -0.342833 -0.238206 0.091199 -0.030094 0.113905 0.281566 -0.254379 0.216223 0.198439 0.313220 0.360229 0.031259 0.137179 0.258325 0.181847 -0.223969 -0.183292 -0.415687 0.158927 0.007539 -0.051030 0.450138 0.267769 0.102775 -0.449465 0.180184 0.371713 0.089606 0.407712 -0.034563 0.382187 0.027526
2212 -0.138420 0.279982 -0.175799 -0.187041 0.290180 -0.019265 0.237768 0.330963 -0.060154 -0.156668 -0.786905 -0.107665 -0.172114 -0.524751 0.304258 -0.017640 -0.085912 0.181987 0.094748 -0.297525 -0.014077 -0.295305 0.252813 0.023224 -0.250341 -0.055081 0.053460 -0.104396 -0.170591 -0.187426 0.390172 0.028255 0.032963 -0.136727 -0.660044 -0.091117 0.730792 -0.194848 0.287491 -0.102642 0.092399 -0.153397 -0.116167 0.071636 0.378429 -0.354810 0.106708 0.236117 0.007523 0.193785 -0.309552 0.159964 0.065243 0.016161 0.086771 0.321416 0.391201 -0.609345 0.185194 -0.056767 0.276629 -0.007526 0.043209 -0.115028 -0.055375 -0.270983 -0.442107 -0.262272 -0.111941 -0.359740 0.038536 -0.239167 -0.042282 -0.410518 0.051009 0.249857 -0.011041 0.055479 0.155714 -0.071368 0.109763 0.294147 0.036557 -0.058747 0.341610 0.293497 -0.151470 0.657768 -0.274636 -0.079306 -0.264318 -0.080040 0.267250 -0.330156 -0.165520 0.172414 0.051264 0.087606 0.439857 0.252097 0.083312 0.552352 -0.545177 0.102305 0.247936 0.333719 -0.220631 0.449434 0.026562 -0.453567 0.326109 0.034814 -0.115934 -0.110786 0.079196 0.140706 -0.091863 0.172924 0.033203 0.078293 0.081753 -0.479151 -0.056354 0.710611 -0.245759 -0.172810 0.501252 0.360259
2172 0.064576 0.027607 -0.054422 -0.631911 -0.448833 0.428602 -0.437133 0.015955 -0.243302 -0.269794 -0.155835 -0.037628 0.505232 -0.495833 0.164666 0.009246 0.135423 -0.146218 -0.035399 0.191634 -0.144408 -0.100658 -0.169040 0.142824 0.433852 -0.224568 0.108241 0.313440 -0.161013 0.266608 0.075713 0.098658 -0.301882 -0.237251 0.169407 -0.339152 -0.198062 -0.017419 -0.010568 -0.418194 -0.417397 0.248616 -0.009306 -0.199062 0.544078 -0.350660 0.322748 -0.048061 -0.144048 -0.270608 -0.355056 -0.342088 -0.067831 0.425320 -0.176811 -0.152938 0.068162 0.248804 0.409370 0.657622 -0.273861 -0.155040 -0.257066 -0.114932 0.063102 -0.420425 0.158350 0.120201 0.357921 0.301114 -0.059613 -0.844604 0.160777 -0.072303 -0.043939 -0.000373 -0.060318 -0.141533 0.019396 0.281010 0.604818 0.194884 -0.294987 0.129461 -0.310683 -0.003728 -0.166370 0.078966 -0.092921 -0.383450 0.131617 -0.199203 0.465848 -0.484170 0.345046 -0.267779 0.324587 0.390286 -0.594567 0.150855 0.042697 -0.126900 -0.073729 -0.059416 0.328279 -0.164000 0.083484 0.781761 -0.199748 -0.144272 0.150231 -0.493483 0.306208 -0.200706 0.120933 -0.162836 -0.179182 0.132708 0.010021 0.605518 -0.011270 0.112618 -0.320729 -0.349786 0.031264 0.587654 -0.433567 0.302023
261 -0.076418 0.268130 0.076129 -0.130140 0.353134 -0.126921 -0.405873 0.114118 0.262821 -0.081467 -0.093289 0.054642 -0.036146 -0.282700 -0.298192 0.087700 0.137197 -0.394689 -0.130708 0.406609 -0.594577 -0.399702 -0.007395 0.120324 -0.512675 -0.334609 0.107550 -0.569748 -0.174749 -0.151251 0.218269 0.086661 -0.223939 0.104700 -0.106992 0.190388 0.024258 0.311962 -0.255667 0.053668 0.346251 -0.018900 0.094569 0.219683 0.030241 0.050182 0.321304 0.091480 -0.030163 -0.340764 -0.141886 0.323855 -0.487546 0.281194 -0.402837 -0.096380 0.092497 0.135838 -0.341653 0.491270 0.005527 0.017887 -0.128258 -0.352979 0.182873 -0.078280 0.054613 -0.013962 0.428244 0.433565 0.391366 0.121324 0.046942 -0.207052 -0.236417 0.116918 -0.175017 0.081207 -0.016193 0.330141 -0.159854 0.127260 -0.092365 -0.054720 0.074101 0.491052 0.099659 0.056488 -0.333754 -0.141905 -0.187440 -0.083323 -0.077364 0.069162 0.022167 -0.008374 0.172980 0.181402 0.049956 0.229582 0.009751 0.042303 0.268632 0.255443 0.076941 0.155147 -0.004046 0.086037 -0.175963 -0.113040 -0.133957 -0.043538 -0.041743 0.123240 -0.086813 0.185056 -0.124103 0.159574 0.407251 0.133894 0.032773 0.078057 -0.230051 0.051511 -0.273820 0.097264 -0.193653 0.281365
2451 0.211630 -0.263013 -0.393242 -0.128328 0.061363 0.172216 0.417082 0.145439 0.115423 0.108303 -0.284880 -0.697995 -0.740176 -0.017545 0.594632 0.578855 0.106148 -0.298574 -0.189150 -0.390174 -0.191765 -0.116174 0.220056 0.226101 0.221899 -0.120301 0.341971 -0.167148 0.176738 0.319025 0.526581 0.203612 -0.242132 -0.089525 -0.102217 0.033252 -0.485869 0.192226 -0.119058 0.344857 0.113064 -0.433640 -0.294302 0.143067 0.060257 0.080283 0.117258 -0.197113 0.379523 -0.204148 0.398463 -0.315235 0.359841 0.574434 -0.265257 -0.101403 -0.036486 -0.037549 0.055473 0.340759 -0.035763 0.439029 -0.319359 -0.021987 -0.167366 0.669690 0.171867 0.650787 -0.109841 -0.059757 0.000924 0.371163 -0.304112 -0.105724 -0.052644 0.177542 -0.182087 -0.155907 0.478678 -0.432596 0.680468 0.252323 0.407868 -0.268512 0.460543 0.305788 0.078175 -0.256928 0.355441 0.452977 0.539301 -0.207672 0.290656 0.044597 0.151196 0.264430 -0.487110 0.507776 0.175876 0.329253 -0.147548 0.043468 0.560446 -0.204749 0.306658 -0.374973 0.331633 0.056786 -0.097969 0.300343 -0.278524 -0.005947 0.259391 0.270186 0.528135 0.318623 0.291111 0.060130 0.454141 0.112949 0.232810 -0.024316 0.656572 0.351932 -0.448115 0.233974 -0.217232 0.205293
3146 -0.185184 0.015310 0.029405 -0.254561 0.124718 0.305436 0.002244 -0.080544 -0.186338 0.249261 -0.175969 0.415662 0.136114 -0.037674 -0.111319 -0.016730 -0.052919 0.063102 -0.201401 -0.015615 0.117543 0.164755 0.022668 0.175455 -0.106041 -0.189394 -0.121002 -0.352365 -0.048722 0.320702 -0.325464 0.127236 -0.225735 0.215189 0.042515 -0.060019 -0.369040 -0.360612 -0.071336 0.094121 -0.067995 0.054990 0.220372 0.423054 0.161314 -0.256330 -0.099002 -0.338464 -0.139235 -0.291784 0.211955 0.083582 0.072167 -0.011964 -0.422234 -0.117551 -0.240323 0.215973 -0.215718 0.210451 -0.041344 0.099442 0.058626 -0.042557 0.154624 0.128624 -0.188165 0.036717 0.248693 -0.000235 0.220689 0.086537 -0.109857 -0.497184 0.149170 0.126961 0.066993 0.243955 -0.090235 -0.072694 0.406922 -0.297239 0.072606 -0.070814 -0.259174 0.445983 -0.090732 -0.352838 -0.096450 0.120383 -0.322421 -0.028282 0.052371 0.085316 0.426402 0.232419 0.172295 0.349106 0.315916 0.254552 -0.529643 0.341830 -0.024030 0.205353 0.135619 0.219421 -0.212605 -0.265329 0.072581 -0.097026 0.017545 0.006901 0.063499 0.145992 -0.308016 -0.332563 0.038481 0.012412 -0.097293 0.164057 -0.026009 0.241307 -0.007056 -0.432077 0.129476 0.184682 -0.129382 0.056759
2376 0.583580 0.698663 -0.001898 -0.159660 -0.237454 -0.033225 0.182149 -0.049367 0.433235 0.075705 0.309173 -0.202732 -0.100048 0.003601 0.395613 -0.348170 0.434506 0.303395 -0.113385 -0.122384 0.086874 -0.107637 -0.190049 0.175107 -0.735984 0.035821 -0.182024 0.362931 -0.122223 0.374087 0.117208 -0.169063 -0.224243 -0.048464 -0.124468 0.186936 -0.231613 0.219279 0.007507 0.037701 0.086299 -0.199334 -0.119741 0.006321 -0.521257 -0.324333 -0.143561 -0.652827 -0.226352 0.007712 0.211831 0.131735 -0.187087 -0.475315 0.302263 -0.119318 -0.150539 0.279460 -0.151479 0.451934 0.003630 0.080881 0.673618 0.794031 -0.019799 0.584743 -0.102858 0.142786 0.169097 -0.182002 0.579690 0.420133 0.252985 -0.255741 -0.014380 -0.421407 -0.033952 -0.085201 -0.156591 -0.222754 0.379437 0.000866 -0.754404 0.189452 -0.458907 0.181831 -0.090965 0.160391 0.137009 0.535930 -0.103434 -0.024531 0.064252 -0.355521 -0.208017 0.097253 -0.004899 0.388388 0.258804 -0.285756 -0.102586 0.520959 0.158421 0.373015 -0.227196 0.133014 0.201088 -0.032403 0.181465 0.089477 -0.314428 0.457570 0.128773 -0.113051 0.069486 -0.102433 -0.142472 0.156415 0.626493 0.059849 0.007617 -0.156004 -0.130034 -0.100322 0.090902 -0.190215 -0.018615 -0.149890
2716 0.206843 0.164260 -0.474924 -0.218008 0.648649 -0.500928 -0.242602 -0.228772 -0.020436 -0.639475 -0.969851 -0.444909 0.366153 0.101568 0.182913 0.302174 -0.410458 0.717604 -0.218544 -0.330818 0.260747 -0.490257 -0.273235 -0.270246 0.056645 -0.102460 -0.167690 -0.303835 0.101458 -0.226507 0.212736 -0.347682 0.116202 0.134775 0.143896 -0.120678 -0.076752 -0.184690 0.128501 0.119367 0.154622 -0.163928 0.259914 -0.507883 0.187709 0.018187 0.159103 0.093707 -0.104789 0.237621 -0.320903 -0.192241 -0.023610 0.155310 -0.372925 0.327286 0.200765 0.159156 -0.157327 -0.640385 -0.590634 0.258158 -0.260659 -0.228791 0.102552 0.510038 -0.170315 -0.777846 0.329584 -0.212896 -0.184089 0.539825 0.116268 -0.294784 -0.429046 -0.202960 -0.312156 -0.393626 -0.228623 -0.105040 0.253355 -0.283783 -0.720470 -0.183518 0.040291 -0.031796 0.083958 0.348023 -0.109188 0.102087 -0.067502 -0.485719 0.233896 -0.448171 -0.221985 -0.255597 0.358715 -0.044590 -0.080401 0.472108 -0.041419 0.345798 -0.305619 -0.297413 0.200218 0.671862 0.110671 -0.162480 0.164027 0.028350 0.139207 -0.128556 0.086364 0.319899 0.278671 -0.030975 -0.266792 0.386095 0.393195 -0.335757 -0.179520 0.209126 0.345316 0.512052 0.086021 -0.036050 0.020210 -0.129688
87 0.496147 -0.231168 -0.550839 0.300820 0.122636 0.192902 0.198914 -0.046544 0.250199 -0.361497 -0.105708 -0.070734 0.294834 0.381314 0.497807 -0.226576 -0.003334 0.530833 0.108738 -0.506515 -0.860515 -0.179254 0.156336 0.141401 -0.060575 -0.149723 0.314406 -0.166561 0.129502 -0.539843 -0.382961 -0.468739 0.184851 -0.577237 0.347027 0.243308 0.108993 -0.399265 -0.330594 0.384182 0.250910 -0.293665 -0.600369 0.030521 0.068882 0.599775 0.389762 -1.140754 0.139493 -0.090020 0.042159 0.481588 0.179441 0.199188 0.090254 0.549283 -0.138971 -0.073648 -0.203374 0.552675 -0.036542 0.313597 0.365038 0.207632 0.265897 -0.150209 0.184301 -0.077254 -0.350366 0.083242 -0.189504 0.001787 -0.449369 0.278210 -0.082641 -0.116937 -0.113194 -0.360966 -0.167913 0.047739 0.286414 0.432518 0.085953 0.103142 0.007804 0.060149 -0.144121 -0.037515 0.212922 -0.065547 -0.225271 -0.380325 0.216369 0.008234 -0.133764 0.159955 0.177702 -0.286062 0.054076 0.050318 -0.260196 0.110650 -0.029048 0.104216 0.093687 -0.379186 0.131083 0.153986 0.263922 0.249435 0.320724 0.326303 -0.018685 -0.006519 -0.002901 0.292417 -0.210342 0.506601 -0.169533 0.586736 -0.876940 -0.108947 0.457825 -0.243388 -0.137990 0.010992 -0.081339 -0.590789
275 -0.789103 0.094425 -0.601807 -0.551517 0.503650 -0.551459 0.467288 0.560160 0.420757 -0.160752 -0.019485 -0.328484 -0.721736 0.561251 -0.612076 -0.505574 -0.190413 0.431143 -0.352248 0.133535 0.754686 0.040773 0.156112 0.294335 -0.580317 0.551397 0.653703 0.449327 0.068403 0.254889 -0.257626 -0.611772 -1.257561 -0.829262 0.433015 0.529069 -0.142310 0.430943 -0.807006 -0.776333 -0.573087 0.350863 -0.054650 -0.653118 -0.433969 0.009219 -0.208806 -0.529279 -0.320267 -0.890319 -0.230609 -0.143092 -0.040853 0.516431 -0.463779 0.321734 0.445397 0.512256 1.823380 0.069297 -0.704537 0.166225 0.169705 -0.153521 0.180339 0.285129 1.312477 0.152607 0.177874 0.703387 0.329624 -0.038140 -0.405520 -0.248070 0.164065 1.141691 0.101768 -0.403608 -0.202008 0.195150 0.045533 -0.013874 -0.447632 0.198295 0.539264 0.572706 -0.644232 0.872224 0.429659 -0.013945 -0.435497 0.837079 -0.354854 -0.011037 -0.312806 -0.224957 0.496653 -0.225094 -0.454107 -0.025318 0.262771 0.992216 -0.391664 0.043737 -0.356337 -0.015076 0.364634 -0.582087 0.014808 -0.222063 0.288919 -0.202326 -0.296727 0.831141 0.519526 -0.084610 -0.609508 0.328963 -0.422054 0.739931 0.367149 0.338321 0.268997 -0.130697 -0.469125 0.040777 0.096164 -0.366546
3087 0.294073 -0.248584 -0.238169 -0.440192 0.038554 0.085500 -0.369922 0.229588 0.329017 -0.067725 -0.286908 -0.114590 0.135139 0.028483 -0.078955 -0.073780 0.258235 0.124008 0.084139 -0.015337 -0.128847 0.038980 -0.006616 0.259362 -0.000216 -0.138558 -0.132049 -0.069690 0.297074 0.311417 -0.024742 -0.136651 0.047524 -0.022982 0.085493 -0.232010 -0.355194 -0.021644 0.036107 -0.117633 -0.555075 0.267977 -0.108636 0.099621 0.072728 -0.371200 -0.363371 -0.127006 -0.319017 0.021913 0.462342 -0.085233 -0.000275 -0.179088 -0.594828 0.223979 -0.358820 -0.309046 -0.077317 0.141202 0.079282 -0.206576 0.133164 -0.169826 0.019873 -0.380967 0.286554 -0.440033 -0.151941 0.288393 -0.044975 0.019584 0.061361 0.095210 0.089550 0.116409 -0.016610 0.385648 0.110640 0.060060 -0.239838 0.303201 -0.296964 0.067137 -0.044105 0.216844 0.053925 -0.615619 -0.437098 -0.078010 -0.257970 0.029466 0.361735 -0.227407 0.205157 -0.157141 0.059440 0.139023 0.001770 0.034644 0.000478 0.048481 0.316021 0.278776 0.105921 -0.210765 -0.305269 0.122563 0.021552 0.012060 -0.240361 -0.277819 0.025874 -0.122074 0.213410 -0.215638 -0.335441 0.342879 -0.073505 0.044123 0.088235 -0.197544 -0.000589 0.133682 -0.011740 0.143132 -0.270905 0.182713
1855 0.151911 -0.156163 0.207014 0.336427 0.430989 -0.172912 0.634602 0.358948 0.058026 0.148178 -0.838535 -0.376572 0.153321 0.475097 0.183453 0.049193 0.440621 0.416191 0.000753 -0.574940 0.154942 -0.418553 -0.008657 0.064011 0.042208 -0.103848 -0.251911 -0.328573 -0.614219 -0.462612 -0.102022 -0.343548 0.391102 0.124984 0.007659 0.393621 -0.013612 -0.761796 0.018870 -0.207330 0.146571 0.065459 -0.131322 -0.098927 0.119369 0.685292 0.119463 -0.037195 -0.285755 -0.063644 0.047420 -0.687310 -0.804932 -0.482749 0.222797 0.321596 0.228241 0.369237 0.318229 0.327744 -0.097266 0.147325 -0.002324 0.114470 -0.108100 0.075942 -0.685113 0.303914 -0.173841 -0.010718 0.388924 -0.269055 -0.094042 -0.116844 0.472257 -0.028289 -0.559767 -0.010156 -0.573567 -0.216161 0.953145 -0.430804 -0.038142 -0.184577 -0.436548 0.524142 -0.026385 -0.048937 -0.136959 -0.236006 0.568122 -0.094074 -0.129790 -0.330255 -0.019759 0.360408 0.508683 -0.295681 -0.067505 0.052965 0.232113 -0.111284 0.332975 0.742278 0.004898 0.368638 0.353554 -0.039136 0.311488 -0.120366 0.187303 -0.102816 -0.417268 0.255264 -0.555143 -0.239865 -0.351435 0.166809 -0.509236 0.038570 -0.482290 -0.551395 -0.118650 0.471591 -0.584987 -0.301679 -0.595719 0.869405
3417 -0.297720 0.393027 -0.022804 -0.542685 0.373473 0.431485 0.109376 -0.468374 0.410493 -0.315383 -0.290567 -0.018321 0.043713 -0.058500 -0.104257 0.191868 -0.064069 0.258711 0.013968 0.136376 -0.048820 -0.013209 0.436745 0.189926 0.071706 -0.109580 0.040651 -0.514771 -0.321406 0.125242 0.210281 -0.437612 -0.125130 0.135466 -0.324504 0.232538 0.004140 0.115564 0.069836 -0.170465 -0.054439 -0.439588 0.380271 0.266111 0.094864 -0.094976 0.662966 0.370233 0.251709 -0.392874 -0.353103 -0.242544 0.037920 0.425907 -0.374935 0.340218 0.315429 0.295002 -0.143247 -0.072304 -0.180256 -0.078051 -0.294256 -0.564342 -0.253743 0.334914 -0.011360 -0.157971 0.229535 -0.397276 0.178272 0.349956 -0.017672 -0.220546 -0.255064 0.061336 -0.208798 -0.408175 -0.093465 0.390092 -0.426396 0.248681 -0.687755 0.066875 0.250684 -0.215750 0.197903 0.354137 -0.464275 0.205283 -0.156327 -0.446903 -0.025580 0.213671 -0.092074 0.092899 0.219575 -0.223699 0.206630 0.073708 0.151773 0.079584 0.369081 0.186592 -0.056301 0.492209 -0.091296 0.002588 0.097906 -0.500806 0.554093 0.087432 0.238504 0.007201 0.078654 -0.067513 -0.183991 -0.069948 0.436429 0.125281 -0.289824 -0.214978 0.098156 0.468985 0.168879 -0.307269 0.194113 -0.025604
1740 -0.280755 -0.116146 -0.041500 -0.211667 0.206867 0.232965 0.287868 0.089022 -0.265818 0.400090 -0.351208 0.237559 0.029050 -0.072393 0.452205 0.243558 0.061301 0.231113 -0.023632 -0.097541 -0.121729 0.175454 -0.045545 0.193070 -0.509504 -0.330241 -0.077796 -0.089322 -0.124163 -0.151983 -0.425407 0.259438 -0.157076 0.139816 -0.007408 -0.185551 0.025503 0.013702 -0.197618 0.097282 -0.251529 0.360771 -0.174061 0.213564 0.181872 0.071721 -0.218612 0.083228 -0.126754 -0.179849 0.269448 0.287355 0.161212 -0.017628 -0.109857 -0.279177 -0.114863 -0.074339 -0.185360 0.449426 -0.190013 0.118037 -0.211599 0.149563 -0.281150 0.187067 0.169933 -0.390416 0.485592 0.042432 0.476842 0.249204 0.005168 -0.235753 -0.243470 -0.011201 -0.269759 0.107121 0.063435 -0.111096 0.253670 -0.055429 0.053699 0.122090 -0.008588 0.376913 -0.216906 -0.271382 -0.109829 -0.161010 -0.039785 -0.184483 0.000549 -0.241792 0.190570 -0.143420 0.109252 0.208095 0.004569 -0.105289 -0.492288 -0.069208 -0.004002 0.387610 -0.485783 0.260300 -0.134784 -0.118508 0.189955 0.031434 -0.244678 -0.004807 0.191109 -0.059110 -0.286355 0.063788 0.500579 0.397413 -0.284890 -0.212113 0.201146 0.179113 0.073042 -0.397886 0.374522 0.217923 0.481724 0.489832
2366 -0.043591 0.118984 0.197087 0.116132 -0.113883 -0.063099 -0.394308 0.288942 0.953324 -0.174217 -0.504935 -0.211971 0.439454 0.133855 0.122187 0.026774 0.104299 0.079759 -0.232420 0.147025 -0.154001 -0.242105 -0.059185 0.653416 -0.059711 -0.031205 -0.307645 0.005640 -0.175190 0.227182 -0.139925 0.404884 -0.109520 0.072997 0.037251 -0.489807 -0.293623 0.061590 0.064858 -0.425688 -0.023549 -0.053515 0.130535 0.245362 0.070890 -0.283788 0.153822 0.115036 -0.092213 -0.268606 -0.076745 0.018547 0.048854 -0.026221 -0.076294 -0.135037 0.183797 0.088528 -0.037258 0.066359 -0.037980 -0.110368 -0.222690 -0.080153 0.368779 -0.495254 0.174941 -0.139600 0.276257 0.021878 -0.173720 -0.206805 -0.214143 -0.189037 0.357446 0.292468 0.331079 0.084054 0.035405 -0.119197 0.345189 0.190075 0.164449 0.137242 0.092535 0.008670 0.008267 -0.153891 -0.208511 0.047322 -0.351717 -0.242927 0.141277 0.108495 0.204969 0.057870 0.053377 0.089174 -0.011440 0.074399 -0.408745 0.016188 0.025414 0.041380 -0.287609 0.087000 -0.046974 -0.128198 -0.046845 -0.132821 -0.152671 -0.540318 0.034797 -0.234949 -0.000884 -0.199773 0.062728 0.090946 0.037501 -0.112056 0.186756 -0.095603 -0.489224 0.042974 -0.142720 0.269622 -0.099706 0.386579
406 0.188107 0.553990 -0.213849 -0.052792 -0.044894 0.026714 0.618430 -0.353731 -0.277891 0.468748 -0.398974 -0.372329 -0.046062 -0.077266 -0.690870 0.358365 0.256237 -0.193343 -0.072825 0.348464 -0.689493 -0.492829 0.293548 -0.448247 0.097534 0.194731 0.086207 0.054382 -0.465180 -0.530416 0.034859 0.004272 0.374419 -0.937242 0.624039 -0.929075 0.353619 -0.086969 -0.391459 0.235532 0.553741 -0.321184 0.430013 0.325776 0.245093 0.784449 0.097645 -0.497015 -0.577925 0.299966 -0.143510 -0.357217 -0.042729 -0.460178 -0.466673 0.070155 -1.060161 0.036426 -0.418800 0.160627 -0.177798 -0.124893 0.775368 0.770328 0.313497 -0.160431 -0.047808 -0.252250 0.180830 -0.375313 -0.126604 -0.032215 -0.207915 0.836060 0.181322 -0.724650 -0.022655 0.120756 -0.089868 -0.327969 0.165754 0.655706 -0.287118 -0.203343 0.490486 -0.061785 0.211195 -0.323074 0.179191 0.048875 -0.477427 0.392814 -0.116802 0.493665 0.457766 -0.082215 0.075884 -0.052461 0.909183 -0.051138 0.304689 -0.216348 -0.159504 0.286157 -0.236204 0.385750 -0.669508 -0.034448 -0.136631 -0.654071 -0.457443 0.173080 0.668074 0.430476 0.294774 0.319534 -0.148322 0.757166 -0.182361 0.177184 -0.466841 -0.139946 0.277981 -0.152067 0.270383 -0.425201 0.065153 0.331740
3597 0.071817 -0.048862 -0.123314 -0.332604 0.265200 0.182208 -0.058714 -0.104793 -0.451562 0.189390 0.008455 0.448066 -0.252731 -0.000077 0.128174 -0.005102 0.135474 0.022555 0.001403 0.225083 -0.257952 0.357629 -0.029552 0.256073 -0.129110 0.086874 0.061661 -0.236084 -0.204310 -0.061088 0.063352 0.288817 0.340761 0.190903 -0.052665 -0.366376 0.037651 -0.097376 0.023303 0.138431 0.305351 0.177267 -0.191854 -0.053732 0.085221 -0.222795 -0.021486 -0.141779 -0.106393 0.063386 0.327276 0.032868 -0.452233 -0.027511 -0.483579 -0.042893 -0.021926 0.037471 0.073063 0.657055 0.004960 -0.219098 -0.171344 0.006419 -0.042556 -0.056068 0.058530 -0.070743 0.574045 -0.022958 0.351963 0.142769 0.129587 -0.161443 -0.162206 -0.070791 -0.300930 0.128508 0.178775 0.215740 0.204114 0.018845 0.106951 -0.149665 -0.111346 0.056233 0.033625 0.106957 -0.314518 0.110834 -0.057749 -0.152652 0.096394 -0.074448 0.259809 -0.097100 0.140419 0.257041 0.162001 0.155908 -0.218039 -0.031975 -0.066277 0.351585 -0.027807 0.455672 -0.292080 -0.135874 0.052909 -0.059183 -0.298463 -0.111650 0.220144 0.058622 -0.173491 -0.068772 -0.020318 0.261564 -0.079306 0.196451 0.618905 0.089903 0.499721 -0.402722 0.280890 0.366484 -0.228744 0.330705
3152 -0.251931 0.759874 0.066717 0.056246 -0.037078 -0.272869 -0.314646 0.246186 -0.326294 -1.054921 -0.590921 -0.007631 0.048217 -0.071746 -0.338140 0.588237 0.347092 -0.030103 -0.321675 -0.542000 -0.422139 0.427187 -0.411176 0.350119 0.559152 0.240012 -0.214337 -0.929959 -0.491653 -0.058138 0.152551 -1.148039 0.255648 -0.608680 -0.407211 -0.444607 0.108933 0.655048 0.665563 -0.008657 0.149661 0.123763 -0.016335 0.142323 0.221475 -0.159096 -0.011274 0.643278 0.446343 -0.250090 -0.373898 -0.025051 -0.127515 0.590811 -0.409740 0.371112 0.315554 0.108561 0.130154 -0.437387 -0.137434 0.281856 -0.051224 -0.584919 0.424962 -0.243336 -0.150197 -0.541395 -0.605540 -0.346069 -0.328418 0.015394 0.277947 0.135991 0.399278 0.042453 -0.425080 -0.259860 0.562557 0.164127 0.153355 0.108144 -0.592180 0.890225 -0.165410 1.045109 1.019754 0.042892 -0.313874 0.266139 0.620052 -0.371917 0.235369 -0.506467 0.766116 0.023056 -0.452552 -0.104494 0.446152 0.018299 0.251085 0.619687 -1.026480 0.191738 -0.528103 0.352988 -0.087267 -0.560877 -0.127581 -0.663706 0.609249 -0.035301 -0.225384 -0.003745 -0.339204 0.409392 0.186832 0.323400 0.131542 -0.208015 0.409222 0.630710 -0.198326 0.388480 -0.110216 0.028587 0.236519 -0.638092
1142 0.267012 -0.082816 -0.381175 0.105635 -0.276499 0.706657 0.156170 0.037009 0.064307 -0.394520 0.557808 -0.890152 0.400974 1.058537 0.185727 -0.207297 -0.030297 0.067274 0.186589 -0.483661 -0.296267 -0.672651 0.035372 0.317150 0.104896 -0.063922 0.400687 0.059382 -0.220514 -0.220609 -0.436316 -0.659367 -0.015800 -0.606270 0.136361 0.107389 -0.081992 -0.856435 -0.130150 0.048592 0.118402 0.357206 -0.579634 0.065727 0.056055 0.750438 -0.264092 -0.925285 0.212591 -0.212510 -0.247520 -0.299360 0.138076 -0.092430 0.273006 0.200712 0.155725 -0.055881 -0.345391 0.878413 -0.197568 -0.108885 0.501063 -0.151050 -0.133076 -0.229226 -0.378016 -0.083580 0.361412 -0.136790 0.048771 -0.252989 -0.693922 -0.382556 -0.289658 0.228804 -0.093465 0.099586 0.275507 0.039810 0.217866 0.263533 -0.037246 -0.034751 0.069752 0.005907 0.136089 -0.126379 0.054771 0.158571 -0.452434 -0.577146 0.186935 0.131600 0.016034 -0.215980 0.129458 0.042001 -0.126637 0.698954 0.476710 0.234060 -0.065504 0.041180 -0.176262 -0.277098 -0.025373 0.099545 0.197767 0.375971 0.293378 0.333773 -0.415783 -0.115888 -0.270128 0.094377 0.517665 0.058537 0.078401 0.428617 -1.070145 -0.263141 0.030615 -0.202692 -0.425393 -0.192180 0.301734 -0.298185
2629 -0.005115 -0.233338 0.003103 0.088539 0.060893 0.264301 -0.073671 -0.010006 0.091812 0.079729 -0.334218 -0.420124 -0.292646 -0.117517 -0.300505 0.201485 0.131595 0.271056 -0.097926 -0.196757 -0.254963 -0.273268 -0.324480 0.369951 -0.597372 0.258249 0.289574 -0.152943 0.161941 0.230384 0.089461 0.041740 -0.665503 0.135777 0.172406 0.017286 0.366299 0.271906 0.105554 0.106042 -0.039969 0.079423 0.174235 -0.056531 0.204303 0.315118 0.597062 -0.028164 0.159170 0.318466 0.820690 -0.000581 0.051534 0.107657 0.122840 -0.104917 -0.218047 -0.312867 -0.205957 -0.171211 0.082143 0.211284 0.131751 0.127654 -0.149962 -0.065042 0.076540 0.155352 0.460646 -0.201260 -0.280002 0.250658 -0.217635 0.044507 -0.298151 0.425954 -0.156711 -0.335524 -0.266678 -0.396712 -0.181568 0.399057 0.325460 0.315236 0.362337 0.130474 -0.077895 -0.151859 0.606461 0.209035 -0.093605 -0.252931 0.005956 -0.062662 -0.134220 0.307259 -0.360111 -0.051944 0.133773 0.684158 -0.616125 0.006019 0.040949 -0.099840 0.237214 -0.125695 0.179561 0.154364 -0.062575 0.254120 0.222427 -0.137969 0.188221 0.203651 0.037235 -0.266462 0.179748 0.030380 0.210264 0.111257 0.125623 0.166942 0.377225 -0.108117 -0.008283 0.136207 -0.448187 -0.026713
3142 -0.054119 -0.153473 -0.857815 -0.466129 0.208962 -0.176281 0.390722 -0.108111 -0.263178 -0.002615 0.168576 -0.350572 -0.050028 -0.430512 -0.036267 0.246231 0.004110 0.427936 -0.439133 -0.471229 -0.058490 -0.290495 0.165511 -0.008560 -0.223641 -0.005900 0.148544 -0.026312 0.148348 -0.319069 -0.034054 -0.319585 -0.353623 -0.146094 -0.085846 -0.208428 -0.320995 -0.109682 0.552692 -0.540397 0.005835 -0.279331 0.355664 0.066222 -0.402450 0.345273 -0.202885 -0.350389 0.504868 0.199467 -0.130586 0.286252 -0.276768 -0.230410 0.257364 -0.377178 -0.194880 -0.167932 -0.025316 0.020769 -0.103818 -0.174203 0.325509 0.139178 0.150239 0.231134 -0.029007 0.208348 -0.193896 -0.134175 0.446481 0.654319 0.520194 -0.304182 0.576664 -0.228345 -0.211833 0.178140 -0.194241 -0.610365 -0.047268 -0.227140 0.087853 -0.156043 0.239489 -0.184200 -0.293119 0.097030 0.654001 0.263669 0.372400 -0.332754 0.635132 -0.133368 0.483482 -0.259238 -0.028377 0.322149 -0.070813 -0.142319 -0.244258 0.155237 0.036632 -0.095762 -0.132237 -0.061774 -0.032491 0.046024 -0.240439 -0.059404 -0.079192 0.063482 0.221797 -0.405688 -0.688939 -0.275810 0.420912 0.521106 0.644259 -0.025962 -0.100879 -0.315727 -0.021000 0.174330 0.264495 -0.019537 -0.032013 -0.273232
3638 -0.359456 -0.228841 -0.267043 0.047219 0.031149 0.292581 -0.396987 -0.122439 -0.274065 0.412172 -0.364718 -0.029858 0.429190 -0.322095 0.069476 0.178365 -0.213661 0.301036 -0.202546 0.532834 -0.095195 0.090689 0.036861 -0.021523 -0.215768 0.165980 -0.048593 0.102336 -0.294599 0.117167 -0.564243 0.195148 0.377611 0.037180 -0.276616 0.153506 -0.301597 -0.219862 0.043672 -0.105444 0.004350 -0.143832 -0.122105 0.047093 -0.106693 -0.182776 0.147713 -0.299957 -0.049259 -0.164129 0.167835 0.096070 -0.140366 0.158396 -0.311229 -0.221578 0.539818 -0.624583 0.115766 -0.062707 -0.301338 0.173820 -0.311117 0.114304 0.220886 -0.102916 0.128259 0.225816 0.387145 0.560435 -0.593141 -0.568867 -0.358593 0.108988 0.169886 -0.212759 -0.156221 0.210683 -0.107970 -0.017903 0.000398 0.197743 -0.277077 -0.214802 0.064775 0.265295 0.173291 0.399870 0.135229 -0.057847 0.596802 -0.017545 0.315280 -0.270240 0.087685 -0.046245 -0.147247 0.681330 -0.162280 0.010693 0.302441 0.056576 -0.111820 0.462690 -0.218199 0.582700 -0.170165 0.577827 0.151827 -0.430498 0.275036 0.214946 0.007000 -0.318402 0.293812 0.312831 -0.101525 -0.285004 -0.053432 0.442277 0.052656 -0.266695 -0.302957 0.210001 0.071158 0.037774 0.023954 0.236359
2714 0.128104 -0.335051 0.035441 0.049302 0.275335 -0.235614 0.129115 0.114864 -0.371077 0.359914 0.148481 0.249147 -0.224285 -0.310104 0.430207 0.116796 0.141541 0.241867 -0.426893 -0.123352 -0.453194 0.288317 -0.227490 0.378376 -0.226519 -0.090225 -0.073536 -0.180037 -0.231355 -0.017068 -0.157825 0.135700 -0.061249 0.106081 -0.183715 -0.257364 -0.292290 -0.079246 -0.381662 0.169442 -0.079606 0.177651 -0.078510 -0.055881 0.068122 0.472661 0.181485 0.415641 -0.184174 -0.326259 0.207038 0.348328 0.043915 -0.211193 -0.158650 0.114229 -0.198143 -0.124184 -0.136051 0.498452 0.060493 0.020665 -0.080414 0.340614 -0.279999 0.182044 0.259899 -0.143577 0.792694 -0.311657 0.442550 0.122614 -0.098632 0.003552 -0.148681 0.105186 -0.086471 0.103839 -0.015585 0.281207 0.157983 -0.152960 0.078955 -0.116768 -0.139503 0.048541 0.003870 -0.249251 0.093065 -0.253696 -0.061314 -0.087420 -0.015738 0.113900 0.021658 -0.332055 -0.337968 -0.079978 0.039227 0.010441 -0.088150 0.190331 -0.027419 0.115370 -0.201289 0.237565 -0.149471 -0.314734 0.190352 -0.220556 -0.211793 -0.134918 0.218842 0.144948 0.043467 0.326294 0.362675 0.212889 -0.347358 -0.119107 0.107737 0.113004 -0.145724 -0.030497 0.030310 0.291264 0.244521 0.116318
1466 0.204013 -0.262509 0.012900 -0.247645 0.197220 0.157308 0.102569 0.183253 -0.246420 0.165107 -0.039530 0.263903 0.180743 -0.195535 0.391009 -0.193488 -0.171044 0.147149 0.039249 0.176700 -0.488667 -0.002484 -0.505007 0.500480 -0.146889 -0.519669 -0.040388 -0.308396 -0.301131 -0.028178 -0.491707 -0.022585 0.295508 0.151225 0.194206 -0.174549 -0.227045 0.020157 -0.348775 0.211687 -0.178656 0.059620 -0.066585 0.053660 -0.028967 -0.004879 -0.123175 0.165683 -0.038917 -0.265481 0.158790 0.226836 0.035648 -0.531575 -0.373457 0.186963 0.037431 0.088216 0.022628 0.077877 0.034951 0.070292 -0.031411 0.403775 -0.108864 0.084099 0.031732 0.130017 0.316804 -0.224900 0.626368 0.076820 0.078573 -0.083796 -0.109508 -0.286170 -0.009015 0.159202 -0.137093 0.297856 0.254081 0.101188 0.127220 -0.012165 -0.014754 0.336427 0.160838 -0.060015 0.037249 -0.261074 0.181941 -0.049756 -0.005427 -0.212947 0.343451 0.035524 -0.221496 -0.049544 0.119463 0.406874 -0.117682 0.329417 0.193444 0.055247 -0.247370 0.121596 0.009348 -0.206844 -0.014958 0.081576 -0.034239 -0.208937 -0.044822 0.279455 -0.164585 -0.091265 0.025539 0.059089 -0.072157 -0.132599 0.009551 -0.323037 -0.132046 -0.272532 -0.019749 0.387064 0.065862 0.314017
926 -0.591083 0.099326 -0.083733 -0.164915 0.043750 0.342086 -0.250213 0.233109 0.011905 0.167518 -0.291135 0.568561 0.224049 -0.085789 -0.169224 -0.042209 -0.180650 0.058439 0.120592 0.409694 -0.149043 -0.034667 -0.016952 -0.065968 -0.232260 0.339166 0.235419 -0.128848 -0.049631 0.226753 -0.179564 -0.451093 0.105272 -0.032459 -0.325604 0.204152 -0.356709 -0.023808 -0.092573 0.506867 -0.069329 -0.164908 -0.046715 -0.229502 -0.213599 -0.011434 0.078841 -0.076171 -0.020187 0.110044 -0.301542 0.547471 -0.180022 -0.149632 -0.495637 -0.258113 0.096975 -0.201316 0.159066 -0.150072 -0.135758 -0.338856 0.173339 0.246128 0.529965 -0.172959 -0.211126 0.316499 0.200667 -0.274196 -0.143390 -0.343783 -0.512247 -0.113498 0.258931 -0.062402 -0.057424 -0.221363 -0.273936 0.102002 -0.215395 -0.303723 -0.170493 -0.394089 -0.209899 0.168586 -0.022950 0.241219 0.294974 0.064559 0.007081 -0.109946 -0.139746 -0.037730 -0.128667 -0.102377 0.113214 0.131877 -0.320048 0.157871 0.019563 0.004156 0.098587 0.329909 -0.038650 0.455956 0.177114 0.454623 0.238007 -0.068217 -0.148499 -0.028767 0.213167 0.086881 0.159859 0.300516 0.107373 -0.116542 0.216995 0.507200 0.117446 -0.138678 0.048639 0.470853 -0.500068 0.170491 -0.047552 0.343357
912 -0.454536 0.089997 -0.118253 -0.174220 0.061456 0.305625 -0.334601 0.156676 0.032446 0.099588 -0.402607 0.517811 0.274036 -0.061408 0.000564 -0.510885 -0.248712 -0.046188 0.233226 0.304132 -0.063554 -0.104505 0.075029 -0.256436 -0.515723 0.078361 0.232910 0.078755 -0.258558 -0.055958 -0.041526 -0.285547 0.038993 -0.361583 -0.406393 0.549742 -0.265579 0.567415 0.096387 0.252138 0.113095 -0.232248 -0.030624 -0.042995 -0.089771 -0.157692 -0.026934 -0.003340 -0.041326 -0.249670 -0.453641 0.565089 0.132705 -0.249102 -0.354423 -0.141552 -0.181306 -0.144030 0.061706 0.211882 -0.232088 0.151944 0.071577 0.345511 0.327271 -0.112046 -0.277518 0.290693 0.014296 -0.375646 0.023660 -0.311410 -0.439748 -0.024974 0.213887 0.295070 0.013756 -0.145551 0.075006 -0.044607 -0.523140 -0.475839 -0.173212 -0.149083 0.098707 -0.324868 0.420490 -0.106397 0.097925 -0.500912 0.058088 -0.220056 -0.074452 -0.070283 0.000941 -0.262589 0.162015 -0.053795 -0.376049 0.105609 0.138005 0.166342 0.484514 0.335648 0.195032 0.291673 0.074455 -0.088609 0.147878 0.095401 -0.237381 0.117884 0.264990 0.460871 -0.037345 0.569166 -0.297423 0.126098 0.245033 0.554675 0.301563 -0.115084 0.016527 0.062948 -0.087667 0.021824 -0.399848 0.393060
3099 0.063818 0.304257 -0.112563 -0.077981 -0.150248 -0.016143 0.340897 0.199295 0.017789 -0.291532 0.926469 -0.018105 0.293676 -0.234751 0.318767 -0.377609 0.200096 0.304756 0.217805 -0.068126 0.098891 -0.124054 -0.365771 -0.681692 -0.592589 0.243259 0.099654 -0.155810 -0.159148 0.447367 0.087286 -0.242436 0.191487 -0.029529 0.005896 0.017211 0.070058 -0.320804 -0.186656 0.109495 0.008103 -0.054621 0.404430 -0.368366 -0.169054 -0.436437 -0.017654 -0.156111 0.014795 0.361447 -0.082240 0.392964 0.316378 0.275258 -0.317904 0.107298 -0.101123 0.118136 0.156059 -0.094733 -0.329217 -0.222849 0.300127 -0.232877 0.104499 0.306115 0.435435 -0.531833 -0.108254 0.040546 0.338443 0.118016 -0.258467 -0.155437 0.143391 -0.005010 -0.483475 -0.052969 -0.109931 -0.633343 0.328951 0.320033 -0.388986 0.420336 -0.291579 0.191482 -0.043479 -0.095119 -0.226901 0.136229 0.121498 0.287207 0.352328 0.146869 -0.142923 -0.003644 -0.359342 -0.033031 -0.168394 -0.272186 -0.540203 0.523500 0.173828 0.406115 -0.135313 0.018975 -0.103625 -0.061089 0.124628 -0.030540 0.031752 0.587105 -0.382014 0.138654 -0.392288 -0.532747 0.382212 0.089091 0.199970 0.000491 -0.188885 -0.556223 0.244213 -0.008327 0.562485 0.173435 -0.041929 0.364571
500 0.354801 -0.183491 -0.251813 0.153927 -0.024772 0.039191 -0.541852 0.147598 -0.131518 -0.477696 -0.139957 0.099592 -0.120440 0.129360 -0.452907 -0.016044 -0.027566 -0.100075 0.036875 0.457592 -0.287093 0.048888 0.292672 -0.197755 -0.008552 -0.011706 0.460978 -0.014552 -0.641741 0.410824 0.009198 -0.122246 -0.138094 -0.141758 -0.100213 0.066836 -0.000463 0.359448 -0.080181 0.211141 0.525898 -0.524457 -0.224589 0.619743 -0.443728 -0.014251 0.363597 0.557443 0.148114 0.341455 0.147240 0.570777 -0.103635 0.285410 -0.157482 -0.151007 0.073555 -0.434979 -0.123985 -0.250658 -0.318835 -0.444106 -0.282011 -0.208099 0.380032 0.258567 0.134168 0.028600 -0.065678 -0.447974 0.254743 -0.353602 -0.522111 0.466562 0.302972 -0.155553 -0.051782 0.277420 -0.181249 -0.008418 -0.099649 -0.316567 -0.374406 -0.008193 0.269569 0.145136 -0.311689 0.793352 0.100330 -0.211049 -0.495074 -0.264730 0.173877 -0.695920 0.305036 -0.229876 0.599328 0.010491 -0.051363 0.014393 0.306050 -0.183512 0.064485 0.207445 -0.586286 -0.094941 0.244258 -0.218679 0.362298 0.236979 -0.224521 -0.006950 -0.518599 -0.066589 -0.115038 -0.148600 0.510312 -0.047439 -0.197043 0.589296 -0.031366 0.666660 -0.051389 0.052571 0.244089 0.218606 -0.292792 0.248191
209 -0.053463 -0.062604 -0.136876 -0.017380 0.146279 0.030107 0.007440 0.104414 -0.296110 0.321796 0.099413 0.302660 0.089819 -0.279302 0.206810 -0.024755 0.106292 0.165233 0.064700 -0.002828 -0.397069 0.292213 -0.136768 0.140507 -0.165648 0.071617 0.072902 -0.309413 -0.360697 -0.137250 -0.107509 0.121251 0.041806 0.101302 -0.159743 -0.189513 -0.135272 -0.283913 -0.231105 0.176244 -0.079453 0.386655 -0.140030 0.087596 -0.023028 0.095922 -0.088321 0.077327 -0.149124 -0.296281 0.131328 0.509143 0.002512 -0.355456 -0.409775 -0.152380 -0.197870 0.074160 -0.207520 0.312512 -0.218745 -0.239912 0.022935 0.196656 -0.043836 0.280437 0.063288 -0.252912 0.584550 -0.193553 0.636508 0.511856 0.026957 -0.134858 -0.297408 0.093338 -0.488369 -0.016895 0.044013 0.068029 0.296809 -0.305543 -0.089118 -0.165851 0.212033 0.238527 -0.224560 -0.179376 0.073993 0.006278 0.054102 -0.110912 0.224150 -0.106770 -0.000244 0.124406 -0.091994 0.006147 0.110317 0.077332 0.075416 -0.034586 -0.158896 0.199518 -0.221517 0.121714 -0.169819 -0.104004 0.015352 -0.193063 -0.094772 0.084673 0.123931 -0.055777 0.002296 -0.049387 0.146921 -0.053683 -0.267329 -0.110134 0.308491 0.091728 0.102998 -0.194255 0.287361 0.287294 0.249197 0.478901
1909 0.068114 0.503007 -0.408711 -0.200506 0.657318 -0.485906 -0.154259 -0.663362 0.423419 -0.497644 -0.589861 -0.225817 -0.007794 -0.084606 0.258849 0.011388 -0.692235 0.435051 0.096722 -0.239726 0.391449 -0.163837 -0.147515 -0.151761 0.148230 -0.181103 0.208407 -0.600121 0.031374 -0.176533 0.019425 -0.551673 0.196589 0.535541 -0.113009 0.162021 0.216759 -0.067445 0.132986 -0.161461 0.527346 0.185889 0.730072 -0.073218 0.443135 0.205086 0.092761 0.096436 -0.234148 0.127680 -0.402876 -0.356530 0.147414 0.346701 -0.358047 0.402687 0.281175 0.135671 -0.406559 -0.639357 -0.416312 -0.066399 0.040135 -0.509708 0.074595 0.178538 0.164381 -0.627864 0.244855 -0.478138 0.253373 0.373546 0.295585 -0.074192 -0.198369 -0.199496 0.015798 -0.785830 -0.214917 0.313403 0.330133 -0.271519 -0.842419 -0.416613 0.394206 -0.250691 -0.215293 0.508418 -0.058550 0.335520 0.026162 -0.654646 0.278024 -0.583511 -0.376969 -0.469305 0.184896 -0.200189 -0.330472 0.246834 -0.209755 0.519474 0.067242 0.213897 0.011818 0.570536 0.061372 -0.217513 0.296380 0.222507 0.185605 -0.616819 0.114541 0.405219 0.311607 0.096893 -0.240870 0.350701 0.160116 -0.249447 -0.065803 -0.360796 0.478988 0.281815 0.101090 -0.329527 0.109891 -0.129027
2700 -0.347466 -0.205139 0.118724 0.261228 -0.014442 0.244702 -0.450377 -0.194747 -0.342090 0.577931 -0.194040 0.241811 0.215543 -0.500482 0.440965 -0.121688 0.148206 -0.103904 -0.263403 0.360512 0.205108 -0.359314 0.274771 0.182119 -0.438285 0.612297 0.571403 -0.146089 -0.411482 0.003507 -0.275737 0.328024 0.165980 0.221655 -0.369937 0.030408 -0.300109 0.058372 -0.160624 0.308541 0.065605 -0.135531 0.023959 0.291968 -0.162561 -0.206546 -0.249542 0.118657 0.005626 -0.004764 0.248550 0.110845 0.047785 0.084111 -0.009503 0.190961 0.390741 -0.033720 0.311265 0.053306 -0.155416 -0.185661 0.061189 -0.436257 -0.142056 -0.033486 0.030972 0.226986 0.211618 -0.281916 -0.320445 -0.257453 -0.015092 0.434125 0.046395 -0.118280 0.097347 0.103565 -0.079786 0.207649 -0.432475 0.100955 -0.328102 0.080920 0.360644 0.382266 0.128889 0.077780 0.109678 -0.039226 0.061657 -0.068771 0.525116 0.092491 0.221195 0.104374 -0.293918 0.065103 0.034827 -0.070375 0.010803 0.007092 -0.177532 0.001052 0.072060 0.279525 0.230437 0.246060 0.164331 0.030373 -0.208470 -0.210296 -0.347158 -0.212631 0.121010 0.248011 -0.032539 0.273689 0.247548 0.321756 -0.572259 0.545564 0.171409 0.350811 0.031147 -0.478590 -0.287319 0.206505
3284 -0.254738 -0.311527 0.288371 -0.191560 -0.464974 -0.674690 -1.000325 -0.495174 0.275994 -0.689371 -0.213056 -0.030603 -0.371842 -0.019699 0.284635 0.079912 0.448161 0.126533 0.006362 -0.008540 -0.005627 -0.106029 -0.567644 0.039106 0.718983 0.005420 0.125711 -0.649249 0.603948 0.145342 -0.456810 0.316447 0.010374 -0.268016 0.467390 0.503715 0.069781 0.048484 -0.664306 0.099504 0.373318 0.128443 -0.044185 -0.893886 -0.383632 0.291927 -0.512468 -0.326577 -0.366865 0.071624 0.484857 -0.432498 0.240291 -0.437759 0.476169 -0.665587 -0.157584 0.307726 -0.711197 0.424256 -0.316894 -0.040046 0.499293 -0.218923 -0.134091 -0.142670 -0.236367 -0.743198 -0.193101 0.093913 0.001931 -0.235178 0.171512 0.736159 0.325258 -0.296248 0.089574 0.182105 -0.385892 0.304746 -0.510928 -0.397622 -0.235812 0.202587 -0.531356 0.544852 -0.158745 -0.202047 0.239797 -0.021315 -0.194484 -0.525755 0.638461 0.225004 -0.252311 0.306534 -0.169427 -0.335067 0.133869 -0.296787 0.457559 -0.056679 -0.204773 -0.154368 0.536483 -0.452467 -0.054257 -0.434256 0.324802 -0.700013 0.101758 -0.133782 0.009274 -0.218449 -0.151663 0.236487 0.598243 -0.043602 -0.055334 0.839764 0.340827 -0.357625 -0.195514 0.002360 0.425882 -0.249920 0.820161 0.315793
2738 -0.623102 0.330186 0.927729 -0.592307 0.045916 -0.392906 -0.308380 0.367526 -0.866682 -0.312461 1.919628 -0.662161 -0.671036 0.568104 0.524416 -0.289911 0.154953 -0.775440 -0.190975 0.483977 -1.006623 -0.456677 -0.222838 0.708653 -0.876683 -0.025280 -0.589934 0.808864 0.990110 -0.668093 -0.503639 0.397856 0.820286 0.489490 -0.098784 -0.781911 0.511305 0.003921 0.418108 0.236224 0.250330 0.614991 -0.415979 0.547437 -0.434434 1.324956 0.616737 -0.962155 0.362012 0.599716 0.964380 -0.764547 0.432750 -0.952638 0.340496 0.368832 -1.127990 1.153592 -0.165996 0.051311 -0.210368 -0.136634 -0.365966 0.563547 1.367448 -0.146522 0.857035 -0.074441 0.290356 -0.239518 -0.080753 -0.057706 -0.061156 0.620930 -0.076299 0.744439 -0.286066 -0.616478 0.017861 -0.615100 -0.531847 -0.112081 -0.059846 0.430635 0.712295 -0.066259 -0.464351 -0.153000 -0.469146 -0.605971 0.116435 0.329801 0.396886 0.534403 -0.798714 0.239257 0.696549 -0.363053 0.069328 0.277786 -0.631043 0.163833 0.416883 0.036035 0.043225 0.419270 -0.086472 -0.375699 -0.386584 0.594407 0.160612 0.165106 -0.645352 0.014610 0.893249 0.292160 -0.770539 -1.234029 0.031956 0.496511 -0.859629 -0.587577 -0.436664 0.183805 -0.776404 -0.415757 -0.170007 -0.165265
3568 -0.639201 0.576128 0.210700 -0.406854 -0.730584 -0.104442 -1.608470 -0.211992 -0.407809 -0.959065 1.044241 -0.709803 -1.677722 0.503132 -0.046851 -0.302408 1.016395 -0.034196 0.002615 0.267081 -1.129760 0.314324 -0.505605 -0.364309 0.654626 -0.495667 0.201316 -0.549722 0.499760 -0.144791 -0.690338 0.434028 -0.123617 0.111351 0.032164 -0.258828 0.100486 0.007689 0.720743 0.317743 0.232757 0.119004 -0.991916 -0.241858 -0.167084 0.148549 -0.833398 -0.154201 0.624003 0.254658 0.809205 0.313723 0.881985 -1.160343 0.759804 0.326286 -0.339202 -0.309234 0.862167 -0.265499 -0.368973 0.010739 0.771002 0.254134 0.822270 -0.114094 -0.155429 -0.091155 0.111169 -0.773948 -1.368397 -0.884172 0.388215 -0.045098 0.096892 1.044006 -0.910661 -0.622248 0.291457 -0.609853 0.186187 -0.504225 -0.345412 -0.550013 0.702490 0.157492 0.396604 -0.569829 -1.289187 -1.010952 0.729784 -0.262800 -0.472760 0.596095 0.187940 0.069592 0.475354 -0.199387 0.427876 0.169139 0.192958 0.971048 -0.094039 -0.138117 0.412967 0.046652 -0.105749 -0.276542 -0.433246 0.027921 0.331039 -0.387131 0.159077 0.758986 0.692625 -0.175433 -0.214256 -0.530847 -0.451206 -0.103789 -0.989489 0.443208 -0.183274 0.732508 -0.474220 -0.476754 0.116913 -0.524425
1344 0.011511 -0.298447 -0.143813 -0.198739 0.077251 -0.237592 -0.161620 0.216415 -0.072516 0.080354 0.162053 0.022361 -0.433457 0.050165 -0.070800 -0.022058 0.062381 0.095751 0.024662 0.404425 -0.761233 0.084250 0.001586 0.504474 -0.464952 0.103882 -0.123550 -0.279072 -0.018327 -0.055822 0.080861 0.083019 0.200738 0.145120 -0.157042 -0.086241 -0.027024 0.098547 -0.323281 -0.086301 0.163289 0.583362 0.218915 -0.242938 0.062253 0.280802 0.097875 0.168034 -0.217237 -0.372442 -0.118051 0.454537 -0.175162 0.305320 -0.394309 -0.067412 -0.175149 -0.257248 -0.040820 0.172715 0.224817 -0.264215 -0.111331 -0.169387 -0.085943 0.224781 0.177182 -0.073961 0.420398 -0.085230 0.392690 -0.100664 0.289520 -0.013728 -0.182015 -0.159069 -0.332870 0.088404 0.078566 0.442547 -0.145344 0.028273 -0.023399 -0.053696 0.208767 -0.110303 -0.256670 0.026551 -0.118699 -0.002054 -0.028192 -0.160319 0.170186 -0.010044 0.404313 0.162536 0.070921 -0.078899 0.002115 0.165899 0.017102 -0.258988 -0.033382 0.045161 -0.093730 0.722330 -0.179649 -0.190942 0.160191 -0.028290 -0.140050 0.075084 0.541234 -0.108530 -0.240691 0.125248 0.071073 0.081784 -0.140604 -0.157777 0.249793 0.072390 -0.073117 -0.111968 -0.041706 -0.002416 -0.146350 0.436976
954 0.092257 -0.098942 -0.612356 -0.181842 -0.079452 0.363126 0.200638 0.246216 -0.219055 -0.582771 0.117494 -0.623488 0.346915 1.314112 0.139440 -0.368295 -0.344590 0.176910 0.223509 -0.049047 -0.309028 0.040214 0.207073 0.015001 0.122442 -0.280098 0.317154 0.174392 0.150839 -0.343349 -0.437922 -0.452494 0.138547 -0.713803 0.053092 0.462727 -0.128565 -0.624414 -0.050891 0.461012 0.589066 0.055812 -0.063437 -0.384650 -0.060513 0.689162 0.093071 -0.722085 0.186425 -0.212941 -0.090003 0.208091 0.390382 0.240254 0.358030 0.404348 0.008150 0.338925 -0.138881 0.762033 -0.064026 -0.039600 0.067228 -0.052287 -0.168023 -0.200683 -0.241415 0.175704 -0.077670 -0.099421 -0.193863 0.018386 -0.501802 0.104410 -0.466888 -0.051401 0.022839 0.251423 0.223961 -0.130980 0.342546 0.105477 0.375486 0.260454 0.355087 0.082390 0.104540 -0.427314 -0.098587 -0.017762 -0.005768 -1.013397 0.680547 0.052196 -0.358943 0.302097 -0.065491 -0.037624 -0.058794 0.382681 0.327457 0.033604 0.029781 -0.257740 -0.170781 -0.211337 0.078867 0.115486 0.168474 0.485625 -0.093877 0.451280 -0.433558 -0.213222 -0.292168 0.256870 0.537259 0.763463 0.223828 0.273730 -0.796557 -0.254743 -0.079905 -0.257781 -0.089613 0.040023 0.339146 -0.256829
3042 0.213661 -0.124934 0.188102 0.040257 0.090526 -0.042803 0.046533 0.004648 -0.189212 0.147481 -0.066436 0.100889 -0.003032 -0.469476 0.030472 -0.467275 0.338950 0.107627 -0.295433 0.328737 -0.745967 -0.163356 0.013949 0.255623 -0.405282 0.002729 0.315358 -0.447260 -0.632834 -0.226738 -0.084412 -0.037315 -0.123633 0.212765 -0.255201 0.165069 -0.179619 -0.105471 -0.197341 0.064379 -0.037237 0.202301 0.055005 0.277479 -0.046668 0.035255 0.047744 0.124178 -0.208518 -0.242247 0.073387 0.301748 0.060569 -0.351768 -0.309533 -0.021956 -0.241252 0.005129 -0.058154 0.263709 -0.010137 0.229093 -0.230071 0.069773 -0.017862 0.350024 0.304562 0.062581 0.478694 0.271673 0.477649 0.058809 0.096251 -0.134547 -0.153643 0.027880 -0.344469 0.073300 -0.210245 0.288176 0.160759 -0.268906 0.299077 -0.283025 -0.058962 0.104047 0.042435 -0.107813 -0.089298 -0.155379 -0.130807 -0.129145 0.155615 0.005584 0.253056 0.290884 0.030054 -0.162271 0.100297 0.408453 0.135764 -0.050367 -0.046136 0.231793 -0.047393 -0.181478 0.064856 -0.255669 0.167524 -0.369068 0.051052 -0.019922 0.130849 0.054337 -0.021164 0.094646 0.142167 -0.234149 -0.230204 -0.015097 0.189867 -0.051437 -0.061522 0.094825 0.046205 0.109762 0.003769 -0.099642
1128 0.178096 -0.311610 0.182291 -0.184003 0.095494 -0.095801 0.173443 0.131560 -0.361506 0.132793 0.084110 0.292550 -0.120351 -0.190852 0.346412 0.181472 0.064836 0.262942 -0.248255 0.194416 -0.596732 0.276052 -0.130057 0.376042 -0.105906 -0.067887 -0.290783 -0.126414 -0.290212 0.090891 -0.122213 0.074147 0.195621 0.130689 -0.160712 -0.070432 -0.286898 -0.245851 -0.229559 0.193153 -0.032279 0.306640 0.171758 0.050246 0.294267 0.108165 0.047570 0.420147 -0.087225 -0.194665 0.228553 0.402714 0.027310 -0.481782 -0.136075 -0.137427 -0.073675 -0.111876 -0.191099 0.377978 0.116973 -0.046363 -0.217699 0.393304 -0.395394 0.193536 0.125383 -0.030316 0.739908 -0.089554 0.350426 0.223473 -0.023617 -0.032623 -0.044459 0.122290 -0.040534 0.017274 0.034179 0.252574 0.164747 0.096976 -0.130923 -0.101421 0.060270 0.139199 -0.158839 -0.068477 0.108152 -0.042450 -0.104534 0.082374 -0.049957 -0.027425 0.118621 -0.240576 -0.355176 -0.189835 -0.005292 0.166395 -0.224148 0.229377 -0.106080 0.112933 -0.121361 0.224733 -0.107195 -0.447764 0.162742 -0.031201 0.056313 0.162451 0.056948 0.254304 0.066422 0.285144 0.461921 0.334672 -0.374862 -0.082444 0.099138 -0.144118 -0.092502 -0.186911 0.128619 0.219679 0.060538 0.174688
150 -0.392104 0.218974 0.138488 -0.197278 -0.136340 0.562626 0.123935 0.217576 -0.089882 0.380973 -0.504765 0.059742 0.091121 0.068627 0.110148 -0.087070 -0.017972 0.056518 0.079161 -0.228048 -0.339805 0.052345 0.385842 -0.118190 0.084345 0.071828 0.101925 -0.170904 -0.147571 0.032299 0.164435 0.059805 -0.125652 0.455133 -0.121912 0.148381 0.189910 0.246756 -0.311059 -0.420412 -0.005749 -0.318386 0.507098 0.328216 0.057617 0.182750 0.128293 0.058239 0.258840 0.241524 -0.287137 0.139898 -0.123152 0.308487 0.104035 0.173116 0.004541 -0.476596 0.088937 0.025846 0.078599 -0.094515 -0.122072 0.234644 0.278651 -0.070518 -0.055432 0.005870 -0.266152 -0.428933 -0.056691 -0.201885 0.017121 -0.254372 -0.193349 0.082130 0.236833 -0.055067 -0.123150 0.091769 -0.217493 0.097225 -0.090288 -0.006326 -0.055047 0.399128 0.074534 0.426111 0.036752 -0.190690 -0.422283 -0.316344 0.157269 -0.148480 -0.295617 -0.011757 -0.658646 0.112617 -0.068093 0.279917 -0.078511 0.236477 -0.293426 0.062328 -0.131876 0.120207 -0.190998 0.254482 0.192473 -0.052934 0.182582 -0.081512 0.065267 0.206380 0.411472 -0.291255 -0.044148 0.356502 0.103368 0.262141 -0.005776 -0.508190 -0.227438 0.860235 -0.240867 0.438438 0.193246 0.087075
