35 24
22 -0.0370587 0.0290438 0.0383729 0.121466 0.0684812 0.105001 -0.0136743 -0.0720089 0.0801131 0.0937357 -0.0975476 -0.0126031 -0.0762328 0.000258101 0.133945 -0.0624171 -0.0383111 -0.0228568 -0.0692172 0.129013 0.0736243 0.0209072 -0.0558399 0.0507668
0 -0.242362 0.0456093 0.165982 0.434162 0.149085 0.310117 -0.0415442 -0.348806 0.241376 0.412347 -0.30194 -0.0824064 -0.260322 0.0465132 0.414102 -0.159462 -0.0638864 -0.132172 -0.281057 0.512438 0.233149 0.035694 -0.109269 0.22466
4 -0.150099 0.0341464 0.0908071 0.20792 0.0670465 0.178604 -0.0242611 -0.203831 0.126939 0.276216 -0.187824 0.0075433 -0.161911 0.03745 0.259621 -0.119564 -0.0344572 -0.114391 -0.182785 0.302517 0.13643 -0.0385232 -0.0969494 0.144958
13 -0.0428072 0.0165746 0.0457457 0.0956212 0.061286 0.104876 -0.0232004 -0.0828154 0.0562839 0.109981 -0.0845741 -0.0129688 -0.0483058 -0.000250069 0.112097 -0.0656864 -0.0131226 -0.0201739 -0.0506458 0.142893 0.0740215 0.0125889 -0.056576 0.0747723
25 -0.127128 -0.00230411 0.0793699 0.171384 0.0705356 0.144853 -0.0197202 -0.190695 0.117313 0.212131 -0.14908 -0.0133691 -0.151844 0.0444797 0.197411 -0.0934141 -0.0349693 -0.0961211 -0.149916 0.278038 0.117399 -0.0254947 -0.0898743 0.104322
32 -0.182008 0.0287254 0.112482 0.290345 0.0920377 0.23421 0.00852924 -0.289658 0.149046 0.37623 -0.237112 0.00336288 -0.23398 0.0623695 0.322894 -0.153351 -0.0706869 -0.167822 -0.287771 0.441234 0.228183 -0.0589826 -0.127835 0.177125
33 -0.263765 0.00283386 0.187454 0.408847 0.132799 0.316858 0.00616811 -0.395605 0.179135 0.481871 -0.32143 -0.00612193 -0.305539 0.102563 0.370384 -0.168021 -0.115145 -0.192144 -0.387847 0.570492 0.281667 -0.0677383 -0.124438 0.269561
21 -0.0466575 0.0159325 0.0510175 0.109124 0.0168221 0.0927053 0.0106807 -0.0969511 0.0536139 0.122895 -0.0769436 0.00793033 -0.0718393 0.0282385 0.0968587 -0.0508281 -0.0378675 -0.0316664 -0.0852681 0.128305 0.0482144 0.00576246 -0.0258863 0.0498086
34 -0.162928 0.0477344 0.0899082 0.366441 0.167809 0.283045 -0.0845238 -0.262111 0.174894 0.347612 -0.29711 0.0133575 -0.217876 0.0642038 0.463963 -0.224042 -0.0974879 -0.192761 -0.230991 0.506304 0.197342 0.0197917 -0.191731 0.232126
7 -0.177012 0.00979939 0.115018 0.28185 0.0935886 0.241062 -0.0153314 -0.28243 0.165958 0.348215 -0.22572 -0.0203161 -0.207633 0.0643884 0.337424 -0.133209 -0.0875045 -0.137737 -0.268179 0.413077 0.211429 -0.0462628 -0.10774 0.211436
17 -0.167525 0.0229314 0.137075 0.328222 0.134257 0.276399 -0.0291811 -0.304316 0.187428 0.352864 -0.242213 -0.0190884 -0.237454 0.0437123 0.367971 -0.156758 -0.0574504 -0.163188 -0.249668 0.448214 0.19523 -0.013883 -0.13263 0.206061
15 -0.0746925 0.0118563 0.057476 0.131707 0.0182491 0.0943769 0.0209938 -0.139092 0.0786875 0.168109 -0.118669 -0.0113502 -0.0971185 0.0166209 0.125615 -0.0771599 -0.0351127 -0.0604961 -0.105921 0.198295 0.0799344 -0.0378892 -0.0592938 0.0726716
12 -0.0373798 0.0022358 0.0150435 0.110998 0.0332735 0.0904588 -0.0202226 -0.0851127 0.0540827 0.0851464 -0.0905848 -0.0158311 -0.0467861 -0.00763495 0.0855305 -0.0395693 -0.0175038 -0.0506081 -0.0457056 0.120974 0.0562963 0.0174679 -0.0291109 0.0439229
5 -0.118994 -0.00830665 0.086947 0.193083 0.0688923 0.14582 -0.0211007 -0.193357 0.121511 0.243217 -0.148272 -0.0113682 -0.12713 0.0497861 0.218284 -0.113425 -0.0620376 -0.114254 -0.179728 0.276376 0.133043 -0.0407522 -0.0687255 0.117724
11 -0.0550997 0.0351926 0.0283687 0.139884 0.0578292 0.112748 -0.0318208 -0.119505 0.0569073 0.127841 -0.116465 -0.0275398 -0.0616853 0.000465696 0.167931 -0.0747525 -0.026791 -0.0473067 -0.0890295 0.169912 0.0650333 0.0239141 -0.0575812 0.0862409
2 -0.118262 0.0131018 0.0939716 0.207996 0.0865029 0.15624 -0.0124252 -0.204147 0.111211 0.218686 -0.150421 0.0106957 -0.159774 0.054844 0.232261 -0.0963075 -0.0575707 -0.119276 -0.173433 0.293509 0.156379 -0.0324023 -0.0645897 0.12459
18 -0.056828 0.0107158 0.0456315 0.112675 0.0530475 0.0995399 -0.0241557 -0.0707001 0.0472599 0.106212 -0.0601965 -0.00256963 -0.0661639 0.0166099 0.112135 -0.0687794 -0.00075341 -0.0360468 -0.0628214 0.148592 0.0532726 0.0287215 -0.0572168 0.0769106
20 -0.062105 0.00475109 0.0598315 0.132403 0.0666401 0.12451 -0.0274612 -0.126997 0.0629866 0.150543 -0.117596 -0.00603589 -0.0998623 0.0354963 0.137441 -0.0722173 -0.0456153 -0.0606132 -0.10384 0.200935 0.0926614 -0.0134245 -0.0452928 0.069639
30 -0.129693 0.0184409 0.0904062 0.204872 0.0766498 0.181329 -0.00351816 -0.214471 0.102794 0.233668 -0.158319 -0.0170639 -0.150823 0.0436045 0.234456 -0.109855 -0.0563171 -0.0930343 -0.204751 0.290273 0.142379 -0.0246725 -0.099656 0.132986
8 -0.104905 0.0189139 0.0663914 0.171396 0.0924841 0.130904 -0.0117882 -0.167737 0.0978257 0.18573 -0.120283 -0.0263088 -0.125136 0.00230144 0.21132 -0.0929183 -0.0349201 -0.0759068 -0.127513 0.253653 0.119837 0.019971 -0.0928213 0.11933
16 -0.0579941 -0.0117338 0.051931 0.0912318 0.039888 0.0808385 0.00712026 -0.111378 0.0670679 0.108333 -0.0948119 0.003622 -0.0888565 0.00515519 0.0964422 -0.0395598 -0.021205 -0.0413258 -0.0888739 0.144922 0.0660674 0.00224653 -0.0534662 0.0787653
27 -0.0895841 -0.00867867 0.065873 0.103187 0.0242391 0.106245 -0.0123972 -0.125249 0.0751492 0.150107 -0.110127 -0.025984 -0.0803173 0.0394947 0.103178 -0.0501676 -0.0160476 -0.0612276 -0.112881 0.162764 0.0729683 -0.0205394 -0.0533493 0.0658192
9 -0.0748104 -0.00275329 0.0724563 0.168759 0.0590973 0.114731 -0.00751558 -0.135588 0.0994274 0.16957 -0.1259 0.0140057 -0.120082 0.0493238 0.146106 -0.0581584 -0.027271 -0.0762816 -0.154392 0.218414 0.108795 -0.025387 -0.0440551 0.10692
14 -0.134344 0.000845231 0.0870602 0.226337 0.0619863 0.181289 -0.0040757 -0.228901 0.12695 0.266782 -0.171542 -0.0286636 -0.139967 0.0271599 0.248639 -0.0786813 -0.0605167 -0.0936999 -0.211286 0.296827 0.157432 -0.0211596 -0.0890696 0.14181
24 -0.10937 -0.00797388 0.0688228 0.168657 0.0612948 0.11246 -0.00592188 -0.155935 0.083815 0.180726 -0.123814 -0.0113485 -0.119865 0.0538048 0.188562 -0.0906446 -0.0436848 -0.081456 -0.164107 0.222692 0.109175 -0.0333255 -0.0589297 0.0865223
31 -0.110432 -0.0113045 0.0590503 0.183139 0.0518106 0.149115 -0.0167212 -0.172784 0.0982279 0.202771 -0.148859 0.0135955 -0.119209 0.0273114 0.160571 -0.0661444 -0.0452623 -0.108411 -0.141546 0.250715 0.125589 -0.0345409 -0.0728797 0.106613
26 -0.131898 0.00434833 0.0810804 0.206988 0.0595851 0.160163 -0.0212434 -0.208029 0.0969202 0.274835 -0.172991 -0.0257036 -0.144516 0.0449903 0.220013 -0.0969137 -0.0711213 -0.107604 -0.211026 0.296068 0.152232 -0.036659 -0.0925467 0.145961
28 -0.159064 0.030589 0.0874522 0.231874 0.0940676 0.186246 -0.025046 -0.224482 0.1208 0.285897 -0.163172 0.00495267 -0.179178 0.0274045 0.244693 -0.0943765 -0.0429338 -0.116599 -0.215099 0.310147 0.161722 -0.028028 -0.0801216 0.165843
1 -0.115337 -0.000924085 0.0643262 0.195516 0.0832252 0.155243 -0.026301 -0.190531 0.0916229 0.221948 -0.132283 0.002462 -0.150497 0.0549555 0.214309 -0.0858201 -0.0249715 -0.0779034 -0.17321 0.244049 0.122383 -0.00171212 -0.0934068 0.10862
3 -0.124769 -0.00743178 0.0736986 0.209039 0.0824906 0.184638 -0.0264147 -0.218267 0.101257 0.242349 -0.169937 -0.00500169 -0.153701 0.0653831 0.230831 -0.0822503 -0.043541 -0.0986859 -0.183909 0.292265 0.14114 -0.0388428 -0.0894409 0.155929
19 -0.0952101 0.0119603 0.031336 0.114735 0.0272016 0.0917476 0.00123671 -0.126902 0.0525218 0.14123 -0.0834641 -0.0169199 -0.102184 0.0189416 0.136315 -0.0470884 -0.0279683 -0.0806809 -0.0985214 0.173076 0.105038 -0.0033938 -0.0640203 0.100599
6 -0.129477 0.00796144 0.0587582 0.204428 0.0557499 0.131269 0.00109203 -0.180282 0.116538 0.218265 -0.154736 -0.0109844 -0.148738 0.0510818 0.215133 -0.0829638 -0.0293555 -0.0772535 -0.141223 0.260399 0.112866 -0.0121218 -0.0846658 0.138314
29 -0.0780901 -0.000415565 0.0365217 0.137893 0.0384049 0.0772042 -0.00834844 -0.123945 0.0591301 0.131479 -0.0863431 -0.00828831 -0.106976 0.02215 0.140679 -0.0754494 -0.047202 -0.0807327 -0.108726 0.181101 0.0685155 -0.00878941 -0.035293 0.0724482
23 -0.0791786 0.0116536 0.0382438 0.143425 0.025837 0.108896 0.0109126 -0.122651 0.0712618 0.177835 -0.109423 0.00825342 -0.0854066 0.0454774 0.135377 -0.0492351 -0.0187047 -0.0812461 -0.118153 0.174296 0.0722454 -0.032913 -0.0319995 0.0791389
10 -0.0634561 -0.00545865 0.0752867 0.151456 0.0507605 0.117556 -0.00264175 -0.1325 0.0668826 0.13798 -0.127279 -0.014418 -0.0874635 0.00873824 0.142746 -0.0556531 -0.0130351 -0.047164 -0.120562 0.174248 0.0958884 -0.00772513 -0.0623429 0.0817854
